tree
version=v2
num_class=1
num_tree_per_iteration=1
label_index=0
max_feature_idx=990
objective=binary sigmoid:1
feature_names=new night way joke were mad loved put sucks ice telling off uber haul minutes thinks skin me sad ain past what meeting sending bit its talking bad hurt sound happens easy cut talk media sadness plz goodbye making idk feeling does instead brother bc wouldn thinking be haha you surprise stuff fan go saw anything sleep light upload run ideas bro good throw sometimes hard high spend listen soul more they week too welcome meant hell ugly hair but watched hurting young going anxiety some yay update tried like course gave less out though ever trip lol ur sitting have trust attention half extra changed want dm finally something mean blog nice miss struggle aw that starbucks takes losing while walking wearing mental lot up sign hide doing biggest meet little than leave loving book home food boyfriend break hang swear ate fall chance woman become fight landon yesterday did snap everyone almost rather reading later fact every question if dance looking kind blessed someone pizza pretty dead songs wants playing now next spring rest laughing lose tips days remember strong memories list supposed each use mentally lately brand said set possible about why letting sooo only keeps missing another took crying step saying movie ways gotta episode am hot bitch could phone saturday comment poshmarkapp city omg fat share we by kid plans child plan catch exist wasn ll both baby thing fail guys miserable account thanks tbh cant kinda friends god means playlist picture having without pics he well sense physically shit drink beach till productive must control photo and called exciting oops win completely amazing coming wrong myself ugh or fun actual asleep moving nobody really beautiful depressed someday die fear explain where together photos order choice healthy glad poshmark back dying used state most until text hoping girl mom cold show came fav deserve hope clothing holiday find sunday open dad thought judge getting dear car dark taken hour ago clothes over giving sister happy york how girls crazy confused im save small things went yo shut followed rn dinner experience today fast reason film problem us those months love keep fine subscribers of proud middle his constantly daily mistakes full often eating free except learn morning wish few come tweets makeup years apartment tweet send ig all texts whatever which respect whole seems money met him twitter mirror real mother wonder lies times excited right need busy reality gorgeous such looks under dress shopping awkward horrible do boy cool point added better wtf weekend moment work netflix future act seeing hacks friday told heart happening won long questions ft them queen minute lives taking random cute super hear anyway wanna others people sleeping says play man pictures check airport three hate also basically bring time walk wait song would old red water realized laugh bed hours hahahaha always perfect year routine babe add not world fake please breaking tonight might positive on christmas iphone probably everyday seen freaking lady either soon last apple being stay funny tomorrow decided knowing insta outside truly lucky start answer was party aka empty even may so comes true travel knows change single think notice literally own listening had special pick wow obsessed suicidal sent music happened emotional family men entire away tho tears collab help somebody from boys ass date lost then skinny closet big lil halloween broken everything leaving college comments happiness filming make our pretend much stupid goals sweet asking room see angel door word hi gives huge will else goodnight awake monday link waking jackson front dream cannot driving alone into call ah already ask different look weeks mine af side name needed outfit diet there with story wanted angies_diary ppl just tuesday pants ex followers nap summer down read died hello http born season believe life gets killing fix news pretending rt an ignore one deep chat made woke longer felt are hug likes apart gift missed can mind yourself buy makes living low very easily suck loves starts lt happen starting face cry got best weather lie far greatest totally dont nyc kidding bag appreciate clean found stomach suddenly know these asked before forgot job drinking ones bye sex feels house yeah as currently snapchat hand after actually hopefully least deal left awesome once cutest isn absolutely ready sit broke vid target ily yes giveaway smile kill stuck short she luck final lonely lots choose her group started issues worthless complete falling grow yet failure at place florida sick ya mood type two dreams ahhh videos okay ad head terrible watch again get seem note anyone person stress drive enjoy pic couldn understand spent talked dude congrats no scared nothing realize during class illness sis vlogs officially haven heard mess your weight forward should places never ed idea words give care is early online day worst country vlogmas aren parents guess gt black somewhere expect wear tea suicide take maybe ok cares storytime any coffee thoughts promise tell posted tired watching youre who game working damn goes close normal pain white waiting here death sorry first running social problems same weird kids matter yours wanting facebook heck the school reasons when elizabeth afraid top lmao turn around tv hey tour been message for waste feelings team safe remind cause wake sounds human follow editing inside hahaha stop guy everybody couple pls depression annoying sure beauty many daughter challenge worry looked relationship ve grateful truth favorite live trying anymore forever feel because honestly number vegas doesn vs body late part gone lets thats done using self regret behind post advice drunk easier scars important birthday support great friend eyes matters stand leaves in didn posting shop enough gonna needs definitely has painful eat flight let exactly my instagram since internet through say still lazy hit alive second able thank seriously knew month disappointment visit move imagine hold their store worth forget oh channel thankful pieces other it million dog try between hurts worse bought end
feature_infos=[0:1] [0:1] [0:1] [0:1] [0:1] [0:1] [0:1] [0:1] [0:1] [0:1] [0:1] [0:1] [0:1] [0:1] [0:1] [0:1] [0:1] [0:1] [0:1] [0:1] [0:1] [0:1] [0:1] [0:1] [0:1] [0:1] [0:1] [0:1] [0:1] [0:1] [0:1] [0:1] [0:1] [0:1] [0:1] [0:1] [0:1] [0:1] [0:1] [0:1] [0:1] [0:1] [0:1] [0:1] [0:1] [0:1] [0:1] [0:1] [0:1] [0:1] [0:1] [0:1] [0:1] [0:1] [0:1] [0:1] [0:1] [0:1] [0:1] [0:1] [0:1] [0:1] [0:1] [0:1] [0:1] [0:1] [0:1] [0:1] [0:1] [0:1] [0:1] [0:1] [0:1] [0:1] [0:1] [0:1] [0:1] [0:1] [0:1] [0:1] [0:1] [0:1] [0:1] [0:1] [0:1] [0:1] [0:1] [0:1] [0:1] [0:1] [0:1] [0:1] [0:1] [0:1] [0:1] [0:1] [0:1] [0:1] [0:1] [0:1] [0:1] [0:1] [0:1] [0:1] [0:1] [0:1] [0:1] [0:1] [0:1] [0:1] [0:1] [0:1] [0:1] [0:1] [0:1] [0:1] [0:1] [0:1] [0:1] [0:1] [0:1] [0:1] [0:1] [0:1] [0:1] [0:1] [0:1] [0:1] [0:1] [0:1] [0:1] [0:1] [0:1] [0:1] [0:1] [0:1] [0:1] [0:1] [0:1] [0:1] [0:1] [0:1] [0:1] [0:1] [0:1] [0:1] [0:1] [0:1] [0:1] [0:1] [0:1] [0:1] [0:1] [0:1] [0:1] [0:1] [0:1] [0:1] [0:1] [0:1] [0:1] [0:1] [0:1] [0:1] [0:1] [0:1] [0:1] [0:1] [0:1] [0:1] [0:1] [0:1] [0:1] [0:1] [0:1] [0:1] [0:1] [0:1] [0:1] [0:1] [0:1] [0:1] [0:1] [0:1] [0:1] [0:1] [0:1] [0:1] [0:1] [0:1] [0:1] [0:1] [0:1] [0:1] [0:1] [0:1] [0:1] [0:1] [0:1] [0:1] [0:1] [0:1] [0:1] [0:1] [0:1] [0:1] [0:1] [0:1] [0:1] [0:1] [0:1] [0:1] [0:1] [0:1] [0:1] [0:1] [0:1] [0:1] [0:1] [0:1] [0:1] [0:1] [0:1] [0:1] [0:1] [0:1] [0:1] [0:1] [0:1] [0:1] [0:1] [0:1] [0:1] [0:1] [0:1] [0:1] [0:1] [0:1] [0:1] [0:1] [0:1] [0:1] [0:1] [0:1] [0:1] [0:1] [0:1] [0:1] [0:1] [0:1] [0:1] [0:1] [0:1] [0:1] [0:1] [0:1] [0:1] [0:1] [0:1] [0:1] [0:1] [0:1] [0:1] [0:1] [0:1] [0:1] [0:1] [0:1] [0:1] [0:1] [0:1] [0:1] [0:1] [0:1] [0:1] [0:1] [0:1] [0:1] [0:1] [0:1] [0:1] [0:1] [0:1] [0:1] [0:1] [0:1] [0:1] [0:1] [0:1] [0:1] [0:1] [0:1] [0:1] [0:1] [0:1] [0:1] [0:1] [0:1] [0:1] [0:1] [0:1] [0:1] [0:1] [0:1] [0:1] [0:1] [0:1] [0:1] [0:1] [0:1] [0:1] [0:1] [0:1] [0:1] [0:1] [0:1] [0:1] [0:1] [0:1] [0:1] [0:1] [0:1] [0:1] [0:1] [0:1] [0:1] [0:1] [0:1] [0:1] [0:1] [0:1] [0:1] [0:1] [0:1] [0:1] [0:1] [0:1] [0:1] [0:1] [0:1] [0:1] [0:1] [0:1] [0:1] [0:1] [0:1] [0:1] [0:1] [0:1] [0:1] [0:1] [0:1] [0:1] [0:1] [0:1] [0:1] [0:1] [0:1] [0:1] [0:1] [0:1] [0:1] [0:1] [0:1] [0:1] [0:1] [0:1] [0:1] [0:1] [0:1] [0:1] [0:1] [0:1] [0:1] [0:1] [0:1] [0:1] [0:1] [0:1] [0:1] [0:1] [0:1] [0:1] [0:1] [0:1] [0:1] [0:1] [0:1] [0:1] [0:1] [0:1] [0:1] [0:1] [0:1] [0:1] [0:1] [0:1] [0:1] [0:1] [0:1] [0:1] [0:1] [0:1] [0:1] [0:1] [0:1] [0:1] [0:1] [0:1] [0:1] [0:1] [0:1] [0:1] [0:1] [0:1] [0:1] [0:1] [0:1] [0:1] [0:1] [0:1] [0:1] [0:1] [0:1] [0:1] [0:1] [0:1] [0:1] [0:1] [0:1] [0:1] [0:1] [0:1] [0:1] [0:1] [0:1] [0:1] [0:1] [0:1] [0:1] [0:1] [0:1] [0:1] [0:1] [0:1] [0:1] [0:1] [0:1] [0:1] [0:1] [0:1] [0:1] [0:1] [0:1] [0:1] [0:1] [0:1] [0:1] [0:1] [0:1] [0:1] [0:1] [0:1] [0:1] [0:1] [0:1] [0:1] [0:1] [0:1] [0:1] [0:1] [0:1] [0:1] [0:1] [0:1] [0:1] [0:1] [0:1] [0:1] [0:1] [0:1] [0:1] [0:1] [0:1] [0:1] [0:1] [0:1] [0:1] [0:1] [0:1] [0:1] [0:1] [0:1] [0:1] [0:1] [0:1] [0:1] [0:1] [0:1] [0:1] [0:1] [0:1] [0:1] [0:1] [0:1] [0:1] [0:1] [0:1] [0:1] [0:1] [0:1] [0:1] [0:1] [0:1] [0:1] [0:1] [0:1] [0:1] [0:1] [0:1] [0:1] [0:1] [0:1] [0:1] [0:1] [0:1] [0:1] [0:1] [0:1] [0:1] [0:1] [0:1] [0:1] [0:1] [0:1] [0:1] [0:1] [0:1] [0:1] [0:1] [0:1] [0:1] [0:1] [0:1] [0:1] [0:1] [0:1] [0:1] [0:1] [0:1] [0:1] [0:1] [0:1] [0:1] [0:1] [0:1] [0:1] [0:1] [0:1] [0:1] [0:1] [0:1] [0:1] [0:1] [0:1] [0:1] [0:1] [0:1] [0:1] [0:1] [0:1] [0:1] [0:1] [0:1] [0:1] [0:1] [0:1] [0:1] [0:1] [0:1] [0:1] [0:1] [0:1] [0:1] [0:1] [0:1] [0:1] [0:1] [0:1] [0:1] [0:1] [0:1] [0:1] [0:1] [0:1] [0:1] [0:1] [0:1] [0:1] [0:1] [0:1] [0:1] [0:1] [0:1] [0:1] [0:1] [0:1] [0:1] [0:1] [0:1] [0:1] [0:1] [0:1] [0:1] [0:1] [0:1] [0:1] [0:1] [0:1] [0:1] [0:1] [0:1] [0:1] [0:1] [0:1] [0:1] [0:1] [0:1] [0:1] [0:1] [0:1] [0:1] [0:1] [0:1] [0:1] [0:1] [0:1] [0:1] [0:1] [0:1] [0:1] [0:1] [0:1] [0:1] [0:1] [0:1] [0:1] [0:1] [0:1] [0:1] [0:1] [0:1] [0:1] [0:1] [0:1] [0:1] [0:1] [0:1] [0:1] [0:1] [0:1] [0:1] [0:1] [0:1] [0:1] [0:1] [0:1] [0:1] [0:1] [0:1] [0:1] [0:1] [0:1] [0:1] [0:1] [0:1] [0:1] [0:1] [0:1] [0:1] [0:1] [0:1] [0:1] [0:1] [0:1] [0:1] [0:1] [0:1] [0:1] [0:1] [0:1] [0:1] [0:1] [0:1] [0:1] [0:1] [0:1] [0:1] [0:1] [0:1] [0:1] [0:1] [0:1] [0:1] [0:1] [0:1] [0:1] [0:1] [0:1] [0:1] [0:1] [0:1] [0:1] [0:1] [0:1] [0:1] [0:1] [0:1] [0:1] [0:1] [0:1] [0:1] [0:1] [0:1] [0:1] [0:1] [0:1] [0:1] [0:1] [0:1] [0:1] [0:1] [0:1] [0:1] [0:1] [0:1] [0:1] [0:1] [0:1] [0:1] [0:1] [0:1] [0:1] [0:1] [0:1] [0:1] [0:1] [0:1] [0:1] [0:1] [0:1] [0:1] [0:1] [0:1] [0:1] [0:1] [0:1] [0:1] [0:1] [0:1] [0:1] [0:1] [0:1] [0:1] [0:1] [0:1] [0:1] [0:1] [0:1] [0:1] [0:1] [0:1] [0:1] [0:1] [0:1] [0:1] [0:1] [0:1] [0:1] [0:1] [0:1] [0:1] [0:1] [0:1] [0:1] [0:1] [0:1] [0:1] [0:1] [0:1] [0:1] [0:1] [0:1] [0:1] [0:1] [0:1] [0:1] [0:1] [0:1] [0:1] [0:1] [0:1] [0:1] [0:1] [0:1] [0:1] [0:1] [0:1] [0:1] [0:1] [0:1] [0:1] [0:1] [0:1] [0:1] [0:1] [0:1] [0:1] [0:1] [0:1] [0:1] [0:1] [0:1] [0:1] [0:1] [0:1] [0:1] [0:1] [0:1] [0:1] [0:1] [0:1] [0:1] [0:1] [0:1] [0:1] [0:1] [0:1] [0:1] [0:1] [0:1] [0:1] [0:1] [0:1] [0:1] [0:1] [0:1] [0:1] [0:1] [0:1] [0:1] [0:1] [0:1] [0:1] [0:1] [0:1] [0:1] [0:1] [0:1] [0:1] [0:1] [0:1] [0:1] [0:1] [0:1] [0:1] [0:1] [0:1] [0:1] [0:1] [0:1] [0:1] [0:1] [0:1] [0:1] [0:1] [0:1] [0:1] [0:1] [0:1] [0:1] [0:1] [0:1] [0:1] [0:1] [0:1] [0:1] [0:1] [0:1] [0:1] [0:1] [0:1] [0:1] [0:1] [0:1] [0:1] [0:1] [0:1] [0:1] [0:1] [0:1] [0:1] [0:1] [0:1] [0:1] [0:1] [0:1] [0:1] [0:1] [0:1] [0:1] [0:1] [0:1] [0:1] [0:1] [0:1] [0:1] [0:1] [0:1] [0:1] [0:1] [0:1] [0:1] [0:1] [0:1] [0:1] [0:1] [0:1] [0:1] [0:1] [0:1] [0:1] [0:1] [0:1] [0:1] [0:1] [0:1] [0:1] [0:1] [0:1] [0:1] [0:1] [0:1] [0:1] [0:1] [0:1] [0:1] [0:1] [0:1] [0:1] [0:1] [0:1] [0:1] [0:1] [0:1] [0:1] [0:1] [0:1] [0:1] [0:1] [0:1] [0:1] [0:1] [0:1] [0:1] [0:1] [0:1] [0:1] [0:1] [0:1] [0:1] [0:1] [0:1] [0:1] [0:1] [0:1] [0:1] [0:1] [0:1] [0:1] [0:1] [0:1] [0:1] [0:1] [0:1] [0:1] [0:1] [0:1] [0:1] [0:1] [0:1]
tree_sizes=5393 5435 5461 5434 5418 5477 5455 5510 5460 5478 5465 5436 5456 5489 5491 5467 5468 5444 5455 5462 5485 5455 5471 5422 5482 5496 5480 5467 5445 5451 5487 5463 5479 5437 5473 5510 5473 5483 5490 5514 5474 5490 5496 5484 5510 5471 5483 5440 5518 5482 5462 5473 5439 5474 5464 5482 5464 5529 5469 5522 5493 5453 5482 5489 5513 5514 5489 5493 5524 5500 5524 5500 5521 5528 5505 5450 5523 5505 5510 5487 5465 5522 5462 5481 5503 5520 5452 5477 5494 5522 5516 5483 5501 5447 5510 5503 5443 5522 5528 5472 5502 5528 5530 5511 5535 5523 5529 5462 5493 5513 5497 5506 5529 5510 5527 5538 5514 5526 5467 5480 5547 5460 5494 5523 5540 5544 5545 5516 5532 5539 5481 5539 5536 5510 5537 5474 5510 5536 5541 5537 5527 5488 5536 5496 5472 5559 5540 5500 5521 5533 5553 5537 5476 5542 5543 5509 5527 5515 5546 5555 5526 5539 5495 5552 5527 5555 5539 5524 5549 5524 5542 5533 5537 5584 5503 5512 5552 5548 5578 5540 5516 5540 5530 5558 5573 5551 5534 5553 5506 5523 5563 5520 5550 5499 5517 5535 5504 5544 5553 5546 5535 5546 5548 5551 5545 5538 5531 5517 5535 5547 5545 5550 5586 5559 5523 5523 5550 5532 5541 5550 5545 5568 5519 5534 5553 5555 5551 5503 5525 5554 5563 5516 5569 5518 5554 5572 5526 5564 5496 5582 5517 5541 5530 5540 5544 5539 5565 5551 5597 5546 5552 5530 5528 5544 5545 5573 5548 5575 5550 5521 5504 5587 5549 5530 5541 5557 5525 5527 5598 5547 5536 5587 5573 5584 5498 5570 5541 5579 5573 5523 5569 5538 5534 5564 5562 5544 5600 5532 5539 5576 5555 5561 5515 5518 5536 5501 5518 5591 5549 5530

Tree=0
num_leaves=63
num_cat=0
split_feature=447 792 456 776 653 560 881 564 840 987 47 769 17 911 752 268 855 717 849 921 758 33 720 990 100 647 86 952 726 209 699 801 65 627 445 952 482 816 480 686 152 173 17 952 616 56 212 222 172 952 412 952 616 338 801 4 73 726 952 482 801 471
split_gain=487.962 402.281 309.521 299.222 233.478 216.904 199.79 193.869 179.823 140.897 136.86 137.504 112.489 97.0748 88.2949 87.1435 85.6051 66.1988 64.6143 64.8759 60.9258 56.8148 55.1284 52.8374 50.7326 50.7039 47.6619 44.5135 44.4466 44.2849 39.1655 40.482 42.129 41.9488 36.4134 31.6038 29.0464 28.8773 25.0389 24.5536 24.256 23.0944 21.7708 18.9182 19.2697 18.1649 17.262 16.2298 16.0655 14.2558 13.8984 11.9572 11.6707 11.1194 10.8832 10.8537 10.432 9.56246 12.5346 14.1478 9.44324 8.54258
threshold=1.0000000180025095e-35 1.0000000180025095e-35 1.0000000180025095e-35 1.0000000180025095e-35 1.0000000180025095e-35 1.0000000180025095e-35 1.0000000180025095e-35 1.0000000180025095e-35 1.0000000180025095e-35 1.0000000180025095e-35 1.0000000180025095e-35 1.0000000180025095e-35 1.0000000180025095e-35 1.0000000180025095e-35 1.0000000180025095e-35 1.0000000180025095e-35 1.0000000180025095e-35 1.0000000180025095e-35 1.0000000180025095e-35 1.0000000180025095e-35 1.0000000180025095e-35 1.0000000180025095e-35 1.0000000180025095e-35 1.0000000180025095e-35 1.0000000180025095e-35 1.0000000180025095e-35 1.0000000180025095e-35 1.0000000180025095e-35 1.0000000180025095e-35 1.0000000180025095e-35 1.0000000180025095e-35 1.0000000180025095e-35 1.0000000180025095e-35 1.0000000180025095e-35 1.0000000180025095e-35 1.0000000180025095e-35 1.0000000180025095e-35 1.0000000180025095e-35 1.0000000180025095e-35 1.0000000180025095e-35 1.0000000180025095e-35 1.0000000180025095e-35 1.0000000180025095e-35 1.0000000180025095e-35 1.0000000180025095e-35 1.0000000180025095e-35 1.0000000180025095e-35 1.0000000180025095e-35 1.0000000180025095e-35 1.0000000180025095e-35 1.0000000180025095e-35 1.0000000180025095e-35 1.0000000180025095e-35 1.0000000180025095e-35 1.0000000180025095e-35 1.0000000180025095e-35 1.0000000180025095e-35 1.0000000180025095e-35 1.0000000180025095e-35 1.0000000180025095e-35 1.0000000180025095e-35 1.0000000180025095e-35
decision_type=2 2 2 2 2 2 2 2 2 2 2 2 2 2 2 2 2 2 2 2 2 2 2 2 2 2 2 2 2 2 2 2 2 2 2 2 2 2 2 2 2 2 2 2 2 2 2 2 2 2 2 2 2 2 2 2 2 2 2 2 2 2
left_child=1 2 3 4 5 6 7 8 9 10 11 12 13 14 15 16 17 18 19 20 21 22 23 24 25 26 28 -2 29 30 31 32 33 34 36 -35 37 38 39 40 41 45 49 44 54 46 47 48 50 52 53 -3 -6 55 -12 56 61 58 59 -14 -26 -1
right_child=27 51 -4 -5 42 -7 -8 -9 -10 -11 43 -13 57 -15 -16 -17 -18 -19 -20 -21 -22 -23 -24 -25 60 -27 -28 -29 -30 -31 -32 -33 -34 35 -36 -37 -38 -39 -40 -41 -42 -43 -44 -45 -46 -47 -48 -49 -50 -51 -52 -53 -54 -55 -56 -57 -58 -59 -60 -61 -62 -63
leaf_value=-0.3252026256577123 -0.30433432177843062 -0.30241525649361117 -0.29960349563495492 -0.2994988223510156 -0.31420059861088012 -0.30467160831755946 -0.29163938411673823 -0.28994190810111475 -0.29133188601221316 -0.29362511769174593 -0.3156398268566003 -0.29509999141863918 -0.31837951937024467 -0.30618311024055422 -0.34444788142531813 -0.33926556822326348 -0.33786521929095287 -0.34482475139484287 -0.29915533138041861 -0.30337381345843778 -0.30954745760918945 -0.30759288532639961 -0.33347916289055518 -0.30653213248237632 -0.31806265582447579 -0.31848494569939217 -0.34146036553356773 -0.3173067868508842 -0.31420868223024673 -0.31623993683705659 -0.31450962547593742 -0.33018417478885342 -0.31109333117374294 -0.31638486211013561 -0.31373438896676192 -0.3327542905606124 -0.31148457585120559 -0.3102560152235479 -0.31427479522337881 -0.3192702886060953 -0.31659033709919782 -0.33467470376997221 -0.30740848180695135 -0.32124957592891312 -0.30763148141186558 -0.3156185080776695 -0.3157960690410011 -0.31805796776253165 -0.3304079103660611 -0.31916647350154981 -0.32084824351866953 -0.31038180987247382 -0.3074679483682618 -0.31815414501197509 -0.32507604714418614 -0.31738604496814171 -0.32067482772987166 -0.3109016224713414 -0.32176245080516025 -0.30768817622667427 -0.32735756795871379 -0.33392828097597671
leaf_count=25967 1958 1089 628 588 1987 674 199 172 173 157 2180 164 3614 297 187 322 374 131 103 151 294 208 506 171 1773 1638 143 279 433 665 384 1035 229 949 294 123 158 130 215 755 327 222 483 590 276 196 191 311 505 479 746 207 270 214 119 167 471 143 1077 118 107 104
internal_value=0 -0.0366844 -0.0628345 -0.0790804 -0.0947095 -0.128199 -0.143531 -0.151597 -0.159011 -0.166196 -0.172276 -0.200127 -0.206707 -0.24138 -0.24976 -0.243381 -0.235013 -0.225998 -0.221276 -0.225425 -0.230474 -0.23734 -0.242953 -0.23425 -0.239246 -0.255928 -0.27226 0.927901 -0.267464 -0.275591 -0.285808 -0.293224 -0.280578 -0.286764 -0.300399 0.10718 -0.307198 -0.311683 -0.315758 -0.320666 -0.329922 -0.336088 0.434339 0.235252 0.310215 -0.331083 -0.335284 -0.339354 -0.344434 0.364346 -0.337899 1.07887 0.431706 -0.345456 0.249501 -0.349141 -0.35238 0.0817471 0.0663975 0.121953 0.085273 -0.357778
internal_count=58820 56583 55287 54659 54071 50852 50178 49979 49807 49634 49477 46312 46148 41196 40899 40712 40390 40016 39885 39782 39631 39337 39129 38623 38452 36572 34934 2237 34791 34358 33693 33309 32274 32045 30973 1072 30679 30521 30391 30176 29421 29094 3219 3165 2575 28872 28676 28485 28174 2736 27669 1296 2257 26923 2299 26709 26542 4952 4809 3732 1880 26071
shrinkage=1


Tree=1
num_leaves=63
num_cat=0
split_feature=49 836 456 106 64 116 517 18 487 71 27 544 871 116 836 499 921 769 804 616 796 194 358 473 726 913 958 47 616 64 71 653 930 488 487 47 901 653 787 758 757 391 816 653 575 273 553 243 487 371 829 473 194 640 197 221 653 294 274 100 382 358
split_gain=766.714 420.004 263.186 233.374 167.075 151.975 150.727 147.447 131.604 133.193 105.513 105.076 104.991 93.1009 87.0039 80.1187 77.4325 77.2565 75.5559 73.741 61.2646 59.9663 59.9279 56.0656 54.4123 51.7665 50.6666 49.4358 48.0546 47.9117 45.838 45.1489 42.8627 40.2305 40.1606 39.8862 31.5232 28.8893 28.4443 29.1518 36.4985 25.9064 25.4312 22.5852 22.0342 21.3096 19.2323 19.0797 18.2315 18.0264 17.8111 19.9401 18.043 17.0843 16.8798 16.4624 12.1378 11.9311 12.4224 11.4995 11.9451 9.65987
threshold=1.0000000180025095e-35 1.0000000180025095e-35 1.0000000180025095e-35 1.0000000180025095e-35 1.0000000180025095e-35 1.0000000180025095e-35 1.0000000180025095e-35 1.0000000180025095e-35 1.0000000180025095e-35 1.0000000180025095e-35 1.0000000180025095e-35 1.0000000180025095e-35 1.0000000180025095e-35 1.0000000180025095e-35 1.0000000180025095e-35 1.0000000180025095e-35 1.0000000180025095e-35 1.0000000180025095e-35 1.0000000180025095e-35 1.0000000180025095e-35 1.0000000180025095e-35 1.0000000180025095e-35 1.0000000180025095e-35 1.0000000180025095e-35 1.0000000180025095e-35 1.0000000180025095e-35 1.0000000180025095e-35 1.0000000180025095e-35 1.0000000180025095e-35 1.0000000180025095e-35 1.0000000180025095e-35 1.0000000180025095e-35 1.0000000180025095e-35 1.0000000180025095e-35 1.0000000180025095e-35 1.0000000180025095e-35 1.0000000180025095e-35 1.0000000180025095e-35 1.0000000180025095e-35 1.0000000180025095e-35 1.0000000180025095e-35 1.0000000180025095e-35 1.0000000180025095e-35 1.0000000180025095e-35 1.0000000180025095e-35 1.0000000180025095e-35 1.0000000180025095e-35 1.0000000180025095e-35 1.0000000180025095e-35 1.0000000180025095e-35 1.0000000180025095e-35 1.0000000180025095e-35 1.0000000180025095e-35 1.0000000180025095e-35 1.0000000180025095e-35 1.0000000180025095e-35 1.0000000180025095e-35 1.0000000180025095e-35 1.0000000180025095e-35 1.0000000180025095e-35 1.0000000180025095e-35 1.0000000180025095e-35
decision_type=2 2 2 2 2 2 2 2 2 2 2 2 2 2 2 2 2 2 2 2 2 2 2 2 2 2 2 2 2 2 2 2 2 2 2 2 2 2 2 2 2 2 2 2 2 2 2 2 2 2 2 2 2 2 2 2 2 2 2 2 2 2
left_child=1 2 3 4 7 6 14 8 9 10 11 12 13 15 17 16 18 19 20 26 21 22 23 24 25 27 29 31 56 30 34 32 33 36 35 37 38 44 39 40 41 42 47 -10 45 46 50 49 -7 53 51 52 61 54 57 -33 -8 58 59 60 -1 -2
right_child=5 -3 -4 -5 -6 48 28 -9 43 -11 -12 -13 -14 -15 -16 -17 -18 -19 -20 -21 -22 -23 -24 -25 -26 -27 -28 -29 -30 -31 -32 55 -34 -35 -36 -37 -38 -39 -40 -41 -42 -43 -44 -45 -46 -47 -48 -49 -50 -51 -52 -53 -54 -55 -56 -57 -58 -59 -60 -61 -62 -63
leaf_value=-0.0056008042941701171 0.0021070684816487128 0.032056545524022928 0.01900345291973108 0.011592384928408266 0.02009131322991203 0.016181594464168517 -0.0059821992176513359 0.016477225873509041 -0.0097870520322186124 0.0084443813749452579 0.013865823348319681 0.027784496137419516 0.026954708048184863 0.0023002867564550916 0.033334379470257129 0.0083206946036663721 0.01821944665730962 0.02867433917111243 -0.025828383861045218 0.01446985195904907 0.013306719892031067 0.0048551147865240332 0.00014638477827031842 0.0075047580815452673 0.0061176914208123699 0.01608299693762022 0.020363555629028491 0.00038273957089265362 0.013218982421805126 0.025123640217450942 0.016450502390445394 0.0023415948174108688 -0.018012669955123996 -0.021182238543777845 -0.003624686959851488 0.011945569236204351 -0.018752886830023269 0.010650997393090477 0.0009206079149986523 0.0066987616554428737 -0.018977600563419836 0.0076916799727262657 0.0091612562959446399 0.0011326659047594849 -0.0050481303533563135 0.015349415967625932 0.015080950839627578 0.0063627925147441101 0.0037695734018408332 -0.013408087542745787 0.011926985587465126 0.015626975597342455 0.013856238309280972 0.00038430893748799721 0.0024275164112173195 -0.01044284599892115 0.0031346261667059864 -0.010866322539954227 -0.014323701305455731 -0.0016352142648737493 -0.0012174087877897921 0.0062281926767686737
leaf_count=22629 5047 334 536 1076 294 1461 1320 360 2872 986 345 102 107 2665 111 514 147 140 144 861 193 714 2886 359 433 110 198 1607 146 106 290 947 244 145 569 649 156 569 717 188 179 143 112 186 266 146 132 128 118 257 216 114 133 476 250 103 150 378 144 737 589 586
internal_value=0 -0.125212 -0.141959 -0.158935 -0.18197 0.427175 0.347868 -0.19232 -0.203158 -0.172065 -0.190735 -0.200731 -0.206186 -0.211788 0.439475 -0.239114 -0.25074 0.419719 -0.256916 0.398523 -0.250862 -0.257207 -0.269442 -0.295416 -0.304735 -0.314953 0.344451 -0.320019 -0.226615 0.321707 0.305244 -0.33951 -0.35528 -0.347706 0.277986 0.315613 -0.342008 0.272296 -0.336747 -0.347639 -0.353387 -0.347072 -0.351858 -0.608138 0.234737 0.258572 0.240633 -0.356078 1.01695 -0.360001 0.224064 0.203069 0.186478 -0.354557 -0.361876 0.0725024 -0.336733 -0.367227 -0.361625 -0.358059 -0.365971 0.16906
internal_count=58820 45492 45158 44622 43546 13328 11749 43252 42892 39834 38848 38503 38401 38294 10133 35629 35115 10022 34968 9882 34824 34631 33917 31031 30672 30239 9021 30129 1616 8823 8717 28522 27472 27228 8427 7858 27083 7209 26927 26210 26022 25843 25700 3058 6640 6374 6228 25588 1579 25460 6096 5880 5766 25203 24727 1050 1470 24477 24099 23955 23218 5633
shrinkage=0.015


Tree=2
num_leaves=63
num_cat=0
split_feature=836 447 797 219 653 763 840 987 722 654 278 17 849 499 796 871 13 855 934 168 270 221 755 958 477 476 515 338 308 827 903 913 830 100 985 480 746 302 125 355 273 777 686 759 65 210 932 670 251 269 17 274 55 20 125 670 742 686 414 686 957 732
split_gain=540.646 457.972 304.674 294.911 213.514 178.872 170.181 142.619 132.611 131.073 122.628 118.262 108.255 104.915 103.851 98.4725 97.7618 83.2728 69.7313 65.6454 65.2737 62.8567 62.6067 61.557 56.9723 53.2621 51.2981 50.7256 45.9755 42.036 40.5553 37.9133 36.0334 35.5138 37.1683 31.8709 31.1566 30.0808 28.5556 32.4053 26.2592 23.3063 21.5594 22.7984 19.4501 18.8124 18.0648 17.2216 16.0786 19.2206 14.7302 14.3202 13.811 13.4185 13.4154 12.5677 12.0941 11.5918 10.571 10.0823 9.91313 10.1841
threshold=1.0000000180025095e-35 1.0000000180025095e-35 1.0000000180025095e-35 1.0000000180025095e-35 1.0000000180025095e-35 1.0000000180025095e-35 1.0000000180025095e-35 1.0000000180025095e-35 1.0000000180025095e-35 1.0000000180025095e-35 1.0000000180025095e-35 1.0000000180025095e-35 1.0000000180025095e-35 1.0000000180025095e-35 1.0000000180025095e-35 1.0000000180025095e-35 1.0000000180025095e-35 1.0000000180025095e-35 1.0000000180025095e-35 1.0000000180025095e-35 1.0000000180025095e-35 1.0000000180025095e-35 1.0000000180025095e-35 1.0000000180025095e-35 1.0000000180025095e-35 1.0000000180025095e-35 1.0000000180025095e-35 1.0000000180025095e-35 1.0000000180025095e-35 1.0000000180025095e-35 1.0000000180025095e-35 1.0000000180025095e-35 1.0000000180025095e-35 1.0000000180025095e-35 1.0000000180025095e-35 1.0000000180025095e-35 1.0000000180025095e-35 1.0000000180025095e-35 1.0000000180025095e-35 1.0000000180025095e-35 1.0000000180025095e-35 1.0000000180025095e-35 1.0000000180025095e-35 1.0000000180025095e-35 1.0000000180025095e-35 1.0000000180025095e-35 1.0000000180025095e-35 1.0000000180025095e-35 1.0000000180025095e-35 1.0000000180025095e-35 1.0000000180025095e-35 1.0000000180025095e-35 1.0000000180025095e-35 1.0000000180025095e-35 1.0000000180025095e-35 1.0000000180025095e-35 1.0000000180025095e-35 1.0000000180025095e-35 1.0000000180025095e-35 1.0000000180025095e-35 1.0000000180025095e-35 1.0000000180025095e-35
decision_type=2 2 2 2 2 2 2 2 2 2 2 2 2 2 2 2 2 2 2 2 2 2 2 2 2 2 2 2 2 2 2 2 2 2 2 2 2 2 2 2 2 2 2 2 2 2 2 2 2 2 2 2 2 2 2 2 2 2 2 2 2 2
left_child=1 2 3 4 5 6 7 8 9 10 11 12 13 14 15 16 17 18 19 20 22 50 23 24 25 26 27 28 29 30 31 32 33 34 35 36 37 38 39 40 41 42 43 44 45 46 47 48 49 51 -6 52 53 58 -16 56 57 -13 60 -3 61 -1
right_child=-2 59 -4 -5 21 -7 -8 -9 -10 -11 -12 55 -14 -15 54 -17 -18 -19 -20 -21 -22 -23 -24 -25 -26 -27 -28 -29 -30 -31 -32 -33 -34 -35 -36 -37 -38 -39 -40 -41 -42 -43 -44 -45 -46 -47 -48 -49 -50 -51 -52 -53 -54 -55 -56 -57 -58 -59 -60 -61 -62 -63
leaf_value=-0.0040872356555905391 0.031895176894213895 0.012723486698616929 0.02448377478181402 0.03339767953304397 0.0066456835522944015 0.016569680355583181 0.028320088893894202 0.026161145236682445 0.021180624384929767 0.019555026844402228 0.024610542108582354 0.0021771939635190645 0.02293644449727511 0.0092442616376186438 0.010055563028948748 0.026305926455105991 -0.025738788834138424 -0.017294554978580252 0.017442180106922521 0.014862229693713569 0.015389066478789494 -0.0083532310662757202 0.018483443528582843 0.0060152341584978949 -0.019643899103566766 -0.024138946187751538 0.0058451183682894908 0.0059183714509901822 0.016228283053147469 -0.016020101127453532 0.0078993502426189122 0.013276103086030968 -0.019409993320943258 0.00029526109572038236 0.0086484121629040161 0.0061777843521749164 -0.018097635812281358 -0.012238118453098261 -0.0081677200221108651 0.0088042249053085549 0.0028775766432006999 0.010787698802587727 0.00097397728883186706 0.00090078723196730182 0.0053564001581390408 -0.01679616526114544 -0.012286520817850111 -0.0097395510554614279 0.0047477240835630662 -0.01412722591550946 0.012491445114102983 -0.012875372312483384 0.0060502598250587632 0.0070724198182357994 0.023710769312879684 -0.0078384657149751392 -0.0032929764613807847 0.0086682364258524568 -0.013304154770899869 0.020630356232666732 0.0022398484258056525 0.0021197697355458916
leaf_count=30534 484 2045 436 229 2579 494 172 166 227 257 157 4765 150 649 167 104 178 382 153 187 174 248 122 643 200 114 556 527 108 251 284 122 134 2027 219 287 144 398 1355 191 545 100 822 853 198 109 250 490 193 174 469 167 127 101 110 119 353 268 113 160 234 246
internal_value=0 -0.0177492 -0.0533757 -0.0665911 -0.076068 -0.107699 -0.119307 -0.126041 -0.132119 -0.138986 -0.146283 -0.151822 -0.185993 -0.191727 -0.203562 -0.211336 -0.216 -0.20992 -0.201649 -0.206478 -0.211676 0.4234 -0.216699 -0.22083 -0.230323 -0.225184 -0.221419 -0.229653 -0.237731 -0.241239 -0.236106 -0.241507 -0.24495 -0.241425 -0.255429 -0.260276 -0.26545 -0.261809 -0.255817 -0.244781 -0.249294 -0.256227 -0.259054 -0.266948 -0.275422 -0.279256 -0.276448 -0.272258 -0.266465 -0.270017 0.503064 -0.26631 -0.263159 -0.265873 1.03188 0.128403 0.142786 0.168202 -0.268266 0.886507 -0.266012 -0.269172
internal_count=58820 58336 56131 55695 55466 52170 51676 51504 51338 51111 50854 50697 45192 45042 44393 44116 44012 43834 43452 43299 43112 3296 42938 42816 42173 41973 41859 41303 40776 40668 40417 40133 40011 39877 37850 37631 37344 37200 36802 35447 35256 34711 34611 33789 32936 32738 32629 32379 31889 31696 3048 31522 31355 31228 277 5505 5386 5033 31127 2205 31014 30780
shrinkage=0.015


Tree=3
num_leaves=63
num_cat=0
split_feature=49 906 560 71 776 988 906 517 487 160 871 358 921 769 71 776 934 487 958 399 719 726 901 801 798 73 801 816 296 152 435 952 802 273 647 109 391 952 982 952 339 487 44 431 527 95 532 222 982 73 575 567 89 160 247 854 958 25 898 952 732 414
split_gain=735.923 437.358 206.147 176.266 153.102 155.417 143.346 143.284 130.409 105.544 100.962 87.611 83.8558 79.596 70.7282 67.1212 61.0646 59.8145 58.6565 52.8353 51.1065 48.852 47.3133 47.7037 45.8238 42.6762 36.305 33.7286 34.4681 30.172 29.8713 29.8429 27.6582 25.1801 24.7033 26.3956 23.6776 22.7107 25.1366 22.5752 21.528 20.3378 19.7399 19.5444 20.0852 19.2728 18.5167 19.4903 18.2398 17.9193 19.7258 17.2192 16.2021 15.7454 13.3891 12.2307 11.4152 10.9759 10.7301 10.6931 10.614 8.81402
threshold=1.0000000180025095e-35 1.0000000180025095e-35 1.0000000180025095e-35 1.0000000180025095e-35 1.0000000180025095e-35 1.0000000180025095e-35 1.0000000180025095e-35 1.0000000180025095e-35 1.0000000180025095e-35 1.0000000180025095e-35 1.0000000180025095e-35 1.0000000180025095e-35 1.0000000180025095e-35 1.0000000180025095e-35 1.0000000180025095e-35 1.0000000180025095e-35 1.0000000180025095e-35 1.0000000180025095e-35 1.0000000180025095e-35 1.0000000180025095e-35 1.0000000180025095e-35 1.0000000180025095e-35 1.0000000180025095e-35 1.0000000180025095e-35 1.0000000180025095e-35 1.0000000180025095e-35 1.0000000180025095e-35 1.0000000180025095e-35 1.0000000180025095e-35 1.0000000180025095e-35 1.0000000180025095e-35 1.0000000180025095e-35 1.0000000180025095e-35 1.0000000180025095e-35 1.0000000180025095e-35 1.0000000180025095e-35 1.0000000180025095e-35 1.0000000180025095e-35 1.0000000180025095e-35 1.0000000180025095e-35 1.0000000180025095e-35 1.0000000180025095e-35 1.0000000180025095e-35 1.0000000180025095e-35 1.0000000180025095e-35 1.0000000180025095e-35 1.0000000180025095e-35 1.0000000180025095e-35 1.0000000180025095e-35 1.0000000180025095e-35 1.0000000180025095e-35 1.0000000180025095e-35 1.0000000180025095e-35 1.0000000180025095e-35 1.0000000180025095e-35 1.0000000180025095e-35 1.0000000180025095e-35 1.0000000180025095e-35 1.0000000180025095e-35 1.0000000180025095e-35 1.0000000180025095e-35 1.0000000180025095e-35
decision_type=2 2 2 2 2 2 2 2 2 2 2 2 2 2 2 2 2 2 2 2 2 2 2 2 2 2 2 2 2 2 2 2 2 2 2 2 2 2 2 2 2 2 2 2 2 2 2 2 2 2 2 2 2 2 2 2 2 2 2 2 2 2
left_child=1 2 3 4 5 8 7 13 9 10 11 12 16 14 15 17 19 18 24 20 21 22 23 25 30 27 39 28 29 32 33 -26 34 37 35 36 40 38 45 55 42 -5 43 44 46 49 47 51 -9 50 53 54 -3 58 56 -13 57 61 -2 -19 -23 -1
right_child=6 52 -4 41 -6 -7 -8 48 -10 -11 -12 26 -14 -15 -16 -17 -18 59 -20 -21 -22 60 -24 -25 31 -27 -28 -29 -30 -31 -32 -33 -34 -35 -36 -37 -38 -39 -40 -41 -42 -43 -44 -45 -46 -47 -48 -49 -50 -51 -52 -53 -54 -55 -56 -57 -58 -59 -60 -61 -62 -63
leaf_value=-0.0041887196918703783 0.0043637223396630542 0.020165672383628999 0.015860337380481565 0.010321899054235537 0.016307792707133176 0.028033787320527626 0.022058880500621304 -0.0038857827722305178 -0.0092804372588282912 0.0082562747729443432 0.026185412534098586 0.0057592694300243859 0.019465989364521038 0.028330649326945154 0.018474781778226139 0.02529421547715599 0.019996236621656848 -0.00050519157901260088 0.022259267865504358 -0.016970497143916453 -0.019249260339932121 0.0036989676961716139 -0.018792501011431678 -0.0099622710010708136 0.014331738663153359 0.0047202808438962761 -0.010442697723585224 0.011485780369527226 0.013876149304569482 0.005080221303470538 0.017156101921021589 -0.0010187400462681442 0.012140060891855946 0.015732248520003701 0.001232177085242567 0.007772507323417467 0.0067016272573002592 0.00014690795922282462 0.0098034223263463588 -0.0015822927397232964 -0.015341022054214197 -0.0038131501325138904 0.0064751912085729228 0.0080858588199574817 0.0075133896590521311 0.014501594397667629 -0.015174262752791781 0.0032558924732658456 0.0037149013683251929 -0.0045081197298028316 -0.0037047220132710012 -0.012767038670342776 0.012349362384251748 0.010698790042997727 0.0066078942753660923 0.0013746740318304712 0.0014271763801215072 0.0041340302402856867 0.014310950390412969 -0.0091427838250977035 0.014440472558786057 -0.012698758841228472
leaf_count=27706 4908 686 568 1067 380 148 509 1424 2974 798 109 1375 146 157 444 165 101 563 211 272 190 380 188 1019 860 604 220 139 105 369 193 135 102 199 906 179 192 859 1012 981 154 103 167 123 138 177 139 333 366 204 249 212 380 418 108 1024 339 146 102 173 109 113
internal_value=0 -0.122793 -0.153595 -0.169328 -0.190629 -0.202155 0.418157 0.37629 -0.209438 -0.178402 -0.193576 -0.199145 -0.230404 0.462436 0.441709 0.407972 -0.236902 0.387342 0.430272 -0.241528 -0.234446 -0.228587 -0.23789 -0.232171 0.406332 -0.218548 0.101532 -0.228733 -0.233131 -0.237008 0.357214 0.816655 -0.243858 0.338511 -0.247331 -0.257279 -0.261932 0.320638 0.358401 0.153378 -0.266527 0.605355 -0.262587 -0.266542 -0.269937 0.309036 -0.273598 -0.270056 -0.155312 0.28921 0.310388 -0.275732 1.15861 0.335941 -0.271437 0.259182 -0.274156 -0.278642 0.304429 -0.168907 0.406316 -0.281551
internal_count=58820 45492 44426 43858 42688 42308 13328 12819 42160 39186 38388 38279 34679 11029 10872 10428 34533 10263 9527 34432 34160 33970 33481 33293 9316 32274 3600 31670 31531 31426 8321 995 31057 8128 30955 30049 29870 7929 7070 3380 29678 1170 29524 29357 29234 6058 29096 28957 1790 5881 5677 28624 1066 5428 28412 2399 28304 27965 5010 736 489 27819
shrinkage=0.015


Tree=4
num_leaves=63
num_cat=0
split_feature=49 271 283 79 254 165 79 988 165 64 616 499 28 654 27 28 218 218 752 181 763 283 855 948 346 990 930 712 309 302 958 64 924 787 763 95 358 346 857 686 824 214 857 787 302 742 382 903 499 857 477 48 854 298 358 230 89 854 854 274 464 575
split_gain=713.558 429.899 250.276 236.941 210.089 200.328 145.801 141.495 136.906 132.434 112.494 111.939 105.949 106.64 98.8515 93.2566 91.1682 89.6764 79.0991 74.3664 72.3633 70.9442 70.4432 68.6195 71.5043 66.5875 57.6127 51.0531 47.678 44.0546 42.6169 38.4228 37.9608 37.8806 36.2478 40.3178 34.355 34.2129 32.591 29.9469 25.6945 24.2135 23.549 23.499 19.181 18.7416 26.2034 21.696 18.6157 18.2621 17.5689 17.5721 16.8099 16.3321 15.0524 13.6693 13.3627 13.1422 13.1232 12.3056 12.4989 11.687
threshold=1.0000000180025095e-35 1.0000000180025095e-35 1.0000000180025095e-35 1.0000000180025095e-35 1.0000000180025095e-35 1.0000000180025095e-35 1.0000000180025095e-35 1.0000000180025095e-35 1.0000000180025095e-35 1.0000000180025095e-35 1.0000000180025095e-35 1.0000000180025095e-35 1.0000000180025095e-35 1.0000000180025095e-35 1.0000000180025095e-35 1.0000000180025095e-35 1.0000000180025095e-35 1.0000000180025095e-35 1.0000000180025095e-35 1.0000000180025095e-35 1.0000000180025095e-35 1.0000000180025095e-35 1.0000000180025095e-35 1.0000000180025095e-35 1.0000000180025095e-35 1.0000000180025095e-35 1.0000000180025095e-35 1.0000000180025095e-35 1.0000000180025095e-35 1.0000000180025095e-35 1.0000000180025095e-35 1.0000000180025095e-35 1.0000000180025095e-35 1.0000000180025095e-35 1.0000000180025095e-35 1.0000000180025095e-35 1.0000000180025095e-35 1.0000000180025095e-35 1.0000000180025095e-35 1.0000000180025095e-35 1.0000000180025095e-35 1.0000000180025095e-35 1.0000000180025095e-35 1.0000000180025095e-35 1.0000000180025095e-35 1.0000000180025095e-35 1.0000000180025095e-35 1.0000000180025095e-35 1.0000000180025095e-35 1.0000000180025095e-35 1.0000000180025095e-35 1.0000000180025095e-35 1.0000000180025095e-35 1.0000000180025095e-35 1.0000000180025095e-35 1.0000000180025095e-35 1.0000000180025095e-35 1.0000000180025095e-35 1.0000000180025095e-35 1.0000000180025095e-35 1.0000000180025095e-35 1.0000000180025095e-35
decision_type=2 2 2 2 2 2 2 2 2 2 2 2 2 2 2 2 2 2 2 2 2 2 2 2 2 2 2 2 2 2 2 2 2 2 2 2 2 2 2 2 2 2 2 2 2 2 2 2 2 2 2 2 2 2 2 2 2 2 2 2 2 2
left_child=1 2 3 4 7 6 10 8 9 11 15 12 13 14 16 17 18 21 19 20 22 29 23 24 25 26 27 28 32 30 31 34 33 36 35 37 38 40 39 41 42 44 43 48 45 47 -47 50 54 -12 51 53 -38 59 55 61 57 -5 -13 60 -1 -2
right_child=5 -3 -4 56 -6 -7 -8 -9 -10 -11 49 58 -14 -15 -16 -17 -18 -19 -20 -21 -22 -23 -24 -25 -26 -27 -28 -29 -30 -31 -32 -33 -34 -35 -36 -37 52 -39 -40 -41 -42 -43 -44 -45 -46 46 -48 -49 -50 -51 -52 -53 -54 -55 -56 -57 -58 -59 -60 -61 -62 -63
leaf_value=-0.0044078774596247343 0.00072413102916284969 0.019384392351466828 0.025852370960409477 0.0086543763006487803 0.023730078566156682 0.023500926076561759 0.015400753075020675 0.028057608417942831 0.010724165651650549 0.019073673292207632 0.012061857153680388 0.011937368049497611 0.024904612525540899 0.019342646681424866 0.012615637014257462 0.032060532545754757 -0.017234485356997647 -0.019155252670994573 -0.024887396568497231 0.021280082414691502 0.01202513233250365 0.027556655382765898 -0.017389112515946006 0.0131395482088358 -0.012083436158923291 0.015246867758767844 -0.017665292172781972 0.013772415675490353 0.01199692500169682 -0.014074595012901276 0.018337400988384274 0.021627646862054581 -0.018207921371047164 0.001565123857309738 0.016930261297668163 0.014130233504888418 0.0011409703237390846 -0.011270949867440641 0.0018428714909000294 0.0025129672139086695 0.014349268620527256 -0.019580494351366023 0.007508419865315849 0.0070369976166084775 -0.012227901140417977 -0.010740062638977322 0.0037048990336569121 0.0067133314294385909 0.013331912306389864 0.02354747328975388 -0.017056223556440871 -0.015462641875688585 -0.0035135204271127215 0.0059783391286224721 0.0053471265552964683 0.007732168650603174 0.00075591728917898387 0.0037619998690967787 0.0021891393267486465 -0.012941241560729949 0.0019420043516661216 -0.0058788488440822866
leaf_count=27866 6045 865 291 1617 270 586 1207 133 636 238 935 445 118 181 327 103 486 165 167 108 259 111 365 216 994 168 280 152 174 135 172 102 172 1141 167 275 1630 167 764 550 168 100 753 745 301 821 135 162 118 147 102 132 1277 141 722 247 349 737 178 155 289 258
internal_value=0 -0.120995 -0.148456 -0.160761 -0.198555 0.411505 0.35825 -0.210196 -0.21695 -0.231587 0.288178 -0.240503 -0.253898 -0.259621 -0.26676 0.223788 -0.276057 0.204694 -0.265084 -0.259048 -0.263784 0.228643 -0.271061 -0.262506 -0.26907 -0.25447 -0.260366 -0.253266 -0.258231 0.210907 0.226492 0.208861 -0.263386 -0.258795 0.195793 0.179327 -0.270845 0.156529 -0.290311 -0.300596 0.173266 -0.309144 0.158429 0.126704 -0.305837 -0.300696 -0.579858 -0.291438 0.092141 0.908282 -0.295621 -0.29263 -0.0602097 -0.289207 0.0791841 0.0485948 0.420007 0.474822 0.610197 -0.292637 -0.289504 0.0302765
internal_count=58820 45492 44627 44336 41633 13328 12742 41363 41230 40594 11535 40356 39733 39615 39434 10453 39107 10350 38621 38454 38346 10185 38087 37722 37506 36512 36344 36064 35912 10074 9939 9767 35738 35566 9665 9498 34425 9223 31518 30754 9056 30204 8888 8135 30104 29803 956 28847 7390 1082 28685 28583 2907 28451 7272 6550 2703 2354 623 28310 28155 6303
shrinkage=0.015


Tree=5
num_leaves=63
num_cat=0
split_feature=0 836 447 79 904 219 560 254 988 881 487 17 616 462 473 921 562 132 769 796 552 801 712 487 719 622 382 903 627 938 816 655 948 841 209 938 542 371 273 202 526 480 475 487 830 193 55 419 824 309 473 958 579 212 172 172 726 601 670 742 21 883
split_gain=810.194 489.068 412.541 367.936 263.724 247.173 233.19 206.859 154.367 139.63 143.864 132.901 102.313 89.5685 84.0284 85.0655 81.0068 76.6569 73.3061 73.0277 66.6397 67.0755 63.0396 60.3358 52.5459 51.7897 49.7894 48.0644 47.8243 41.6238 40.1454 39.3655 38.2557 37.1025 39.1022 35.382 33.3363 31.1811 29.4585 29.5809 29.0385 27.7876 24.1215 22.8266 22.7168 21.7328 18.5673 17.964 17.3091 16.1946 15.3148 14.9186 13.6309 13.8316 14.4237 13.4009 13.0896 12.7233 12.5713 11.2857 10.1738 8.34142
threshold=1.0000000180025095e-35 1.0000000180025095e-35 1.0000000180025095e-35 1.0000000180025095e-35 1.0000000180025095e-35 1.0000000180025095e-35 1.0000000180025095e-35 1.0000000180025095e-35 1.0000000180025095e-35 1.0000000180025095e-35 1.0000000180025095e-35 1.0000000180025095e-35 1.0000000180025095e-35 1.0000000180025095e-35 1.0000000180025095e-35 1.0000000180025095e-35 1.0000000180025095e-35 1.0000000180025095e-35 1.0000000180025095e-35 1.0000000180025095e-35 1.0000000180025095e-35 1.0000000180025095e-35 1.0000000180025095e-35 1.0000000180025095e-35 1.0000000180025095e-35 1.0000000180025095e-35 1.0000000180025095e-35 1.0000000180025095e-35 1.0000000180025095e-35 1.0000000180025095e-35 1.0000000180025095e-35 1.0000000180025095e-35 1.0000000180025095e-35 1.0000000180025095e-35 1.0000000180025095e-35 1.0000000180025095e-35 1.0000000180025095e-35 1.0000000180025095e-35 1.0000000180025095e-35 1.0000000180025095e-35 1.0000000180025095e-35 1.0000000180025095e-35 1.0000000180025095e-35 1.0000000180025095e-35 1.0000000180025095e-35 1.0000000180025095e-35 1.0000000180025095e-35 1.0000000180025095e-35 1.0000000180025095e-35 1.0000000180025095e-35 1.0000000180025095e-35 1.0000000180025095e-35 1.0000000180025095e-35 1.0000000180025095e-35 1.0000000180025095e-35 1.0000000180025095e-35 1.0000000180025095e-35 1.0000000180025095e-35 1.0000000180025095e-35 1.0000000180025095e-35 1.0000000180025095e-35 1.0000000180025095e-35
decision_type=2 2 2 2 2 2 2 2 2 2 2 2 2 2 2 2 2 2 2 2 2 2 2 2 2 2 2 2 2 2 2 2 2 2 2 2 2 2 2 2 2 2 2 2 2 2 2 2 2 2 2 2 2 2 2 2 2 2 2 2 2 2
left_child=1 2 3 4 5 6 7 8 9 10 11 12 13 14 15 16 17 18 19 20 21 22 24 56 25 26 27 28 30 -14 31 32 33 34 36 55 37 38 39 40 41 42 44 50 45 46 47 48 49 51 -4 52 53 54 57 -13 -5 58 59 60 61 -1
right_child=-2 -3 43 23 -6 -7 -8 -9 -10 -11 -12 35 29 -15 -16 -17 -18 -19 -20 -21 -22 -23 -24 -25 -26 -27 -28 -29 -30 -31 -32 -33 -34 -35 -36 -37 -38 -39 -40 -41 -42 -43 -44 -45 -46 -47 -48 -49 -50 -51 -52 -53 -54 -55 -56 -57 -58 -59 -60 -61 -62 -63
leaf_value=-0.0036888982099942498 -0.019283224284224167 0.031066926793986378 0.01374745706924573 0.0099599980899396402 0.025190012942189775 0.032365546989071091 0.016244548429372591 0.023279165016051682 0.028049191811257753 0.025621824996422307 -0.0079364724809794212 0.0047702339860251014 0.0054955448280661892 -0.015803934828927793 0.0098959023904348579 0.020121411382390212 -0.024107155839787453 0.010228185608148721 0.021185249627892151 0.015953835001441076 0.01885614741752532 -0.0098577880449657405 0.016807588270038899 -0.0032579413018369143 -0.017650423869039443 -0.02033313781588841 0.0034647852880300271 0.012391963997388252 0.0037457448150081886 -0.0055337172826267281 0.013930565524385386 0.010198524364190475 0.013197069150092231 0.0080010743661944328 0.0048369450947953396 -0.0035000388378754327 0.010012405251011425 -0.014204921939310826 0.0041426119847270257 0.010128133272344828 -0.015056970076753782 0.0070021173616861823 -0.013965827775788224 0.0043890272504314553 -0.017806973335297946 0.002193476873040447 0.0086259201605906957 -0.013229106273194664 0.0085933976958033603 0.0052804123469632463 0.025530910823611912 0.0031339611211681695 -0.014260260187731653 0.004036414611993458 -0.009026047915507842 -0.0055243872552462568 0.019918094494248004 0.0038278684915768685 -0.0098908385566670864 -0.0077767736961113941 -0.00020545552861311601 0.0030657420178171408
leaf_count=24112 1951 479 1838 3235 357 203 700 311 161 172 3224 4077 2253 445 531 155 158 447 120 196 133 1167 156 331 212 149 1304 196 1038 367 130 208 133 275 547 584 171 247 476 147 201 232 204 235 102 623 115 178 108 189 107 296 113 213 468 120 126 209 300 592 823 170
internal_value=0 0.0439468 0.0265378 -0.00831483 -0.0535278 -0.0658979 -0.0749973 -0.0915497 -0.102043 -0.108611 -0.115081 -0.0857251 -0.123398 -0.150151 -0.13943 -0.150936 -0.157263 -0.151035 -0.161339 -0.166618 -0.173369 -0.178696 -0.162607 0.607915 -0.168435 -0.162225 -0.157021 -0.172474 -0.178501 0.263438 -0.192571 -0.197229 -0.203093 -0.20774 -0.214352 0.233437 -0.22406 -0.229133 -0.223206 -0.231322 -0.235885 -0.230571 -0.236209 0.88801 -0.231257 -0.227843 -0.236219 -0.239592 -0.235453 -0.238643 0.959768 -0.242743 -0.247717 -0.244765 -0.24888 0.298393 0.688923 -0.24258 -0.24659 -0.241774 -0.235249 -0.242768
internal_count=58820 56869 56390 54210 50518 50161 49958 49258 48947 48786 48614 45390 40609 37989 37544 37013 36858 36700 36253 36133 35937 35804 34637 3692 34481 34269 34120 32816 32620 2620 31582 31452 31244 31111 30836 4781 30289 30118 29871 29395 29248 29047 28815 2180 28611 28509 27886 27771 27593 27485 1945 27296 27000 26887 26674 4197 3361 26206 25997 25697 25105 24282
shrinkage=0.015


Tree=6
num_leaves=63
num_cat=0
split_feature=836 283 116 888 560 71 160 106 840 18 774 769 238 559 473 723 752 654 13 653 168 476 488 346 354 669 268 542 95 346 515 611 952 262 100 952 527 939 869 209 982 355 18 869 429 952 262 71 338 412 869 473 952 982 726 566 445 952 952 611 412 869
split_gain=500.053 354.591 292.287 236.796 226.383 226.889 185.531 170.59 163.994 156.875 140.644 141.013 111.627 114.167 108.768 97.2571 96.2964 95.1025 91.9977 81.0499 76.4449 69.7059 67.1908 65.0507 62.2874 65.4454 59.2094 53.6026 53.5448 44.1777 43.0719 35.4138 34.0275 40.7448 30.8926 28.1386 27.1904 27.1651 25.8804 23.5642 26.94 21.4954 19.8599 18.893 21.1347 18.6739 18.08 16.2583 16.8132 15.2281 15.2097 13.4108 12.4185 12.2325 11.657 12.1614 11.5965 10.7578 10.0871 9.70533 9.67654 9.62916
threshold=1.0000000180025095e-35 1.0000000180025095e-35 1.0000000180025095e-35 1.0000000180025095e-35 1.0000000180025095e-35 1.0000000180025095e-35 1.0000000180025095e-35 1.0000000180025095e-35 1.0000000180025095e-35 1.0000000180025095e-35 1.0000000180025095e-35 1.0000000180025095e-35 1.0000000180025095e-35 1.0000000180025095e-35 1.0000000180025095e-35 1.0000000180025095e-35 1.0000000180025095e-35 1.0000000180025095e-35 1.0000000180025095e-35 1.0000000180025095e-35 1.0000000180025095e-35 1.0000000180025095e-35 1.0000000180025095e-35 1.0000000180025095e-35 1.0000000180025095e-35 1.0000000180025095e-35 1.0000000180025095e-35 1.0000000180025095e-35 1.0000000180025095e-35 1.0000000180025095e-35 1.0000000180025095e-35 1.0000000180025095e-35 1.0000000180025095e-35 1.0000000180025095e-35 1.0000000180025095e-35 1.0000000180025095e-35 1.0000000180025095e-35 1.0000000180025095e-35 1.0000000180025095e-35 1.0000000180025095e-35 1.0000000180025095e-35 1.0000000180025095e-35 1.0000000180025095e-35 1.0000000180025095e-35 1.0000000180025095e-35 1.0000000180025095e-35 1.0000000180025095e-35 1.0000000180025095e-35 1.0000000180025095e-35 1.0000000180025095e-35 1.0000000180025095e-35 1.0000000180025095e-35 1.0000000180025095e-35 1.0000000180025095e-35 1.0000000180025095e-35 1.0000000180025095e-35 1.0000000180025095e-35 1.0000000180025095e-35 1.0000000180025095e-35 1.0000000180025095e-35 1.0000000180025095e-35 1.0000000180025095e-35
decision_type=2 2 2 2 2 2 2 2 2 2 2 2 2 2 2 2 2 2 2 2 2 2 2 2 2 2 2 2 2 2 2 2 2 2 2 2 2 2 2 2 2 2 2 2 2 2 2 2 2 2 2 2 2 2 2 2 2 2 2 2 2 2
left_child=1 2 3 4 5 6 7 8 9 10 11 12 13 14 15 16 17 18 19 20 21 22 23 24 25 26 27 30 29 35 32 58 33 34 37 42 43 39 59 40 41 49 47 44 46 -12 -34 48 51 54 -21 53 -7 -4 55 56 61 -8 -26 -35 -9 -1
right_child=-2 -3 28 -5 -6 52 57 60 -10 -11 45 -13 -14 -15 -16 -17 -18 -19 -20 50 -22 -23 -24 -25 31 -27 -28 -29 -30 -31 -32 -33 36 38 -36 -37 -38 -39 -40 -41 -42 -43 -44 -45 -46 -47 -48 -49 -50 -51 -52 -53 -54 -55 -56 -57 -58 -59 -60 -61 -62 -63
leaf_value=-0.0040117035871654345 0.030537888275144254 0.026565238770657518 0.0048249091598371379 0.034203803145896168 0.015750653935989439 0.011796230600541585 0.0089049738269657702 0.010177918763927738 0.028132927132740168 0.017298931796436302 0.0086913000690337777 0.021942188989575638 -0.016873736906790737 0.026013585024713012 0.009399885948990265 0.023857164946483531 -0.02446586900603815 0.017150961751052109 -0.025267689686828281 0.003369214287041808 0.015742600615149673 -0.024566757816133676 -0.020271502391936886 -0.010983579608178378 -0.0079734041261692833 0.017292979944381701 -0.016792211717913813 0.01126258660989044 0.021080628891710935 -0.013114273073446864 0.0064796311076824129 0.0048429836872645616 -0.0043556421239241546 0.0020804484742966986 0.0021624721027482079 0.00148003901197124 0.010407029337785154 0.010258535201962928 -0.0067106525818487906 0.0036405810556007223 -0.00047047139979897515 0.0099704558830386765 0.020670126250257621 -0.010235224895200993 0.0067460377737352572 -0.0010845465487906074 -0.0093445040266893868 0.01518675297463761 0.018576233702255276 0.0012325398311080777 -0.0045962964707278071 0.015702925176177693 0.0041032858752408424 0.0093089519224940007 0.0038407689182805593 0.0030965989321628611 0.0040889896631280138 0.002919540767272865 -0.013872727431184066 -0.0043431909224550848 0.0024081797353696049 -0.0067025845548278644
leaf_count=20622 484 449 2538 174 708 1172 1450 1038 160 363 1096 206 540 125 638 122 199 210 177 1952 189 147 221 1030 2166 147 286 245 221 111 438 192 3766 2599 997 908 100 136 400 437 2489 104 101 703 140 216 818 213 104 529 249 131 231 718 174 218 158 342 306 237 172 1308
internal_value=0 -0.0171728 -0.0311263 -0.0756933 -0.0835041 -0.0990755 -0.121458 -0.145045 -0.164208 -0.171155 -0.181424 -0.200222 -0.207843 -0.196852 -0.202254 -0.214278 -0.219287 -0.212929 -0.219494 -0.213586 -0.233832 -0.239761 -0.234776 -0.228738 -0.215704 -0.194167 -0.199557 -0.192388 0.433968 0.389266 -0.198767 -0.515029 -0.206485 -0.179891 -0.205533 0.418925 -0.35286 -0.218901 0.0349097 -0.223628 -0.231608 -0.253218 0.495209 -0.372189 -0.326029 0.472242 -0.349747 0.471025 0.437859 -0.257385 0.164584 0.413242 0.702144 0.38767 -0.265402 -0.269493 -0.274206 0.517637 -0.580198 0.10293 0.604898 -0.278156
internal_count=58820 58336 57887 52842 52668 51960 50557 48765 47555 47395 47032 45720 45514 44974 44849 44211 44089 43890 43680 43503 41302 41113 40966 40745 39715 37051 36904 36618 5045 4824 36373 2664 35935 30408 27172 4713 5527 26175 3236 26039 25602 23113 3805 5427 4724 1312 4584 3704 3491 23009 2201 3387 1403 3256 22480 22306 22088 1792 2472 2836 1210 21930
shrinkage=0.015


Tree=7
num_leaves=63
num_cat=0
split_feature=594 28 904 283 857 564 840 106 181 346 964 930 13 723 499 622 435 953 132 901 958 717 921 168 673 354 268 569 44 173 371 338 882 475 665 869 302 976 640 948 575 524 33 48 527 482 414 566 210 798 379 802 865 382 898 524 464 471 569 106 732 829
split_gain=418.785 298.314 296.483 265.033 212.85 197.031 173.635 164.794 133.216 126.938 125.536 118.556 106.3 99.9495 99.5435 93.8937 90.4648 84.3928 84.5905 75.2465 74.3888 72.238 70.0736 68.5921 62.0658 58.6425 55.8669 51.7389 47.8277 48.2155 47.7401 44.2706 40.6705 39.5755 36.5433 35.5064 38.1779 30.6552 29.4657 29.756 28.6916 28.4874 27.0779 24.6942 23.6526 23.6828 22.097 21.7387 26.4425 21.6452 19.2735 19.1093 17.8501 16.1194 16.4828 15.6746 14.6118 15.3169 13.7696 13.5822 12.9363 12.4164
threshold=1.0000000180025095e-35 1.0000000180025095e-35 1.0000000180025095e-35 1.0000000180025095e-35 1.0000000180025095e-35 1.0000000180025095e-35 1.0000000180025095e-35 1.0000000180025095e-35 1.0000000180025095e-35 1.0000000180025095e-35 1.0000000180025095e-35 1.0000000180025095e-35 1.0000000180025095e-35 1.0000000180025095e-35 1.0000000180025095e-35 1.0000000180025095e-35 1.0000000180025095e-35 1.0000000180025095e-35 1.0000000180025095e-35 1.0000000180025095e-35 1.0000000180025095e-35 1.0000000180025095e-35 1.0000000180025095e-35 1.0000000180025095e-35 1.0000000180025095e-35 1.0000000180025095e-35 1.0000000180025095e-35 1.0000000180025095e-35 1.0000000180025095e-35 1.0000000180025095e-35 1.0000000180025095e-35 1.0000000180025095e-35 1.0000000180025095e-35 1.0000000180025095e-35 1.0000000180025095e-35 1.0000000180025095e-35 1.0000000180025095e-35 1.0000000180025095e-35 1.0000000180025095e-35 1.0000000180025095e-35 1.0000000180025095e-35 1.0000000180025095e-35 1.0000000180025095e-35 1.0000000180025095e-35 1.0000000180025095e-35 1.0000000180025095e-35 1.0000000180025095e-35 1.0000000180025095e-35 1.0000000180025095e-35 1.0000000180025095e-35 1.0000000180025095e-35 1.0000000180025095e-35 1.0000000180025095e-35 1.0000000180025095e-35 1.0000000180025095e-35 1.0000000180025095e-35 1.0000000180025095e-35 1.0000000180025095e-35 1.0000000180025095e-35 1.0000000180025095e-35 1.0000000180025095e-35 1.0000000180025095e-35
decision_type=2 2 2 2 2 2 2 2 2 2 2 2 2 2 2 2 2 2 2 2 2 2 2 2 2 2 2 2 2 2 2 2 2 2 2 2 2 2 2 2 2 2 2 2 2 2 2 2 2 2 2 2 2 2 2 2 2 2 2 2 2 2
left_child=1 2 3 4 5 6 7 8 9 10 11 12 13 14 15 16 17 18 19 20 21 22 23 24 25 26 27 28 29 30 31 32 33 34 35 36 37 38 39 41 -9 42 43 44 45 46 47 48 50 -27 51 52 53 54 56 59 57 60 -12 -6 -1 -37
right_child=-2 -3 -4 -5 55 -7 -8 40 -10 -11 58 -13 -14 -15 -16 -17 -18 -19 -20 -21 -22 -23 -24 -25 -26 49 -28 -29 -30 -31 -32 -33 -34 -35 -36 61 -38 -39 -40 -41 -42 -43 -44 -45 -46 -47 -48 -49 -50 -51 -52 -53 -54 -55 -56 -57 -58 -59 -60 -61 -62 -63
leaf_value=-0.0018009096877311436 0.026495662520767051 0.028217472582328894 0.024407289743813596 0.024532409102960166 0.0066886754892555005 0.028235656006621989 0.027616160069432131 0.0097810144043113893 0.023204948326685619 -0.010986955352777675 -0.0088343462192062381 -0.01826598522879247 -0.025031353324533562 0.024979793890639604 0.0096107199463447562 -0.021265895191797356 0.0090975433775072282 -0.022012084626249727 0.0098274470328196008 -0.016227543734475453 0.0081728079142686372 -0.024405131446322718 0.017245425213029027 0.015923558066380399 0.021271725440177816 -0.0068614530745174079 -0.014615685224932565 0.0066871776491562 0.0098516939069227139 -0.012118180067982058 -0.012691786101184547 0.0075135619634043773 -0.01883153024893618 -0.012200429608316271 0.010188268839103457 -0.0048997097393657409 -0.010710617600071234 0.014570023839781001 0.0039203312722754097 0.012272633542689955 -0.0066894947130549569 0.0051267520175700158 0.010688641720885033 -0.013234942696872989 0.0093119584218825414 0.0069251467646460297 -0.013514808171042732 0.0047899115498233405 -0.016554130420404208 0.0021825573255454282 -0.012743921613896652 0.010367949438074935 -0.014046093062420493 0.0020315711312234004 0.0040197599380861152 0.019181642821531775 0.004460441570934023 -0.013559761127092649 -0.015985294442636102 0.017043164009038107 0.0054262693336525405 0.0041645456254210643
leaf_count=28934 543 335 438 381 2390 208 189 1366 197 1351 1090 379 174 135 779 218 769 183 619 318 741 128 183 206 109 2474 294 737 343 394 346 515 124 311 254 2991 379 116 1066 150 105 630 170 164 189 308 142 501 109 271 141 125 105 1157 470 104 349 102 323 122 230 146
internal_value=0 -0.0165838 -0.0276565 -0.0403506 -0.0516416 -0.0788107 -0.0863802 -0.0931937 -0.111942 -0.118209 -0.102022 -0.0850814 -0.0764273 -0.0708656 -0.0756785 -0.0873273 -0.0813145 -0.0925707 -0.0872316 -0.0971812 -0.0904187 -0.100852 -0.0965654 -0.101672 -0.107049 -0.110777 -0.0920141 -0.0858196 -0.095408 -0.101786 -0.0948785 -0.0883876 -0.0961273 -0.0924656 -0.0867175 -0.0917529 -0.0735019 -0.0666109 -0.0700623 -0.0804866 0.573954 -0.084491 -0.0926091 -0.096772 -0.0928606 -0.097005 -0.102337 -0.0988236 -0.105454 -0.397803 -0.102022 -0.09867 -0.101829 -0.0990251 -0.108069 0.511451 -0.114057 -0.118987 -0.697786 0.479553 -0.116246 -0.298428
internal_count=58820 58277 57942 57504 57123 54507 54299 54110 52639 52442 51091 49678 49299 49125 48990 48211 47993 47224 47041 46422 46104 45363 45235 45052 44846 44737 41992 41698 40961 40618 40224 39878 39363 39239 38928 38674 35537 35158 35042 33976 1471 33826 33196 33026 32862 32673 32365 32223 31722 2745 31613 31472 31347 31242 30085 2616 29615 29266 1413 2512 29164 3137
shrinkage=0.015


Tree=8
num_leaves=63
num_cat=0
split_feature=836 271 594 904 283 254 116 769 564 487 988 181 849 752 462 473 669 76 804 622 435 796 419 194 717 714 109 329 953 526 302 816 86 346 100 976 346 532 487 746 647 212 130 699 883 952 957 527 53 948 829 382 952 108 262 952 630 286 125 329 952 671
split_gain=480.9 405.49 407.192 267.495 253.051 244.468 237.437 156.781 157.343 152.93 135.222 128.345 127.142 107.3 103.717 99.1098 93.5618 89.0711 87.2488 85.7329 82.9155 83.3472 72.44 66.0069 63.741 55.9632 56.3479 57.1395 51.0253 45.729 46.0412 45.0634 44.2975 43.6107 43.5169 44.1774 42.1323 38.639 38.3064 36.0344 35.0843 33.9545 25.5889 25.262 25.1039 23.5171 21.2911 20.679 19.7905 19.9855 19.2701 19.1975 18.6981 16.8518 16.588 33.383 18.5435 19.3285 15.2947 13.9863 13.6644 12.9186
threshold=1.0000000180025095e-35 1.0000000180025095e-35 1.0000000180025095e-35 1.0000000180025095e-35 1.0000000180025095e-35 1.0000000180025095e-35 1.0000000180025095e-35 1.0000000180025095e-35 1.0000000180025095e-35 1.0000000180025095e-35 1.0000000180025095e-35 1.0000000180025095e-35 1.0000000180025095e-35 1.0000000180025095e-35 1.0000000180025095e-35 1.0000000180025095e-35 1.0000000180025095e-35 1.0000000180025095e-35 1.0000000180025095e-35 1.0000000180025095e-35 1.0000000180025095e-35 1.0000000180025095e-35 1.0000000180025095e-35 1.0000000180025095e-35 1.0000000180025095e-35 1.0000000180025095e-35 1.0000000180025095e-35 1.0000000180025095e-35 1.0000000180025095e-35 1.0000000180025095e-35 1.0000000180025095e-35 1.0000000180025095e-35 1.0000000180025095e-35 1.0000000180025095e-35 1.0000000180025095e-35 1.0000000180025095e-35 1.0000000180025095e-35 1.0000000180025095e-35 1.0000000180025095e-35 1.0000000180025095e-35 1.0000000180025095e-35 1.0000000180025095e-35 1.0000000180025095e-35 1.0000000180025095e-35 1.0000000180025095e-35 1.0000000180025095e-35 1.0000000180025095e-35 1.0000000180025095e-35 1.0000000180025095e-35 1.0000000180025095e-35 1.0000000180025095e-35 1.0000000180025095e-35 1.0000000180025095e-35 1.0000000180025095e-35 1.0000000180025095e-35 1.0000000180025095e-35 1.0000000180025095e-35 1.0000000180025095e-35 1.0000000180025095e-35 1.0000000180025095e-35 1.0000000180025095e-35 1.0000000180025095e-35
decision_type=2 2 2 2 2 2 2 2 2 2 2 2 2 2 2 2 2 2 2 2 2 2 2 2 2 2 2 2 2 2 2 2 2 2 2 2 2 2 2 2 2 2 2 2 2 2 2 2 2 2 2 2 2 2 2 2 2 2 2 2 2 2
left_child=1 2 3 4 5 6 7 8 9 10 11 12 13 14 15 16 17 18 19 20 21 22 23 24 25 26 27 28 29 30 31 32 33 34 35 37 38 39 45 40 41 42 43 44 46 59 47 48 49 51 -42 53 -36 54 56 -56 57 61 -23 -8 -25 -1
right_child=-2 -3 -4 -5 -6 -7 36 -9 -10 -11 -12 -13 -14 -15 -16 -17 -18 -19 -20 -21 -22 58 -24 60 -26 -27 -28 -29 -30 -31 -32 -33 -34 -35 52 -37 -38 -39 -40 -41 50 -43 -44 -45 -46 -47 -48 -49 -50 -51 -52 -53 -54 -55 55 -57 -58 -59 -60 -61 -62 -63
leaf_value=-0.0026636602587670885 0.029895659851655064 0.019411185030318728 0.026129605153290554 0.023392632676195544 0.023852602280931369 0.022868227458243465 0.0072074665082672261 0.021478594405703128 0.027327362446158954 -0.0083090500627898533 0.02550449394610069 0.024293899557156769 0.02535591931949269 -0.024051524055422501 -0.015621847227572067 0.0098177829987314575 0.016715097634232616 0.025490061302324726 -0.02527019710283044 -0.021475966628517803 0.0086507554447635138 0.008850505543393887 -0.017117340132419969 0.0077224086616871157 -0.024620097244710471 -0.017145572655221795 0.010303540602106278 -0.0093137436248949771 -0.023250949073939979 -0.013149066885639191 -0.011800575698888737 0.012347804508762932 -0.018189757149911216 -0.0083476938847039661 0.0043678689982148107 0.015908063899463646 -0.013384685362763066 -0.016297619458793912 -0.0030102087389994514 -0.017693739519788476 0.0016688643983799494 0.0078881238411698841 -0.016550166867212394 0.0055645965061659032 0.0068411914024992292 0.001634361497888763 0.0053962183586853301 0.0083453044340524758 -0.0073885791877813783 0.0092672815691352012 0.014451975014039352 0.0015925095902353712 -0.0035208818760005447 -0.013823109162685483 0.0014899943375639171 -0.0062274481786685678 0.0091847953815332312 0.0069765054387066231 0.0231477106624286 0.018595450877458949 -0.0021837951027227618 -0.008259977582768193
leaf_count=27173 484 947 518 414 371 385 3334 259 166 3496 166 172 156 205 504 670 246 108 151 210 671 214 300 748 119 231 333 1028 105 337 431 206 154 923 1498 128 111 173 433 133 1456 316 113 396 284 756 334 167 707 138 117 1130 340 120 2310 668 122 190 101 102 155 387
internal_value=0 -0.0168835 -0.0386534 -0.0550158 -0.0669794 -0.0780876 -0.0892584 -0.129698 -0.137793 -0.144301 -0.113942 -0.120452 -0.126918 -0.133073 -0.126631 -0.116578 -0.1281 -0.134951 -0.139394 -0.134216 -0.128136 -0.139011 -0.14657 -0.139683 -0.151293 -0.147133 -0.141653 -0.148322 -0.13637 -0.132712 -0.126466 -0.119321 -0.124273 -0.120035 -0.109592 -0.124927 0.343712 -0.129117 0.373138 -0.124563 -0.120692 -0.134196 -0.140317 -0.137126 -0.143116 0.43214 -0.148223 -0.153376 -0.156994 -0.149633 0.174892 -0.152955 0.19411 -0.162445 -0.159497 -0.0158303 -0.17489 -0.178367 0.895989 0.503066 0.401604 -0.18282
internal_count=58820 58336 57389 56871 56457 56086 55701 50965 50706 50540 47044 46878 46706 46550 46345 45841 45171 44925 44817 44666 44456 43785 43470 43170 42267 42148 41917 41584 40556 40451 40114 39683 39477 39323 38400 36562 4736 36434 4625 36261 36128 34555 34239 34126 33730 4192 33446 33112 32945 32238 1573 32100 1838 30970 30850 2978 27872 27750 315 3436 903 27560
shrinkage=0.015


Tree=9
num_leaves=63
num_cat=0
split_feature=0 906 79 165 219 254 218 907 564 160 238 857 881 930 562 499 855 354 787 194 181 723 796 653 40 758 358 268 953 473 371 173 669 611 653 496 302 338 401 165 136 526 616 787 435 572 197 417 502 640 48 232 939 824 354 165 854 787 168 497 109 616
split_gain=774.372 558.012 355.872 285.932 235.188 188.113 182.033 180.938 158.735 144.363 133.169 118.578 114.731 101.488 95.6381 97.4767 88.5257 89.26 92.2025 77.8492 73.1505 71.2211 71.7689 57.2593 53.1223 51.2998 48.934 48.2011 38.8341 38.8466 35.0639 33.2361 29.5039 29.1642 30.9976 26.2338 25.0769 24.5794 26.1246 23.2636 21.4683 20.9069 20.643 20.2396 19.6359 17.3886 16.638 18.4417 16.801 16.6358 16.2862 16.3774 15.653 13.3288 12.268 12.1812 11.8712 11.5607 10.8642 10.7267 10.3351 10.5107
threshold=1.0000000180025095e-35 1.0000000180025095e-35 1.0000000180025095e-35 1.0000000180025095e-35 1.0000000180025095e-35 1.0000000180025095e-35 1.0000000180025095e-35 1.0000000180025095e-35 1.0000000180025095e-35 1.0000000180025095e-35 1.0000000180025095e-35 1.0000000180025095e-35 1.0000000180025095e-35 1.0000000180025095e-35 1.0000000180025095e-35 1.0000000180025095e-35 1.0000000180025095e-35 1.0000000180025095e-35 1.0000000180025095e-35 1.0000000180025095e-35 1.0000000180025095e-35 1.0000000180025095e-35 1.0000000180025095e-35 1.0000000180025095e-35 1.0000000180025095e-35 1.0000000180025095e-35 1.0000000180025095e-35 1.0000000180025095e-35 1.0000000180025095e-35 1.0000000180025095e-35 1.0000000180025095e-35 1.0000000180025095e-35 1.0000000180025095e-35 1.0000000180025095e-35 1.0000000180025095e-35 1.0000000180025095e-35 1.0000000180025095e-35 1.0000000180025095e-35 1.0000000180025095e-35 1.0000000180025095e-35 1.0000000180025095e-35 1.0000000180025095e-35 1.0000000180025095e-35 1.0000000180025095e-35 1.0000000180025095e-35 1.0000000180025095e-35 1.0000000180025095e-35 1.0000000180025095e-35 1.0000000180025095e-35 1.0000000180025095e-35 1.0000000180025095e-35 1.0000000180025095e-35 1.0000000180025095e-35 1.0000000180025095e-35 1.0000000180025095e-35 1.0000000180025095e-35 1.0000000180025095e-35 1.0000000180025095e-35 1.0000000180025095e-35 1.0000000180025095e-35 1.0000000180025095e-35 1.0000000180025095e-35
decision_type=2 2 2 2 2 2 2 2 2 2 2 2 2 2 2 2 2 2 2 2 2 2 2 2 2 2 2 2 2 2 2 2 2 2 2 2 2 2 2 2 2 2 2 2 2 2 2 2 2 2 2 2 2 2 2 2 2 2 2 2 2 2
left_child=1 2 3 4 5 6 7 8 9 10 11 12 13 14 15 16 17 18 19 20 21 22 23 24 25 26 27 28 29 30 31 32 35 34 -19 36 37 38 40 43 41 44 57 56 45 46 47 48 49 50 51 52 53 58 -11 -3 -4 -13 59 60 61 -1
right_child=-2 55 39 -5 -6 -7 -8 -9 -10 54 -12 42 -14 -15 -16 -17 -18 33 -20 -21 -22 -23 -24 -25 -26 -27 -28 -29 -30 -31 -32 -33 -34 -35 -36 -37 -38 -39 -40 -41 -42 -43 -44 -45 -46 -47 -48 -49 -50 -51 -52 -53 -54 -55 -56 -57 -58 -59 -60 -61 -62 -63
leaf_value=-0.0030635262228640653 -0.018909804935793525 0.017816718065933355 0.0092037263550163746 0.014935505594630359 0.031599493583990522 0.022219168112155664 -0.017130848024142845 0.011746487563546886 0.027756778293259416 0.006514340969053181 -0.016768699058568256 0.0057544595751819576 0.024971121551768959 -0.017987046553173978 -0.023401289086351251 0.0098109223328932665 -0.017053807448249407 -0.008699336941072118 0.0057659148749785831 0.0070882932527378192 0.023585433482382723 0.023191879281845081 0.014362322084748993 0.0031952834507508838 0.011754112782791367 0.010541477133104465 0.0011384130222446035 -0.01690435929443947 -0.020801889842095425 0.0069366801129705875 -0.013933226841161529 -0.012968063558552031 0.01333160419739509 0.0048952631366479885 0.0082990424415217423 -0.014862539665198703 -0.011497486415702706 0.0057603655653688593 0.0045209670510952538 0.020952578316871438 -0.013294527322492906 -0.01164101951051196 0.014912126880375116 0.016820831774040396 0.0058224633090466146 -0.014881720554033173 0.0038170882959826713 0.0056891856823669618 -0.010048506154401875 0.0026538646945476379 -0.013483200102768406 -0.013651570937843102 0.0066959541154690983 0.0073815038034626482 0.017329892714363349 0.028516779395118128 0.005298586609585194 -0.0016392523099385326 0.0070390668836753526 -0.0099412556036344718 0.0051012675633663731 -0.00039704022029524275
leaf_count=24014 1951 1449 2341 1074 203 317 653 1014 172 1694 534 1506 146 362 189 671 353 2353 1615 917 103 103 244 1778 243 276 2962 229 112 373 266 296 105 174 103 165 298 320 456 146 180 243 207 257 248 109 357 235 298 511 134 129 160 117 102 104 1029 223 101 200 149 1447
internal_value=0 0.04283 0.00906914 -0.0350524 -0.0571585 -0.0660059 -0.0759426 -0.0618977 -0.0797432 -0.0867417 -0.108679 -0.0969696 -0.118724 -0.124756 -0.115869 -0.109587 -0.121748 -0.113308 -0.0892348 -0.109497 -0.124014 -0.128812 -0.133555 -0.140915 -0.159136 -0.165809 -0.172853 -0.196506 -0.189685 -0.185383 -0.193365 -0.186941 -0.180274 -0.475169 -0.532098 -0.184062 -0.179583 -0.173664 -0.179831 0.607705 -0.18751 -0.183095 0.392353 0.57583 -0.177996 -0.183055 -0.179892 -0.185551 -0.190438 -0.185148 -0.192161 -0.188575 -0.185026 -0.188921 0.475307 1.2358 0.534098 0.320008 -0.192016 -0.194626 -0.190972 -0.194099
internal_count=58820 56869 55316 51543 50469 50266 49949 49296 48282 48110 46314 45780 43844 43698 43336 43147 42476 42123 39493 37878 36961 36858 36755 36511 34733 34490 34214 31252 31023 30911 30538 30272 29976 2630 2456 29871 29706 29408 29088 3773 28632 28452 1936 3627 28209 27961 27852 27495 27260 26962 26451 26317 26188 26028 1796 1553 3370 1729 25911 25810 25610 25461
shrinkage=0.015


Tree=10
num_leaves=63
num_cat=0
split_feature=906 836 271 165 283 797 888 456 64 826 881 752 106 582 194 268 757 622 924 755 101 552 712 717 33 631 720 86 719 655 795 100 212 869 958 477 173 526 841 371 524 55 20 708 262 671 273 480 172 572 445 898 298 415 262 262 355 417 352 869 553 262
split_gain=563.628 414.805 373.408 336.274 329.793 273.721 250.352 231.2 186.211 174.242 144.885 123.683 135.145 104.278 105.507 81.6161 80.0076 79.3497 76.3296 71.2848 66.8578 65.1306 58.2512 55.6147 54.3452 54.6287 50.5184 51.0119 49.4472 48.2341 47.236 43.4356 41.4378 40.1452 43.1253 38.7096 32.4806 31.9123 29.6016 28.6907 27.9985 29.0687 28.5375 26.0878 25.8494 25.6779 24.8729 25.502 23.18 20.3239 20.3844 18.8016 27.1332 19.2175 18.5373 16.7354 14.7323 14.2016 13.6187 13.5563 12.1907 11.4033
threshold=1.0000000180025095e-35 1.0000000180025095e-35 1.0000000180025095e-35 1.0000000180025095e-35 1.0000000180025095e-35 1.0000000180025095e-35 1.0000000180025095e-35 1.0000000180025095e-35 1.0000000180025095e-35 1.0000000180025095e-35 1.0000000180025095e-35 1.0000000180025095e-35 1.0000000180025095e-35 1.0000000180025095e-35 1.0000000180025095e-35 1.0000000180025095e-35 1.0000000180025095e-35 1.0000000180025095e-35 1.0000000180025095e-35 1.0000000180025095e-35 1.0000000180025095e-35 1.0000000180025095e-35 1.0000000180025095e-35 1.0000000180025095e-35 1.0000000180025095e-35 1.0000000180025095e-35 1.0000000180025095e-35 1.0000000180025095e-35 1.0000000180025095e-35 1.0000000180025095e-35 1.0000000180025095e-35 1.0000000180025095e-35 1.0000000180025095e-35 1.0000000180025095e-35 1.0000000180025095e-35 1.0000000180025095e-35 1.0000000180025095e-35 1.0000000180025095e-35 1.0000000180025095e-35 1.0000000180025095e-35 1.0000000180025095e-35 1.0000000180025095e-35 1.0000000180025095e-35 1.0000000180025095e-35 1.0000000180025095e-35 1.0000000180025095e-35 1.0000000180025095e-35 1.0000000180025095e-35 1.0000000180025095e-35 1.0000000180025095e-35 1.0000000180025095e-35 1.0000000180025095e-35 1.0000000180025095e-35 1.0000000180025095e-35 1.0000000180025095e-35 1.0000000180025095e-35 1.0000000180025095e-35 1.0000000180025095e-35 1.0000000180025095e-35 1.0000000180025095e-35 1.0000000180025095e-35 1.0000000180025095e-35
decision_type=2 2 2 2 2 2 2 2 2 2 2 2 2 2 2 2 2 2 2 2 2 2 2 2 2 2 2 2 2 2 2 2 2 2 2 2 2 2 2 2 2 2 2 2 2 2 2 2 2 2 2 2 2 2 2 2 2 2 2 2 2 2
left_child=1 2 3 4 5 6 7 8 9 10 11 12 13 14 15 16 17 18 19 20 21 22 23 24 25 26 27 28 29 30 31 32 33 34 35 36 37 38 39 40 41 42 43 45 -36 46 47 48 49 50 51 52 53 54 56 -35 57 58 60 -2 -1 -33
right_child=59 -3 -4 -5 -6 -7 -8 -9 -10 -11 -12 -13 -14 -15 -16 -17 -18 -19 -20 -21 -22 -23 -24 -25 -26 -27 -28 -29 -30 -31 -32 61 -34 55 44 -37 -38 -39 -40 -41 -42 -43 -44 -45 -46 -47 -48 -49 -50 -51 -52 -53 -54 -55 -56 -57 -58 -59 -60 -61 -62 -63
leaf_value=-0.0039260614161917805 0.018899790930697078 0.029322136632899981 0.018623057867452997 0.014860953401559972 0.025205692648138427 0.022370773878509782 0.033734980645312725 0.017314238700914513 0.018210482981848453 0.021376263096132709 0.024490926681265585 -0.024256245557247674 0.0072781384998965868 0.0057962933906058473 0.006251585568699038 -0.017006759233310964 -0.016706986302944413 -0.021122601340153729 -0.019636732443506784 0.018393539028011503 0.018291764655237911 0.015429383240781748 0.01273826171325613 -0.02374917677128513 0.011354425419030621 0.0024587822205511672 -0.012429180518138126 -0.01998364965760412 -0.017140355916237637 0.010001206883020947 0.015608811294206397 0.002253618701413313 0.0064287672348162413 -0.0055067338833055465 0.00914347608229929 -0.017513602239606962 -0.0136068227602422 -0.013357992873030531 0.0063688399341104091 -0.012372223869017252 0.0035074822590709224 0.0097024057178360396 0.01192910807278285 0.01035357556854353 -0.0072524506521520838 -0.010362998827137657 0.0032399887992182871 0.0059357578777596998 -0.0090328873657453783 -0.014289344254372442 0.0051018000200518361 0.0026573164470500015 0.0086009571687441205 0.0097482841424092279 -0.0012578117968597784 -0.010927908701441946 0.0060625743142266233 0.0039662022032758261 0.0062093047500888995 0.010397531726527666 0.0046975715911329596 -0.0028502931582841187
leaf_count=27079 1379 419 899 1192 421 433 181 567 409 285 182 244 1291 1311 1138 390 391 222 249 147 138 179 218 121 244 1640 543 166 230 263 125 1706 399 2871 406 176 274 278 309 307 599 162 115 130 113 467 547 274 654 154 271 487 174 102 3146 645 141 217 124 196 152 528
internal_value=0 -0.0331326 -0.048105 -0.0690375 -0.0923496 -0.106318 -0.119283 -0.127348 -0.141157 -0.151789 -0.160406 -0.166741 -0.160031 -0.176588 -0.191604 -0.20604 -0.198544 -0.191034 -0.185388 -0.179478 -0.183913 -0.188094 -0.192804 -0.197743 -0.19418 -0.199265 -0.212722 -0.205112 -0.200861 -0.195911 -0.20121 -0.204838 -0.219962 -0.22641 -0.206651 -0.214975 -0.210373 -0.205069 -0.199731 -0.20521 -0.199812 -0.207404 -0.211475 -0.214882 0.371732 -0.218358 -0.211779 -0.218917 -0.224095 -0.216379 -0.212834 -0.217591 -0.22379 -0.22829 -0.2312 -0.433471 -0.247981 -0.251338 -0.25545 1.18951 -0.258513 0.069824
internal_count=58820 57245 56826 55927 54735 54314 53881 53700 53133 52724 52439 52257 52013 50722 49411 48273 47883 47492 47270 47021 46874 46736 46557 46339 46218 45974 44334 43791 43625 43395 43132 43007 40773 40374 36858 36339 36163 35889 35611 35302 34995 34396 34234 34119 519 33989 33522 32975 32701 32047 31893 31622 31135 30961 30859 3516 27713 27572 27355 1575 27231 2234
shrinkage=0.015


Tree=11
num_leaves=63
num_cat=0
split_feature=49 906 964 594 792 776 544 165 564 165 18 723 594 792 774 906 942 488 17 869 473 132 774 627 653 796 776 855 712 670 47 93 17 911 453 473 515 913 911 827 841 958 901 830 948 854 515 854 47 582 582 527 958 869 653 86 582 653 113 854 17 355
split_gain=657.672 383.415 363.724 223.615 179.05 156.347 152.681 149.26 121.617 115.986 111.637 107.275 99.1465 99.1653 92.6389 87.5692 85.2612 74.3612 73.7592 63.6125 56.1811 53.1168 52.828 51.936 55.774 58.8225 48.3012 44.5844 44.5052 39.2383 39.0457 38.2743 44.3523 38.1498 36.3166 34.3638 34.1113 32.6021 31.4366 29.1686 26.7131 25.3558 25.057 24.839 24.2148 23.1734 23.0692 21.8709 24.2377 20.9249 18.5543 17.9443 15.4949 14.9719 14.6997 14.5028 13.5718 11.7374 11.1764 10.8035 10.789 10.5198
threshold=1.0000000180025095e-35 1.0000000180025095e-35 1.0000000180025095e-35 1.0000000180025095e-35 1.0000000180025095e-35 1.0000000180025095e-35 1.0000000180025095e-35 1.0000000180025095e-35 1.0000000180025095e-35 1.0000000180025095e-35 1.0000000180025095e-35 1.0000000180025095e-35 1.0000000180025095e-35 1.0000000180025095e-35 1.0000000180025095e-35 1.0000000180025095e-35 1.0000000180025095e-35 1.0000000180025095e-35 1.0000000180025095e-35 1.0000000180025095e-35 1.0000000180025095e-35 1.0000000180025095e-35 1.0000000180025095e-35 1.0000000180025095e-35 1.0000000180025095e-35 1.0000000180025095e-35 1.0000000180025095e-35 1.0000000180025095e-35 1.0000000180025095e-35 1.0000000180025095e-35 1.0000000180025095e-35 1.0000000180025095e-35 1.0000000180025095e-35 1.0000000180025095e-35 1.0000000180025095e-35 1.0000000180025095e-35 1.0000000180025095e-35 1.0000000180025095e-35 1.0000000180025095e-35 1.0000000180025095e-35 1.0000000180025095e-35 1.0000000180025095e-35 1.0000000180025095e-35 1.0000000180025095e-35 1.0000000180025095e-35 1.0000000180025095e-35 1.0000000180025095e-35 1.0000000180025095e-35 1.0000000180025095e-35 1.0000000180025095e-35 1.0000000180025095e-35 1.0000000180025095e-35 1.0000000180025095e-35 1.0000000180025095e-35 1.0000000180025095e-35 1.0000000180025095e-35 1.0000000180025095e-35 1.0000000180025095e-35 1.0000000180025095e-35 1.0000000180025095e-35 1.0000000180025095e-35 1.0000000180025095e-35
decision_type=2 2 2 2 2 2 2 2 2 2 2 2 2 2 2 2 2 2 2 2 2 2 2 2 2 2 2 2 2 2 2 2 2 2 2 2 2 2 2 2 2 2 2 2 2 2 2 2 2 2 2 2 2 2 2 2 2 2 2 2 2 2
left_child=1 3 7 4 5 6 8 12 9 10 11 14 13 15 16 22 17 18 19 20 21 23 26 24 25 27 29 28 30 31 34 32 33 35 36 41 37 38 39 40 42 46 43 44 50 -25 47 48 49 58 51 52 55 -3 -20 61 59 -34 -2 -32 -4 -1
right_child=2 53 60 -5 -6 -7 -8 -9 -10 -11 -12 -13 -14 -15 -16 -17 -18 -19 54 -21 -22 -23 -24 45 -26 -27 -28 -29 -30 -31 56 -33 57 -35 -36 -37 -38 -39 -40 -41 -42 -43 -44 -45 -46 -47 -48 -49 -50 -51 -52 -53 -54 -55 -56 -57 -58 -59 -60 -61 -62 -63
leaf_value=-0.0051536156849776903 0.0017398562996448568 0.017429199350476331 -0.010549114346282348 0.023361681838526188 0.011497795126488557 0.015943126275801627 0.028610761955663439 0.022528602658598348 0.027267090750069459 0.0096968519867423487 0.014374941524938406 0.023534399180562226 0.028440351596643636 0.020766553147501796 0.005054991025158221 0.019635228438725599 0.016236184070896137 -0.021175298490227968 -0.00019760565080058213 -0.0085443653614601881 0.007195498044836008 0.0080519181088145753 0.015840843806697001 0.0041484092281969722 0.0017726371335280669 0.015118684873431661 0.022880715083597711 -0.017165567827518907 0.014557864628910138 -0.010116532958600566 0.0025831196974906482 -0.0047183653062666461 0.0092670951611151034 0.02109091706415625 -0.018630223006518187 0.016728703409611981 0.0049566641898937131 0.011603666132149767 0.0090382260923698408 -0.017717674657510063 0.0062486050901803831 0.015182372159522116 -0.015823263674252394 -0.019962097550447994 0.0084259237445604603 -0.0085266776459397443 0.014801338546273321 0.0063272401715780448 0.009179859462430209 0.013317382305124012 0.0036986863422438787 0.0063978160100248973 0.0015258878479819243 0.0060009228782713043 0.0077743658853854638 -0.016110923923757667 -0.0072022936318607367 0.017832460364077079 -0.0067164196418866944 -0.003785825083961043 -0.0020265553518810826 0.0040056270736994722
leaf_count=25366 4940 948 1126 311 840 411 141 576 121 648 329 135 189 424 1152 404 197 228 3729 2774 425 339 419 973 1356 139 134 263 112 164 1073 368 1185 123 177 193 329 110 147 167 196 175 199 102 125 155 163 1687 445 141 227 126 323 118 225 113 208 167 149 319 156 116
internal_value=0 -0.116419 0.394596 -0.145447 -0.157608 -0.17568 -0.187684 0.503059 -0.194681 -0.200503 -0.213734 -0.22308 0.452403 0.42794 -0.229001 0.390387 -0.245243 -0.251799 -0.245222 -0.274213 -0.249544 -0.259107 0.354502 -0.267499 -0.282923 -0.301232 0.325048 -0.307418 -0.300049 0.308647 -0.304937 0.325137 0.350271 0.293042 -0.322711 0.275547 -0.316858 -0.324715 -0.329196 -0.334308 -0.32906 0.25433 -0.334553 -0.329181 -0.325322 0.160421 0.236546 0.219817 0.159602 0.120923 -0.329586 -0.33464 -0.338373 1.07778 0.017257 -0.343974 0.00279024 0.688615 0.0995414 0.074882 -0.633733 -0.340773
internal_count=58820 45492 13328 44426 44115 43275 42864 12046 42723 42602 41954 41625 11470 11281 41490 10857 40338 40141 39913 35959 33185 32760 10453 32421 31293 29937 10034 29798 29535 9900 29423 9736 9368 8016 27823 7893 27646 27317 27207 27060 26893 7700 26697 26498 26396 1128 7525 7362 5675 5230 26271 26044 25918 1066 3954 25595 1600 1352 5089 1392 1282 25482
shrinkage=0.015


Tree=12
num_leaves=63
num_cat=0
split_feature=271 792 797 116 907 18 218 722 564 752 17 654 559 499 787 757 354 462 453 268 445 763 245 40 168 717 719 542 990 47 938 95 477 313 911 623 901 763 17 938 132 173 787 500 854 830 197 938 938 566 671 610 48 40 502 567 83 230 230 401 382 939
split_gain=378.54 331.123 290.755 248.04 185.582 164.038 152.776 149.005 140.933 117.837 113.396 119.043 116.662 100.245 91.4695 78.8649 74.3998 67.3953 66.6097 60.7993 62.5647 57.4591 52.358 51.6908 51.47 48.531 43.7976 41.2102 41.0712 39.1667 36.3927 35.7508 33.5405 32.7464 30.9349 30.885 30.1023 29.9163 30.19 28.2954 28.2379 24.8777 24.8595 23.6012 20.8298 20.5351 20.5274 20.9003 19.7003 17.0711 21.6356 15.5061 16.7236 16.724 14.7281 13.477 13.4182 14.8295 12.6155 12.1079 11.8929 12.9948
threshold=1.0000000180025095e-35 1.0000000180025095e-35 1.0000000180025095e-35 1.0000000180025095e-35 1.0000000180025095e-35 1.0000000180025095e-35 1.0000000180025095e-35 1.0000000180025095e-35 1.0000000180025095e-35 1.0000000180025095e-35 1.0000000180025095e-35 1.0000000180025095e-35 1.0000000180025095e-35 1.0000000180025095e-35 1.0000000180025095e-35 1.0000000180025095e-35 1.0000000180025095e-35 1.0000000180025095e-35 1.0000000180025095e-35 1.0000000180025095e-35 1.0000000180025095e-35 1.0000000180025095e-35 1.0000000180025095e-35 1.0000000180025095e-35 1.0000000180025095e-35 1.0000000180025095e-35 1.0000000180025095e-35 1.0000000180025095e-35 1.0000000180025095e-35 1.0000000180025095e-35 1.0000000180025095e-35 1.0000000180025095e-35 1.0000000180025095e-35 1.0000000180025095e-35 1.0000000180025095e-35 1.0000000180025095e-35 1.0000000180025095e-35 1.0000000180025095e-35 1.0000000180025095e-35 1.0000000180025095e-35 1.0000000180025095e-35 1.0000000180025095e-35 1.0000000180025095e-35 1.0000000180025095e-35 1.0000000180025095e-35 1.0000000180025095e-35 1.0000000180025095e-35 1.0000000180025095e-35 1.0000000180025095e-35 1.0000000180025095e-35 1.0000000180025095e-35 1.0000000180025095e-35 1.0000000180025095e-35 1.0000000180025095e-35 1.0000000180025095e-35 1.0000000180025095e-35 1.0000000180025095e-35 1.0000000180025095e-35 1.0000000180025095e-35 1.0000000180025095e-35 1.0000000180025095e-35 1.0000000180025095e-35
decision_type=2 2 2 2 2 2 2 2 2 2 2 2 2 2 2 2 2 2 2 2 2 2 2 2 2 2 2 2 2 2 2 2 2 2 2 2 2 2 2 2 2 2 2 2 2 2 2 2 2 2 2 2 2 2 2 2 2 2 2 2 2 2
left_child=1 2 3 4 5 6 7 8 9 10 11 12 13 14 15 16 17 18 19 20 21 22 24 31 25 26 27 28 29 32 -18 37 33 34 35 36 40 38 42 58 41 43 -5 45 -6 46 47 49 56 50 51 52 53 54 55 60 57 -31 59 -12 61 -1
right_child=-2 -3 -4 23 44 -7 -8 -9 -10 -11 39 -13 -14 -15 -16 -17 30 -19 -20 -21 -22 -23 -24 -25 -26 -27 -28 -29 -30 48 -32 -33 -34 -35 -36 -37 -38 -39 -40 -41 -42 -43 -44 -45 -46 -47 -48 -49 -50 -51 -52 -53 -54 -55 -56 -57 -58 -59 -60 -61 -62 -63
leaf_value=-0.0027046624791303006 0.0188147712444343 0.014592345629144129 0.022710017633202208 0.0023851638324236205 0.013484588169939513 0.018086916267113944 -0.016720230856195013 0.022205128522914168 0.026371783058513738 -0.023685996294319136 0.0026945909754371414 0.020823388479307845 0.026393059340145509 0.0093497367087253015 0.0036395617778976976 -0.018068883842397285 -0.0091968843183500033 -0.014559192320816268 -0.018099712299458889 -0.016761652146532913 0.0099195447282815243 0.012719252906074813 -0.023593681580860729 0.025159640216380633 0.014266844526584581 -0.023288646591382394 -0.017271665076116053 0.010532947195218297 0.01314524436460226 0.0043315663933597487 0.0031615625101899551 0.018355301917466468 -0.017811194677647656 -0.019947077677149774 0.010599675110918074 0.0071155240605387856 -0.014614859387500765 0.019119166488695976 0.0096488545605205867 -0.0035812716506657257 0.0060834489906404967 -0.012481997055832564 0.012331104943730164 0.0095718230567888949 0.0042041430710215823 -0.016611118363697934 0.0039594002592341533 -0.0053880552840311537 -0.0055800938940983088 0.0041948325961123703 -0.0097625395715210742 0.0037074690450874036 -0.013375440334831151 0.0069731920754955243 -0.0094073185596168472 -0.010588571971485741 -0.007170475330777356 -0.0051735454715726792 0.012252371962567609 0.012920150309045158 0.00093326693149082445 0.0060588776240186448
leaf_count=25080 960 1332 481 3356 782 378 643 237 160 234 4320 202 128 639 1979 323 2272 431 252 272 386 230 109 121 169 106 185 227 155 1531 244 181 138 102 161 293 200 127 778 641 331 246 247 143 310 100 415 2715 310 337 394 358 135 167 298 194 119 168 138 109 884 157
internal_value=0 -0.0211387 -0.0447946 -0.0583549 -0.0998407 -0.117933 -0.128099 -0.115298 -0.123118 -0.129422 -0.122559 -0.156673 -0.164001 -0.169796 -0.181908 -0.202871 -0.194832 -0.172184 -0.162914 -0.155825 -0.148753 -0.157455 -0.163963 0.380092 -0.159704 -0.165031 -0.16099 -0.155868 -0.16146 -0.166099 -0.532911 0.346287 -0.183431 -0.179241 -0.175658 -0.180086 -0.186077 0.310819 0.282708 0.159411 -0.181185 -0.187389 0.204663 -0.182362 0.723533 -0.186138 -0.183199 -0.189272 0.0999434 -0.172778 -0.17833 -0.17151 -0.177106 -0.173523 -0.177554 -0.172481 0.18029 0.226202 0.215265 0.19647 -0.168525 -0.176656
internal_count=58820 57860 56528 56047 51237 50145 49767 49124 48887 48727 48493 43285 43083 42955 42316 40337 40014 37498 37067 36815 36543 36157 35927 4810 35818 35649 35543 35358 35131 34976 2516 4689 32848 32710 32608 32447 32154 4508 4381 5208 31954 31623 3603 31377 1092 31234 31134 30719 2128 28004 27667 27273 26915 26780 26613 26315 1818 1699 4567 4429 26121 25237
shrinkage=0.015


Tree=13
num_leaves=63
num_cat=0
split_feature=271 792 797 219 71 218 487 17 669 559 238 235 930 987 849 964 855 921 769 488 622 462 101 990 655 552 268 500 798 758 72 816 526 822 627 296 726 302 235 56 502 842 753 487 522 89 898 391 640 414 829 640 412 482 44 732 222 898 262 41 329 569
split_gain=366.505 320.724 281.455 247.693 205.332 166.692 170.51 156.094 139.745 137.508 124.83 115.279 113.459 104.227 101.869 96.5924 98.9285 86.2376 83.356 76.9363 77.6268 68.6988 61.5868 59.7626 59.9306 57.3451 56.2473 57.2775 51.0792 50.8958 41.5745 39.3271 34.9954 35.1156 35.542 32.0444 31.6004 36.3281 29.9415 29.4292 27.9601 25.8317 25.1217 23.4124 23.2074 21.7944 21.6732 19.6405 18.0493 17.7532 16.3834 16.58 15.4227 14.2 12.2479 11.7625 10.7603 11.3023 12.9967 10.8609 10.6168 10.5448
threshold=1.0000000180025095e-35 1.0000000180025095e-35 1.0000000180025095e-35 1.0000000180025095e-35 1.0000000180025095e-35 1.0000000180025095e-35 1.0000000180025095e-35 1.0000000180025095e-35 1.0000000180025095e-35 1.0000000180025095e-35 1.0000000180025095e-35 1.0000000180025095e-35 1.0000000180025095e-35 1.0000000180025095e-35 1.0000000180025095e-35 1.0000000180025095e-35 1.0000000180025095e-35 1.0000000180025095e-35 1.0000000180025095e-35 1.0000000180025095e-35 1.0000000180025095e-35 1.0000000180025095e-35 1.0000000180025095e-35 1.0000000180025095e-35 1.0000000180025095e-35 1.0000000180025095e-35 1.0000000180025095e-35 1.0000000180025095e-35 1.0000000180025095e-35 1.0000000180025095e-35 1.0000000180025095e-35 1.0000000180025095e-35 1.0000000180025095e-35 1.0000000180025095e-35 1.0000000180025095e-35 1.0000000180025095e-35 1.0000000180025095e-35 1.0000000180025095e-35 1.0000000180025095e-35 1.0000000180025095e-35 1.0000000180025095e-35 1.0000000180025095e-35 1.0000000180025095e-35 1.0000000180025095e-35 1.0000000180025095e-35 1.0000000180025095e-35 1.0000000180025095e-35 1.0000000180025095e-35 1.0000000180025095e-35 1.0000000180025095e-35 1.0000000180025095e-35 1.0000000180025095e-35 1.0000000180025095e-35 1.0000000180025095e-35 1.0000000180025095e-35 1.0000000180025095e-35 1.0000000180025095e-35 1.0000000180025095e-35 1.0000000180025095e-35 1.0000000180025095e-35 1.0000000180025095e-35 1.0000000180025095e-35
decision_type=2 2 2 2 2 2 2 2 2 2 2 2 2 2 2 2 2 2 2 2 2 2 2 2 2 2 2 2 2 2 2 2 2 2 2 2 2 2 2 2 2 2 2 2 2 2 2 2 2 2 2 2 2 2 2 2 2 2 2 2 2 2
left_child=1 2 3 4 5 6 7 8 9 10 11 12 13 14 15 16 17 18 19 20 21 22 23 24 25 26 27 28 29 30 31 32 33 34 35 36 37 39 48 40 41 42 44 -6 45 47 -3 49 -9 50 51 52 53 54 56 -38 57 58 59 60 -1 -17
right_child=-2 46 -4 -5 43 -7 -8 38 -10 -11 -12 -13 -14 -15 -16 61 -18 -19 -20 -21 -22 -23 -24 -25 -26 -27 -28 -29 -30 -31 -32 -33 -34 -35 -36 -37 55 -39 -40 -41 -42 -43 -44 -45 -46 -47 -48 -49 -50 -51 -52 -53 -54 -55 -56 -57 -58 -59 -60 -61 -62 -63
leaf_value=-0.0027448760826877605 0.018493443876337144 0.015656965046369927 0.022314694581423163 0.030937769875901491 0.010856077388942134 -0.016419021268056899 -0.0073195635348591919 0.004112614843541927 0.020793038736052805 0.028301460187626668 -0.016732127782131959 -0.015790520721129145 -0.018717625746718251 0.023705696083807036 0.024149267734631091 -0.008436138265145731 -0.016554905286908367 0.020680741479322286 0.021612008658395947 -0.019305825199445223 -0.020495078387245649 -0.012652419305556271 0.021635244793149398 0.015350816050477587 0.012338951530128655 0.016685373004449406 -0.014887742898195024 0.013787440159192078 0.0019893208133440867 0.011470663732385826 -0.012656175543403852 0.012829176029157723 -0.012709378161142433 0.014794097512238241 0.0040259345908653932 0.013504394138008916 0.0034593609268563875 -0.012547516266557358 -0.01171851108682565 0.0088762466374482096 -0.010571914503271948 -0.011003147230843805 0.0075753821165421712 -0.0021296938439437901 0.01184511102876642 0.0020499447946731573 0.0029924555717157032 0.0086426869199708028 0.012478325182048328 -0.014679755780750023 0.0031772600958221014 0.0024373044321040795 0.001889685460659064 0.0068900124592025406 0.00792272958926395 0.015042862094583121 0.0039917758478493571 0.0026631578887007391 -0.00040307884542544386 0.0060354557173474335 -0.0079422370497469526 -0.015606274792963639
leaf_count=21836 960 1194 481 222 1450 675 3826 5118 261 142 496 503 342 155 145 883 377 170 149 213 189 448 113 211 315 169 271 243 4689 280 308 177 256 123 1060 128 266 291 107 240 334 274 272 140 116 1327 138 161 248 102 563 738 831 154 106 115 240 389 2347 128 371 244
internal_value=0 -0.0208303 -0.0441377 -0.057499 -0.0660691 -0.0872479 -0.0746995 -0.0430222 -0.0830998 -0.0919405 -0.0984389 -0.0869237 -0.0755984 -0.0663074 -0.0724314 -0.0783117 -0.0622839 -0.0527734 -0.0588596 -0.0644989 -0.0580901 -0.0520157 -0.0430888 -0.047401 -0.0532227 -0.0603992 -0.0655694 -0.059125 -0.0653863 -0.0931498 -0.10043 -0.0935085 -0.098686 -0.0928149 -0.096934 -0.109295 -0.113465 -0.120674 0.278929 -0.113897 -0.119519 -0.113028 -0.107308 0.647964 -0.112997 -0.116595 0.956498 -0.128686 0.300018 -0.132788 -0.12968 -0.13681 -0.145215 -0.154085 -0.157814 0.464643 -0.160707 -0.16481 -0.170234 -0.185365 -0.188775 -0.66562
internal_count=58820 57860 56528 56047 55825 54235 53560 49734 44261 44000 43858 43362 42859 42517 42362 42217 41090 40713 40543 40394 40181 39992 39544 39431 39220 38905 38736 38465 38222 33533 33253 32945 32768 32512 32389 31329 31201 30820 5473 30529 30289 29955 29681 1590 29409 29293 1332 27966 5366 27805 27703 27140 26402 25571 25417 381 25311 25071 24682 22335 22207 1127
shrinkage=0.015


Tree=14
num_leaves=63
num_cat=0
split_feature=836 271 792 97 219 71 560 881 942 106 473 774 907 763 235 654 988 653 961 804 802 855 268 399 358 194 921 978 755 720 482 647 111 953 717 758 677 726 901 221 670 354 938 938 631 89 401 338 109 339 911 262 329 346 907 354 193 222 358 938 346 938
split_gain=440.491 352.602 307.722 240.444 238.237 218.634 217.328 173.55 172.117 160.621 146.522 136.686 115.772 115.738 107.697 99.0752 97.6106 95.4296 81.5915 78.613 76.8589 75.8179 72.8851 71.2058 69.4997 77.5107 68.472 59.1773 57.3743 52.4298 60.4923 53.3389 48.2506 45.0736 44.3973 39.3541 37.2356 36.2256 39.0712 32.7151 32.3807 33.095 55.5565 32.1148 65.9121 27.994 23.2545 20.9529 19.9951 20.0779 19.5169 19.3201 21.1881 18.1522 13.7185 11.8991 11.7598 12.5836 10.8867 10.1249 9.5722 9.46833
threshold=1.0000000180025095e-35 1.0000000180025095e-35 1.0000000180025095e-35 1.0000000180025095e-35 1.0000000180025095e-35 1.0000000180025095e-35 1.0000000180025095e-35 1.0000000180025095e-35 1.0000000180025095e-35 1.0000000180025095e-35 1.0000000180025095e-35 1.0000000180025095e-35 1.0000000180025095e-35 1.0000000180025095e-35 1.0000000180025095e-35 1.0000000180025095e-35 1.0000000180025095e-35 1.0000000180025095e-35 1.0000000180025095e-35 1.0000000180025095e-35 1.0000000180025095e-35 1.0000000180025095e-35 1.0000000180025095e-35 1.0000000180025095e-35 1.0000000180025095e-35 1.0000000180025095e-35 1.0000000180025095e-35 1.0000000180025095e-35 1.0000000180025095e-35 1.0000000180025095e-35 1.0000000180025095e-35 1.0000000180025095e-35 1.0000000180025095e-35 1.0000000180025095e-35 1.0000000180025095e-35 1.0000000180025095e-35 1.0000000180025095e-35 1.0000000180025095e-35 1.0000000180025095e-35 1.0000000180025095e-35 1.0000000180025095e-35 1.0000000180025095e-35 1.0000000180025095e-35 1.0000000180025095e-35 1.0000000180025095e-35 1.0000000180025095e-35 1.0000000180025095e-35 1.0000000180025095e-35 1.0000000180025095e-35 1.0000000180025095e-35 1.0000000180025095e-35 1.0000000180025095e-35 1.0000000180025095e-35 1.0000000180025095e-35 1.0000000180025095e-35 1.0000000180025095e-35 1.0000000180025095e-35 1.0000000180025095e-35 1.0000000180025095e-35 1.0000000180025095e-35 1.0000000180025095e-35 1.0000000180025095e-35
decision_type=2 2 2 2 2 2 2 2 2 2 2 2 2 2 2 2 2 2 2 2 2 2 2 2 2 2 2 2 2 2 2 2 2 2 2 2 2 2 2 2 2 2 2 2 2 2 2 2 2 2 2 2 2 2 2 2 2 2 2 2 2 2
left_child=1 2 3 4 5 6 7 8 9 10 11 12 13 14 15 16 17 18 19 20 21 22 23 24 25 26 27 28 29 30 31 32 33 34 35 36 37 38 40 61 41 43 -43 44 45 46 47 48 49 50 51 52 56 55 58 59 57 -1 -7 -26 -45 -19
right_child=-2 -3 -4 -5 -6 54 -8 -9 -10 -11 -12 -13 -14 -15 -16 -17 -18 39 -20 -21 -22 -23 -24 -25 53 -27 -28 -29 -30 -31 -32 -33 -34 -35 -36 -37 -38 -39 -40 -41 -42 42 -44 60 -46 -47 -48 -49 -50 -51 -52 -53 -54 -55 -56 -57 -58 -59 -60 -61 -62 -63
leaf_value=-0.0039820724117441428 0.028537423587337359 0.018005073168340196 0.013892009144179615 -0.017156748131339133 0.030633345107229808 0.010434913645842214 0.015046398353276513 0.025741851338770428 0.02007793684950282 0.0082917014461358872 0.010723495981315322 0.0071446792619270375 0.0085230408270307798 0.013629747708530078 -0.015156110248175201 0.017001713098635744 0.023754074191234688 0.0048915437237690958 0.022139631497057759 -0.024745323827132251 0.015386386740729251 -0.016550888216475605 -0.017383281413756752 -0.017663541270381194 0.0025596927521491287 0.0063520940351638093 0.017314720440881694 -0.025034271398505677 0.018953754195609983 -0.013384112914334884 0.010260753123371448 0.0023184760889582434 -0.024945400820634907 -0.021344903948269302 -0.023699740542965527 0.0080789045226419779 0.014099236209925045 0.0051120236538880351 -0.017392779037174164 -0.0081926597253314422 -0.011649441334707515 -0.0087189154457214275 0.0072952587895337489 -0.0061348101618074382 0.0066397021340682877 0.0013027629067146004 0.0036667627579690114 0.0053722556411362884 0.0074364529916778402 -0.01628075971399413 0.007747249143816695 -0.00096932511921403875 -0.0097584665175469085 -0.010731554454908589 0.019962881983226179 -0.0054361216333101313 0.0012538731678195807 0.0041147556095598248 0.0026822484720334118 -0.0017679785863371795 -0.015596311860940296 -0.00087525349444559687
leaf_count=21880 484 947 1315 830 220 1284 750 214 338 1462 829 1429 878 400 638 236 127 1970 118 158 207 393 330 303 2985 766 145 119 105 491 299 1421 100 134 104 268 109 429 196 218 468 2035 222 2563 640 1201 419 240 149 118 137 2175 575 118 122 221 414 179 190 599 104 302
internal_value=0 -0.0162462 -0.0366657 -0.0595614 -0.0432972 -0.0518007 -0.0740431 -0.0895803 -0.0970882 -0.106493 -0.125729 -0.139892 -0.158221 -0.171781 -0.181066 -0.169714 -0.176451 -0.181391 -0.203543 -0.208132 -0.202966 -0.208912 -0.200816 -0.193483 -0.186455 -0.212943 -0.226086 -0.23155 -0.226997 -0.231267 -0.222443 -0.229966 -0.245733 -0.241705 -0.237177 -0.233238 -0.23933 -0.243132 -0.250626 0.203423 -0.245366 -0.237866 -0.475498 -0.220486 -0.200284 -0.215316 -0.229218 -0.236924 -0.242541 -0.246902 -0.243023 -0.247205 -0.264518 0.0702055 0.682896 0.0943655 -0.254686 -0.261072 0.629043 0.122443 -0.43338 0.275044
internal_count=58820 58336 57389 56074 55244 55024 53428 52678 52464 52126 50664 49835 48406 47528 47128 46490 46254 46127 43637 43519 43361 43154 42761 42431 42128 38205 37439 37294 37175 37070 36579 36280 34859 34759 34625 34521 34253 34144 33715 2490 33519 33051 2257 30794 28127 27487 26286 25867 25627 25478 25360 25223 23048 3923 1596 3805 22473 22059 1474 3584 2667 2272
shrinkage=0.015


Tree=15
num_leaves=63
num_cat=0
split_feature=792 456 776 881 560 653 462 774 763 857 132 654 757 238 268 723 622 47 358 194 943 964 921 488 640 758 56 399 849 976 354 197 355 830 566 279 901 269 125 670 209 429 497 262 583 193 517 136 401 517 464 262 517 339 262 774 358 517 640 517 358 47
split_gain=306.119 303.186 254.32 218.376 172.297 168.943 245.996 144.688 134.862 121.069 112.479 108.883 98.1379 94.4496 92.7857 89.7971 87.282 86.4655 86.6736 84.7665 72.4652 59.6756 58.6034 54.8243 50.8422 46.5001 44.0254 41.4728 38.962 36.505 38.1072 31.9701 31.8264 30.5496 30.4924 29.8495 27.6646 26.9898 24.3336 23.5443 23.8293 20.3497 18.8403 19.1184 21.3001 18.5486 15.2842 16.7699 14.0931 12.3552 11.3691 10.8026 14.6058 9.43199 8.48586 8.31575 7.64959 7.6416 7.63297 6.99605 6.97814 6.60984
threshold=1.0000000180025095e-35 1.0000000180025095e-35 1.0000000180025095e-35 1.0000000180025095e-35 1.0000000180025095e-35 1.0000000180025095e-35 1.0000000180025095e-35 1.0000000180025095e-35 1.0000000180025095e-35 1.0000000180025095e-35 1.0000000180025095e-35 1.0000000180025095e-35 1.0000000180025095e-35 1.0000000180025095e-35 1.0000000180025095e-35 1.0000000180025095e-35 1.0000000180025095e-35 1.0000000180025095e-35 1.0000000180025095e-35 1.0000000180025095e-35 1.0000000180025095e-35 1.0000000180025095e-35 1.0000000180025095e-35 1.0000000180025095e-35 1.0000000180025095e-35 1.0000000180025095e-35 1.0000000180025095e-35 1.0000000180025095e-35 1.0000000180025095e-35 1.0000000180025095e-35 1.0000000180025095e-35 1.0000000180025095e-35 1.0000000180025095e-35 1.0000000180025095e-35 1.0000000180025095e-35 1.0000000180025095e-35 1.0000000180025095e-35 1.0000000180025095e-35 1.0000000180025095e-35 1.0000000180025095e-35 1.0000000180025095e-35 1.0000000180025095e-35 1.0000000180025095e-35 1.0000000180025095e-35 1.0000000180025095e-35 1.0000000180025095e-35 1.0000000180025095e-35 1.0000000180025095e-35 1.0000000180025095e-35 1.0000000180025095e-35 1.0000000180025095e-35 1.0000000180025095e-35 1.0000000180025095e-35 1.0000000180025095e-35 1.0000000180025095e-35 1.0000000180025095e-35 1.0000000180025095e-35 1.0000000180025095e-35 1.0000000180025095e-35 1.0000000180025095e-35 1.0000000180025095e-35 1.0000000180025095e-35
decision_type=2 2 2 2 2 2 2 2 2 2 2 2 2 2 2 2 2 2 2 2 2 2 2 2 2 2 2 2 2 2 2 2 2 2 2 2 2 2 2 2 2 2 2 2 2 2 2 2 2 2 2 2 2 2 2 2 2 2 2 2 2 2
left_child=1 2 3 4 5 7 55 8 9 10 11 12 13 14 15 16 17 18 19 20 21 22 23 25 28 26 27 29 -9 30 31 32 33 34 35 36 37 39 60 40 41 42 43 44 45 46 47 48 50 -23 53 58 -53 -1 -6 -7 61 -32 -20 -2 -19 -11
right_child=59 -3 -4 -5 54 6 -8 24 -10 56 -12 -13 -14 -15 -16 -17 -18 38 51 -21 -22 49 -24 -25 -26 -27 -28 -29 -30 -31 57 -33 -34 -35 -36 -37 -38 -39 -40 -41 -42 -43 -44 -45 -46 -47 -48 -49 -50 -51 -52 52 -54 -55 -56 -57 -58 -59 -60 -61 -62 -63
leaf_value=-0.0038898513283811935 0.014804891351212565 0.019029640880952589 0.01860511908802288 0.026189190777992425 0.015492795526065677 0.0079337099732084432 -0.019202519118026971 0.0029290525696920398 0.014466499880518291 0.005357872861774725 0.011062445752458176 0.018485893829497439 -0.017941297242804657 -0.015095676649308047 -0.017942230968420951 0.021660799082764377 -0.021503482540704822 0.0041982732753220193 0.0029387354628636316 0.0067261050592500099 0.013121887729663256 -0.0080379696845203717 0.017066788230090377 -0.018696013944934722 0.018071099325863774 0.0091776146516541566 0.0099666021114780262 -0.016055312176379712 0.021287322554067307 0.014341967968625767 -0.0063643967120768138 0.0052436677432848716 0.0083488216059801595 -0.01938045750651193 0.0042596896215856706 0.0038424451320508562 -0.0144469653221957 -0.01514625398020869 -0.0093417674053906351 -0.010212285482878385 0.0037964584038077524 0.0065133361743259415 -0.011727064786928395 -0.00087843871536469906 0.010469999889745665 0.0019635187762167211 -0.00097035452167196473 -0.015732910374288173 0.0021607008124188954 -0.014909697349920387 0.004086210976040271 0.00032057039661647171 -0.010578816673599924 -0.013093361756074636 0.0080981699259920388 0.015773138135981548 0.00054249405627009473 -0.011571754376811872 -0.0022617723640401643 0.0074434180976620211 -0.00049830088559038696 0.011633757678282709
