tree
version=v2
num_class=1
num_tree_per_iteration=1
label_index=0
max_feature_idx=990
objective=binary sigmoid:1
feature_names=seems yourself hey lose happy saying does haha feel hug blog attention than same fight everyone take such or which ig an stress help tonight meeting daily looks most physically single talking saturday miss tired waking feelings drink appreciate nobody people storytime dinner isn since hurting cares three scared she someday awake give amazing easy stupid believe weight shit doesn make his very enjoy friend as now tho you lets moving its comments at missed im woman easier finally from obsessed never christmas playlist laughing welcome takes class luck music around because again actually http picture saw comes food tbh left halloween lives down wanna thoughts small get may see any text random thinks done question except front broken disappointment first closet talked honestly step wasn empty change yours thats goals if fine able job good expect wants lot had yeah person poshmark issues middle summer bc ur reason come face tuesday ily makeup ya forever york songs depression eat posting ok snapchat getting beautiful win post use answer season off couldn beauty breaking he nice bro pain love need mom words social real starting talk right some worse become pizza high else tv boyfriend ignore message name sleeping time deal yes came watching weird state tweet choose tweets white child clothes me feels possible looked till felt dont months sent suicide twitter during later money brand thanks instead routine starbucks annoying learn though think minutes dad bye more comment pic all long support live just driving wanted gonna yay final song busy added phone where stop point mine depressed great ready awkward fan excited ft lady hello netflix dance proud followers start stay met late cry ve jackson hours something productive little nothing living ask others it wake next him upload horrible mess damn gorgeous even back promise terrible order walking facebook break longer forgot knowing man second know fear dying supposed visit fall extra death moment big texts anyone gift with seeing problem absolutely mad are today move having well free sorry coffee them gave brother fat weekend someone illness top always vs human realize somewhere leave exist open struggle wrong minute we sitting wearing tour didn complete behind subscribers haven there control special angel nap your what thankful college sooo still light biggest got movie going last our was kids cannot dog these things waiting sis lately reading sick somebody internet new here one notice show rn ad happiness thought gt surprise will both positive idea together tears save fake pretty joke truth often understand realized million of tried sister lost photo side in through taken add true hahaha anyway vlogmas gone hide dark loved family kill advice miserable poshmarkapp healthy how over were apple under whole channel everything about pieces used worst girl idk stuck anxiety knows definitely short experience goodbye mistakes fav yesterday judge seem filming find less vegas every needs asking thinking sounds die challenge anything safe lonely remember dreams bring why bitch failure bit means clothing trying without morning wait each falling rest body years kind ever laugh youre truly killing ate few respect fast pants dude drive red into entire gives book freaking running literally coming door mentally deserve ass not pics walk needed stomach boys reality yo exactly looking myself emotional ugly act exciting huge lie bag episode sure world thing alone officially ideas whatever told worry aw forget future sound weather media sunday girls old hot sleep life only lol then being listening missing landon confused that wtf said mirror end gets but insta hurts telling friday lies and ice giving once share crying babe hi better parents waste course reasons ll those happens posted water part sucks call note feeling wouldn news important dream shut really type god forward sending on wonder wanting should angies_diary account born young loves apart ugh says plans thank ones outfit instagram leaving dear look likes lt let happened guys mental everyday probably run giveaway much when grow country photos constantly her week boy check they weeks swear won tell pls way ways city greatest skin broke hit ain normal wear decided month skinny imagine af matter taking suck eating between hour maybe half mind shopping link collab am died cold night smile pretend soul oh like days sex sense mean sadness lazy iphone black is please for using lucky diet couple drunk go called holiday date currently letting hoping worth gotta play afraid anymore hopefully nyc inside haul travel glad close soon kinda trust room pretending kid who stand hell cutest baby school goes heck everybody cause omg pick year hate many number already ex update matters work happen bought ah followed changed no places aka making keeps been head congrats woke fail past fun watched ed target choice alive tomorrow sit queen be leaves so might own bad watch videos remind set explain store aren hear best knew their uber sad snap editing two follow asked far beach strong clean hurt put almost florida turn drinking funny too group wow self outside plz us sweet painful before awesome either hair hard pictures spring after spend stuff sign airport can lmao game men team out vid up meet has started apartment throw my day try working send dress fix regret trip meant ahhh mood party times home online made spent sometimes easily vlogs grateful elizabeth care flight dead kidding could wish until keep car list other perfect tea makes fact chat place cant doing the hope have friends cut completely least cool dm hacks plan mother would bed early found rt seriously guy eyes by chance heart while questions low totally starts hahahaha asleep tips blessed read hang another monday playing loving film hold daughter want rather suicidal ago scars away oops favorite ppl memories super birthday suddenly full yet goodnight guess seen hand actual problems went lil crazy say story must enough also do losing deep buy happening did different relationship lots listen okay catch heard took worthless word basically shop cute house
feature_infos=[0:1] [0:1] [0:1] [0:1] [0:1] [0:1] [0:1] [0:1] [0:1] [0:1] [0:1] [0:1] [0:1] [0:1] [0:1] [0:1] [0:1] [0:1] [0:1] [0:1] [0:1] [0:1] [0:1] [0:1] [0:1] [0:1] [0:1] [0:1] [0:1] [0:1] [0:1] [0:1] [0:1] [0:1] [0:1] [0:1] [0:1] [0:1] [0:1] [0:1] [0:1] [0:1] [0:1] [0:1] [0:1] [0:1] [0:1] [0:1] [0:1] [0:1] [0:1] [0:1] [0:1] [0:1] [0:1] [0:1] [0:1] [0:1] [0:1] [0:1] [0:1] [0:1] [0:1] [0:1] [0:1] [0:1] [0:1] [0:1] [0:1] [0:1] [0:1] [0:1] [0:1] [0:1] [0:1] [0:1] [0:1] [0:1] [0:1] [0:1] [0:1] [0:1] [0:1] [0:1] [0:1] [0:1] [0:1] [0:1] [0:1] [0:1] [0:1] [0:1] [0:1] [0:1] [0:1] [0:1] [0:1] [0:1] [0:1] [0:1] [0:1] [0:1] [0:1] [0:1] [0:1] [0:1] [0:1] [0:1] [0:1] [0:1] [0:1] [0:1] [0:1] [0:1] [0:1] [0:1] [0:1] [0:1] [0:1] [0:1] [0:1] [0:1] [0:1] [0:1] [0:1] [0:1] [0:1] [0:1] [0:1] [0:1] [0:1] [0:1] [0:1] [0:1] [0:1] [0:1] [0:1] [0:1] [0:1] [0:1] [0:1] [0:1] [0:1] [0:1] [0:1] [0:1] [0:1] [0:1] [0:1] [0:1] [0:1] [0:1] [0:1] [0:1] [0:1] [0:1] [0:1] [0:1] [0:1] [0:1] [0:1] [0:1] [0:1] [0:1] [0:1] [0:1] [0:1] [0:1] [0:1] [0:1] [0:1] [0:1] [0:1] [0:1] [0:1] [0:1] [0:1] [0:1] [0:1] [0:1] [0:1] [0:1] [0:1] [0:1] [0:1] [0:1] [0:1] [0:1] [0:1] [0:1] [0:1] [0:1] [0:1] [0:1] [0:1] [0:1] [0:1] [0:1] [0:1] [0:1] [0:1] [0:1] [0:1] [0:1] [0:1] [0:1] [0:1] [0:1] [0:1] [0:1] [0:1] [0:1] [0:1] [0:1] [0:1] [0:1] [0:1] [0:1] [0:1] [0:1] [0:1] [0:1] [0:1] [0:1] [0:1] [0:1] [0:1] [0:1] [0:1] [0:1] [0:1] [0:1] [0:1] [0:1] [0:1] [0:1] [0:1] [0:1] [0:1] [0:1] [0:1] [0:1] [0:1] [0:1] [0:1] [0:1] [0:1] [0:1] [0:1] [0:1] [0:1] [0:1] [0:1] [0:1] [0:1] [0:1] [0:1] [0:1] [0:1] [0:1] [0:1] [0:1] [0:1] [0:1] [0:1] [0:1] [0:1] [0:1] [0:1] [0:1] [0:1] [0:1] [0:1] [0:1] [0:1] [0:1] [0:1] [0:1] [0:1] [0:1] [0:1] [0:1] [0:1] [0:1] [0:1] [0:1] [0:1] [0:1] [0:1] [0:1] [0:1] [0:1] [0:1] [0:1] [0:1] [0:1] [0:1] [0:1] [0:1] [0:1] [0:1] [0:1] [0:1] [0:1] [0:1] [0:1] [0:1] [0:1] [0:1] [0:1] [0:1] [0:1] [0:1] [0:1] [0:1] [0:1] [0:1] [0:1] [0:1] [0:1] [0:1] [0:1] [0:1] [0:1] [0:1] [0:1] [0:1] [0:1] [0:1] [0:1] [0:1] [0:1] [0:1] [0:1] [0:1] [0:1] [0:1] [0:1] [0:1] [0:1] [0:1] [0:1] [0:1] [0:1] [0:1] [0:1] [0:1] [0:1] [0:1] [0:1] [0:1] [0:1] [0:1] [0:1] [0:1] [0:1] [0:1] [0:1] [0:1] [0:1] [0:1] [0:1] [0:1] [0:1] [0:1] [0:1] [0:1] [0:1] [0:1] [0:1] [0:1] [0:1] [0:1] [0:1] [0:1] [0:1] [0:1] [0:1] [0:1] [0:1] [0:1] [0:1] [0:1] [0:1] [0:1] [0:1] [0:1] [0:1] [0:1] [0:1] [0:1] [0:1] [0:1] [0:1] [0:1] [0:1] [0:1] [0:1] [0:1] [0:1] [0:1] [0:1] [0:1] [0:1] [0:1] [0:1] [0:1] [0:1] [0:1] [0:1] [0:1] [0:1] [0:1] [0:1] [0:1] [0:1] [0:1] [0:1] [0:1] [0:1] [0:1] [0:1] [0:1] [0:1] [0:1] [0:1] [0:1] [0:1] [0:1] [0:1] [0:1] [0:1] [0:1] [0:1] [0:1] [0:1] [0:1] [0:1] [0:1] [0:1] [0:1] [0:1] [0:1] [0:1] [0:1] [0:1] [0:1] [0:1] [0:1] [0:1] [0:1] [0:1] [0:1] [0:1] [0:1] [0:1] [0:1] [0:1] [0:1] [0:1] [0:1] [0:1] [0:1] [0:1] [0:1] [0:1] [0:1] [0:1] [0:1] [0:1] [0:1] [0:1] [0:1] [0:1] [0:1] [0:1] [0:1] [0:1] [0:1] [0:1] [0:1] [0:1] [0:1] [0:1] [0:1] [0:1] [0:1] [0:1] [0:1] [0:1] [0:1] [0:1] [0:1] [0:1] [0:1] [0:1] [0:1] [0:1] [0:1] [0:1] [0:1] [0:1] [0:1] [0:1] [0:1] [0:1] [0:1] [0:1] [0:1] [0:1] [0:1] [0:1] [0:1] [0:1] [0:1] [0:1] [0:1] [0:1] [0:1] [0:1] [0:1] [0:1] [0:1] [0:1] [0:1] [0:1] [0:1] [0:1] [0:1] [0:1] [0:1] [0:1] [0:1] [0:1] [0:1] [0:1] [0:1] [0:1] [0:1] [0:1] [0:1] [0:1] [0:1] [0:1] [0:1] [0:1] [0:1] [0:1] [0:1] [0:1] [0:1] [0:1] [0:1] [0:1] [0:1] [0:1] [0:1] [0:1] [0:1] [0:1] [0:1] [0:1] [0:1] [0:1] [0:1] [0:1] [0:1] [0:1] [0:1] [0:1] [0:1] [0:1] [0:1] [0:1] [0:1] [0:1] [0:1] [0:1] [0:1] [0:1] [0:1] [0:1] [0:1] [0:1] [0:1] [0:1] [0:1] [0:1] [0:1] [0:1] [0:1] [0:1] [0:1] [0:1] [0:1] [0:1] [0:1] [0:1] [0:1] [0:1] [0:1] [0:1] [0:1] [0:1] [0:1] [0:1] [0:1] [0:1] [0:1] [0:1] [0:1] [0:1] [0:1] [0:1] [0:1] [0:1] [0:1] [0:1] [0:1] [0:1] [0:1] [0:1] [0:1] [0:1] [0:1] [0:1] [0:1] [0:1] [0:1] [0:1] [0:1] [0:1] [0:1] [0:1] [0:1] [0:1] [0:1] [0:1] [0:1] [0:1] [0:1] [0:1] [0:1] [0:1] [0:1] [0:1] [0:1] [0:1] [0:1] [0:1] [0:1] [0:1] [0:1] [0:1] [0:1] [0:1] [0:1] [0:1] [0:1] [0:1] [0:1] [0:1] [0:1] [0:1] [0:1] [0:1] [0:1] [0:1] [0:1] [0:1] [0:1] [0:1] [0:1] [0:1] [0:1] [0:1] [0:1] [0:1] [0:1] [0:1] [0:1] [0:1] [0:1] [0:1] [0:1] [0:1] [0:1] [0:1] [0:1] [0:1] [0:1] [0:1] [0:1] [0:1] [0:1] [0:1] [0:1] [0:1] [0:1] [0:1] [0:1] [0:1] [0:1] [0:1] [0:1] [0:1] [0:1] [0:1] [0:1] [0:1] [0:1] [0:1] [0:1] [0:1] [0:1] [0:1] [0:1] [0:1] [0:1] [0:1] [0:1] [0:1] [0:1] [0:1] [0:1] [0:1] [0:1] [0:1] [0:1] [0:1] [0:1] [0:1] [0:1] [0:1] [0:1] [0:1] [0:1] [0:1] [0:1] [0:1] [0:1] [0:1] [0:1] [0:1] [0:1] [0:1] [0:1] [0:1] [0:1] [0:1] [0:1] [0:1] [0:1] [0:1] [0:1] [0:1] [0:1] [0:1] [0:1] [0:1] [0:1] [0:1] [0:1] [0:1] [0:1] [0:1] [0:1] [0:1] [0:1] [0:1] [0:1] [0:1] [0:1] [0:1] [0:1] [0:1] [0:1] [0:1] [0:1] [0:1] [0:1] [0:1] [0:1] [0:1] [0:1] [0:1] [0:1] [0:1] [0:1] [0:1] [0:1] [0:1] [0:1] [0:1] [0:1] [0:1] [0:1] [0:1] [0:1] [0:1] [0:1] [0:1] [0:1] [0:1] [0:1] [0:1] [0:1] [0:1] [0:1] [0:1] [0:1] [0:1] [0:1] [0:1] [0:1] [0:1] [0:1] [0:1] [0:1] [0:1] [0:1] [0:1] [0:1] [0:1] [0:1] [0:1] [0:1] [0:1] [0:1] [0:1] [0:1] [0:1] [0:1] [0:1] [0:1] [0:1] [0:1] [0:1] [0:1] [0:1] [0:1] [0:1] [0:1] [0:1] [0:1] [0:1] [0:1] [0:1] [0:1] [0:1] [0:1] [0:1] [0:1] [0:1] [0:1] [0:1] [0:1] [0:1] [0:1] [0:1] [0:1] [0:1] [0:1] [0:1] [0:1] [0:1] [0:1] [0:1] [0:1] [0:1] [0:1] [0:1] [0:1] [0:1] [0:1] [0:1] [0:1] [0:1] [0:1] [0:1] [0:1] [0:1] [0:1] [0:1] [0:1] [0:1] [0:1] [0:1] [0:1] [0:1] [0:1] [0:1] [0:1] [0:1] [0:1] [0:1] [0:1] [0:1] [0:1] [0:1] [0:1] [0:1] [0:1] [0:1] [0:1] [0:1] [0:1] [0:1] [0:1] [0:1] [0:1] [0:1] [0:1] [0:1] [0:1] [0:1] [0:1] [0:1] [0:1] [0:1] [0:1] [0:1] [0:1] [0:1] [0:1] [0:1] [0:1] [0:1] [0:1] [0:1] [0:1] [0:1] [0:1] [0:1] [0:1] [0:1] [0:1] [0:1] [0:1] [0:1] [0:1] [0:1] [0:1] [0:1] [0:1] [0:1] [0:1] [0:1] [0:1] [0:1] [0:1] [0:1] [0:1] [0:1] [0:1] [0:1] [0:1] [0:1] [0:1] [0:1] [0:1] [0:1] [0:1] [0:1] [0:1] [0:1] [0:1] [0:1] [0:1] [0:1] [0:1] [0:1] [0:1] [0:1] [0:1] [0:1] [0:1] [0:1] [0:1] [0:1] [0:1] [0:1] [0:1] [0:1] [0:1] [0:1] [0:1] [0:1] [0:1] [0:1] [0:1]
tree_sizes=5375 5470 5452 5464 5470 5457 5450 5450 5454 5461 5443 5465 5476 5445 5471 5471 5460 5477 5480 5484 5455 5479 5469 5446 5479 5465 5469 5478 5442 5454 5500 5473 5439 5461 5433 5450 5473 5537 5462 5480 5468 5465 5471 5443 5443 5454 5455 5469 5524 5460 5455 5450 5484 5477 5494 5463 5468 5473 5464 5466 5483 5466 5541 5451 5515 5468 5458 5470 5461 5531 5468 5527 5511 5510 5468 5488 5457 5477 5486 5460 5518 5510 5498 5513 5486 5508 5485 5473 5517 5482 5514 5540 5513 5498 5489 5518 5484 5480 5483 5459 5545 5523 5518 5519 5498 5490 5517 5482 5462 5475 5497 5513 5490 5501 5473 5525 5527 5466 5486 5543 5546 5508 5480 5535 5519 5500 5486 5527 5557 5547 5548 5528 5515 5508 5530 5546 5524 5512 5482 5544 5543 5525 5484 5500 5502 5501 5513 5523 5532 5539 5504 5471 5527 5529 5516 5530 5548 5511 5517 5526 5532 5521 5507 5534 5501 5537 5528 5533 5513 5569 5514 5528 5529 5574 5531 5535 5511 5538 5503 5564 5551 5571 5559 5543 5519 5546 5537 5545 5523 5519 5531 5535 5531 5527 5518 5536 5541 5529 5516 5546 5517 5537 5544 5541 5556 5555 5543 5531 5523 5534 5566 5574 5527 5506 5532 5487 5520 5539 5528 5543 5544 5531 5529 5532 5545 5523 5528 5514 5548 5547 5591 5536 5527 5578 5530 5510 5582 5539 5522 5517 5569 5563 5550 5565 5575 5536 5505 5555 5495 5526 5534 5522 5557 5534 5547 5546 5553 5532 5547 5540 5521 5586 5529 5553 5532 5552 5546 5508 5557 5579 5572 5538 5542 5559 5528 5562 5563 5558 5553 5529 5558 5548 5556 5565 5530 5509 5554 5562 5549 5516 5506 5547 5529 5548 5535 5561 5577 5569 5539 5555

Tree=0
num_leaves=63
num_cat=0
split_feature=394 68 8 538 340 528 410 338 576 792 818 340 227 816 528 212 818 343 8 253 296 790 4 637 368 152 790 212 711 711 576 694 481 335 73 947 658 1 452 154 368 792 335 376 379 378 212 971 4 445 368 875 456 790 618 73 548 792 376 616 65 792
split_gain=830.251 745.614 431.899 395.772 194.895 175.192 164.094 149.716 134.061 157.15 132.539 125.901 98.8077 90.0208 86.1877 84.4829 78.0314 58.7819 56.3501 53.823 49.7492 48.6449 53.2323 42.6828 43.0778 40.7411 40.157 39.8672 45.5019 35.6275 35.4207 31.9151 23.7046 23.3238 22.877 20.7831 20.8007 18.5973 18.0619 17.9546 16.9002 16.7601 19.2646 15.0823 14.8955 14.7303 14.1197 12.7457 12.4923 12.1565 10.9861 10.5923 10.5865 9.73559 9.4188 9.4131 8.70846 8.10997 7.75873 8.4761 8.0758 7.22075
threshold=1.0000000180025095e-35 1.0000000180025095e-35 1.0000000180025095e-35 1.0000000180025095e-35 1.0000000180025095e-35 1.0000000180025095e-35 1.0000000180025095e-35 1.0000000180025095e-35 1.0000000180025095e-35 1.0000000180025095e-35 1.0000000180025095e-35 1.0000000180025095e-35 1.0000000180025095e-35 1.0000000180025095e-35 1.0000000180025095e-35 1.0000000180025095e-35 1.0000000180025095e-35 1.0000000180025095e-35 1.0000000180025095e-35 1.0000000180025095e-35 1.0000000180025095e-35 1.0000000180025095e-35 1.0000000180025095e-35 1.0000000180025095e-35 1.0000000180025095e-35 1.0000000180025095e-35 1.0000000180025095e-35 1.0000000180025095e-35 1.0000000180025095e-35 1.0000000180025095e-35 1.0000000180025095e-35 1.0000000180025095e-35 1.0000000180025095e-35 1.0000000180025095e-35 1.0000000180025095e-35 1.0000000180025095e-35 1.0000000180025095e-35 1.0000000180025095e-35 1.0000000180025095e-35 1.0000000180025095e-35 1.0000000180025095e-35 1.0000000180025095e-35 1.0000000180025095e-35 1.0000000180025095e-35 1.0000000180025095e-35 1.0000000180025095e-35 1.0000000180025095e-35 1.0000000180025095e-35 1.0000000180025095e-35 1.0000000180025095e-35 1.0000000180025095e-35 1.0000000180025095e-35 1.0000000180025095e-35 1.0000000180025095e-35 1.0000000180025095e-35 1.0000000180025095e-35 1.0000000180025095e-35 1.0000000180025095e-35 1.0000000180025095e-35 1.0000000180025095e-35 1.0000000180025095e-35 1.0000000180025095e-35
decision_type=2 2 2 2 2 2 2 2 2 2 2 2 2 2 2 2 2 2 2 2 2 2 2 2 2 2 2 2 2 2 2 2 2 2 2 2 2 2 2 2 2 2 2 2 2 2 2 2 2 2 2 2 2 2 2 2 2 2 2 2 2 2
left_child=1 2 3 5 8 6 7 10 9 14 11 12 13 15 16 17 18 19 26 20 21 22 23 24 25 29 27 28 33 31 -17 32 34 37 35 36 39 38 43 41 46 42 44 48 49 -23 -11 57 50 51 -3 52 54 -2 56 61 58 -7 59 60 -1 -31
right_child=53 4 -4 -5 -6 47 -8 -9 -10 40 -12 -13 -14 -15 -16 30 -18 -19 -20 -21 -22 45 -24 -25 -26 -27 -28 -29 -30 55 -32 -33 -34 -35 -36 -37 -38 -39 -40 -41 -42 -43 -44 -45 -46 -47 -48 -49 -50 -51 -52 -53 -54 -55 -56 -57 -58 -59 -60 -61 -62 -63
leaf_value=-0.32445252459074703 -0.33991231930224647 -0.31796576332663384 -0.30181004048281512 -0.3004816603322224 -0.29568442052705279 -0.3121293986130258 -0.29015907788476175 -0.28879446519841195 -0.3049582468082519 -0.32611264411971991 -0.29384646501829276 -0.30926622096394712 -0.3369527852120246 -0.29652610108713917 -0.30244567531287392 -0.31971502272760982 -0.28780183693216632 -0.31292215839281329 -0.30027249444969745 -0.3441726580515968 -0.31286812730657454 -0.31831871074593882 -0.33274854838765899 -0.34169513180549266 -0.31730883578363683 -0.33896771423738337 -0.30803069323864651 -0.30997804543630347 -0.30858327467826585 -0.31995812566345627 -0.31092118632733512 -0.31652609439589779 -0.31157114109868284 -0.30487902914549619 -0.3292497906286882 -0.31223459265957176 -0.33283217217265415 -0.30527238032829973 -0.30739689741189091 -0.33680112876146567 -0.31391445629437781 -0.32128705732814927 -0.31553036215435221 -0.32935164293050717 -0.33311290293339307 -0.32956760044263456 -0.31712983356770236 -0.3230072104733856 -0.32750868348379264 -0.31674442381579393 -0.31337685325532877 -0.33356095271430114 -0.33177625681666501 -0.33101326643290907 -0.31499046837403366 -0.32812329860993528 -0.31704206473924418 -0.31881641835239916 -0.32939529391700101 -0.31910810896618147 -0.318270939719421 -0.32413193517140015
leaf_count=20389 1830 4913 1046 806 585 1764 145 121 1454 1187 147 629 461 120 628 3348 103 491 253 116 406 1877 610 121 969 163 734 1056 634 2893 484 501 135 140 846 134 257 114 154 103 143 1823 228 105 180 114 187 119 118 193 534 116 176 121 100 157 150 185 282 284 197 441
internal_value=0 0.0445753 -0.0819512 -0.113394 0.469761 -0.140392 -0.170182 -0.178026 0.4161 0.339711 -0.184893 -0.192039 -0.206589 -0.195399 0.436519 -0.200889 0.385109 -0.232625 0.364487 -0.242685 -0.237964 -0.246522 -0.265961 -0.25424 -0.24951 -0.263201 0.336454 0.29366 0.2361 -0.257637 0.0844301 -0.283348 -0.29326 0.182235 -0.297749 -0.286491 -0.290846 0.162967 0.147107 -0.284764 -0.265647 -0.28116 -0.296429 0.128516 -0.302481 0.0605316 -0.334621 0.434481 0.142866 -0.297709 0.156992 -0.302211 -0.29893 -1.29931 -0.294861 -0.0654548 -0.297772 0.473776 -0.301221 -0.296712 -0.301507 -0.0426293
internal_count=58820 56869 43827 42781 13042 41975 39907 39762 12457 11003 39641 39494 38865 38404 9486 38284 8858 34452 8755 33961 33845 33439 31448 30838 30717 29748 8502 7768 6712 29585 3832 26094 25593 6078 25458 24612 24478 5938 5824 24221 1517 24118 22295 5670 22067 1991 1374 2068 5565 21887 5447 21694 21578 1951 21402 3491 21302 1949 21152 20870 20586 3334
shrinkage=1


Tree=1
num_leaves=63
num_cat=0
split_feature=394 40 757 846 969 188 141 91 652 227 645 118 52 371 887 786 816 405 487 104 571 920 544 178 796 203 580 276 660 105 49 456 289 154 91 333 334 4 618 18 616 60 273 908 787 272 100 566 591 804 588 667 780 703 179 256 901 901 103 588 593 901
split_gain=808.043 458.88 290.853 224.16 213.097 199.999 183.855 145.58 136.037 116.913 113.057 109.235 109.884 96.8484 89.7743 87.9366 72.0055 69.7539 77.3642 69.2769 68.1191 65.6566 66.2992 65.2878 54.6897 50.7175 51.5455 51.07 44.1538 43.535 40.1292 48.8707 35.5951 34.5027 34.3843 30.9464 29.0093 28.2419 25.0039 26.5186 28.7632 23.0578 20.2671 18.7612 18.7812 18.4286 15.9827 15.8496 15.5639 15.6084 13.448 13.4179 13.2205 13.9328 12.4628 12.4431 11.2158 10.6081 10.5053 10.0098 9.97674 9.83555
threshold=1.0000000180025095e-35 1.0000000180025095e-35 1.0000000180025095e-35 1.0000000180025095e-35 1.0000000180025095e-35 1.0000000180025095e-35 1.0000000180025095e-35 1.0000000180025095e-35 1.0000000180025095e-35 1.0000000180025095e-35 1.0000000180025095e-35 1.0000000180025095e-35 1.0000000180025095e-35 1.0000000180025095e-35 1.0000000180025095e-35 1.0000000180025095e-35 1.0000000180025095e-35 1.0000000180025095e-35 1.0000000180025095e-35 1.0000000180025095e-35 1.0000000180025095e-35 1.0000000180025095e-35 1.0000000180025095e-35 1.0000000180025095e-35 1.0000000180025095e-35 1.0000000180025095e-35 1.0000000180025095e-35 1.0000000180025095e-35 1.0000000180025095e-35 1.0000000180025095e-35 1.0000000180025095e-35 1.0000000180025095e-35 1.0000000180025095e-35 1.0000000180025095e-35 1.0000000180025095e-35 1.0000000180025095e-35 1.0000000180025095e-35 1.0000000180025095e-35 1.0000000180025095e-35 1.0000000180025095e-35 1.0000000180025095e-35 1.0000000180025095e-35 1.0000000180025095e-35 1.0000000180025095e-35 1.0000000180025095e-35 1.0000000180025095e-35 1.0000000180025095e-35 1.0000000180025095e-35 1.0000000180025095e-35 1.0000000180025095e-35 1.0000000180025095e-35 1.0000000180025095e-35 1.0000000180025095e-35 1.0000000180025095e-35 1.0000000180025095e-35 1.0000000180025095e-35 1.0000000180025095e-35 1.0000000180025095e-35 1.0000000180025095e-35 1.0000000180025095e-35 1.0000000180025095e-35 1.0000000180025095e-35
decision_type=2 2 2 2 2 2 2 2 2 2 2 2 2 2 2 2 2 2 2 2 2 2 2 2 2 2 2 2 2 2 2 2 2 2 2 2 2 2 2 2 2 2 2 2 2 2 2 2 2 2 2 2 2 2 2 2 2 2 2 2 2 2
left_child=1 2 3 4 5 6 7 8 9 10 11 12 13 14 15 16 17 18 19 20 21 22 23 24 25 26 27 28 29 30 31 32 33 35 -3 36 37 38 39 40 41 42 43 44 45 46 47 48 49 51 57 52 53 54 55 58 -22 -9 60 -39 -1 -32
right_child=-2 34 -4 -5 -6 -7 -8 50 -10 -11 -12 -13 -14 -15 -16 -17 -18 -19 -20 -21 56 -23 -24 -25 -26 -27 -28 -29 -30 -31 61 -33 -34 -35 -36 -37 -38 59 -40 -41 -42 -43 -44 -45 -46 -47 -48 -49 -50 -51 -52 -53 -54 -55 -56 -57 -58 -59 -60 -61 -62 -63
leaf_value=-0.0025884330592613569 -0.019258984053415008 0.013153678133286112 0.020304036374868481 0.0075059623082930852 0.023185437725518575 0.029669537027846485 0.017460627476745892 0.014555072425835038 0.0065368843866125716 -0.015406953249408809 -0.014689848561461237 0.027143736248408972 0.016221982799437804 -0.023243789660300287 0.013224106753020482 0.023575721843763393 0.020406585800743688 0.006085386206193942 0.0066840329809276962 0.0094504486754993268 0.010649634361093004 0.01762636397452463 0.02132928991421805 -0.007181316946855032 -0.016021476129147918 -0.016073102034792851 0.014992688808471844 0.016234039301847036 -0.016352913329433959 0.015283136078258529 0.0038652996766551681 -0.013178637801999894 -0.012225628231618661 -0.018749859291213599 0.027649130388208015 0.0071157377009769332 -0.017317795525212506 -0.0091740937993009929 0.0088075091830965811 0.0040028110008777503 0.0045089016300156378 0.0048962375839901855 0.0091592425842983629 -0.013773474437269794 -0.0093372277927023968 0.0073411160060871854 0.0085684303701994268 0.0063192844979333557 0.0089839815974496369 -0.0078771662501571083 0.0041972050860085127 0.003951257406911322 0.0077169151429223627 -0.0097227794910762621 0.0022948901520880513 0.0053592906368285231 0.0013543722478616248 0.0064618303765958968 0.0042683041812646714 0.0001011062705035055 0.0057825090356157186 0.013538337275029585
leaf_count=29345 1951 2049 650 3325 344 198 497 551 1942 566 592 124 324 189 382 128 136 1035 949 475 424 151 108 2578 262 238 164 140 201 133 374 374 320 114 163 341 115 670 200 674 600 417 142 132 346 185 125 195 111 475 247 311 119 240 519 187 167 205 210 128 132 131
internal_value=0 0.0438972 0.00728468 -0.00893233 -0.0423676 -0.053231 -0.061257 -0.073536 -0.0892941 -0.11115 -0.0999341 -0.0884988 -0.0936843 -0.102133 -0.0960438 -0.104435 -0.10927 -0.113799 -0.126248 -0.139092 -0.147836 -0.157631 -0.162537 -0.166719 -0.145751 -0.13941 -0.133551 -0.138481 -0.143034 -0.137941 -0.142074 -0.149874 -0.142381 -0.136407 0.948125 -0.132879 -0.138701 -0.135407 -0.126738 -0.130884 -0.138822 -0.146771 -0.152796 -0.15612 -0.153024 -0.147973 -0.151663 -0.154501 -0.158048 -0.160714 0.690053 -0.155141 -0.159376 -0.161994 -0.158155 -0.163563 0.534882 0.824055 -0.166845 -0.512358 -0.170062 0.424974
internal_count=58820 56869 54657 54007 50682 50338 50140 49643 48640 46698 46132 45540 45416 45092 44903 44521 44393 44257 43222 42273 41798 41207 41056 40948 38370 38108 37870 37706 37566 37365 37232 36727 36353 36033 2212 35919 35578 35463 34665 34465 33791 33191 32774 32632 32500 32154 31969 31844 31649 31538 1003 31063 30752 30633 30393 29874 591 756 29687 798 29477 505
shrinkage=0.015


Tree=2
num_leaves=63
num_cat=0
split_feature=8 550 81 528 158 338 34 652 131 39 797 118 584 920 749 82 276 796 10 969 420 92 261 273 706 852 637 396 557 65 694 373 903 333 405 665 618 494 949 859 567 859 971 702 738 827 702 444 567 426 963 596 859 859 567 426 15 426 859 376 426 23
split_gain=618.478 398.027 369.504 338.762 252.536 241.379 171.944 171.122 158.357 123.994 121.346 119.224 114.11 101.75 96.8772 92.6614 83.902 78.171 74.5431 71.6641 71.7133 67.0818 61.4083 58.2145 57.2403 56.4241 54.8878 53.5623 50.4488 44.7263 43.8574 40.5388 42.027 43.985 41.7852 33.1494 33.037 33.0421 31.1 28.4636 39.8879 28.2619 26.1184 26.2708 22.4387 22.0527 21.5411 20.1791 19.6034 14.8088 14.5421 14.5157 13.9508 13.9353 12.9539 40.284 15.4456 11.0374 10.9261 10.8234 10.6102 10.5614
threshold=1.0000000180025095e-35 1.0000000180025095e-35 1.0000000180025095e-35 1.0000000180025095e-35 1.0000000180025095e-35 1.0000000180025095e-35 1.0000000180025095e-35 1.0000000180025095e-35 1.0000000180025095e-35 1.0000000180025095e-35 1.0000000180025095e-35 1.0000000180025095e-35 1.0000000180025095e-35 1.0000000180025095e-35 1.0000000180025095e-35 1.0000000180025095e-35 1.0000000180025095e-35 1.0000000180025095e-35 1.0000000180025095e-35 1.0000000180025095e-35 1.0000000180025095e-35 1.0000000180025095e-35 1.0000000180025095e-35 1.0000000180025095e-35 1.0000000180025095e-35 1.0000000180025095e-35 1.0000000180025095e-35 1.0000000180025095e-35 1.0000000180025095e-35 1.0000000180025095e-35 1.0000000180025095e-35 1.0000000180025095e-35 1.0000000180025095e-35 1.0000000180025095e-35 1.0000000180025095e-35 1.0000000180025095e-35 1.0000000180025095e-35 1.0000000180025095e-35 1.0000000180025095e-35 1.0000000180025095e-35 1.0000000180025095e-35 1.0000000180025095e-35 1.0000000180025095e-35 1.0000000180025095e-35 1.0000000180025095e-35 1.0000000180025095e-35 1.0000000180025095e-35 1.0000000180025095e-35 1.0000000180025095e-35 1.0000000180025095e-35 1.0000000180025095e-35 1.0000000180025095e-35 1.0000000180025095e-35 1.0000000180025095e-35 1.0000000180025095e-35 1.0000000180025095e-35 1.0000000180025095e-35 1.0000000180025095e-35 1.0000000180025095e-35 1.0000000180025095e-35 1.0000000180025095e-35 1.0000000180025095e-35
decision_type=2 2 2 2 2 2 2 2 2 2 2 2 2 2 2 2 2 2 2 2 2 2 2 2 2 2 2 2 2 2 2 2 2 2 2 2 2 2 2 2 2 2 2 2 2 2 2 2 2 2 2 2 2 2 2 2 2 2 2 2 2 2
left_child=1 2 3 4 5 6 7 8 9 10 11 12 13 14 15 16 17 18 19 20 21 22 23 24 25 26 27 28 29 30 31 32 33 34 35 36 37 38 42 40 -22 49 43 44 45 50 -2 48 -9 -5 51 54 -36 -34 56 -56 59 -41 -48 61 -44 -1
right_child=46 -3 -4 41 -6 -7 -8 47 -10 -11 -12 -13 -14 -15 -16 -17 -18 -19 -20 -21 39 -23 -24 -25 -26 -27 -28 -29 -30 -31 -32 -33 53 -35 52 -37 -38 -39 -40 57 -42 -43 60 -45 -46 -47 58 -49 -50 -51 -52 -53 -54 -55 55 -57 -58 -59 -60 -61 -62 -63
leaf_value=-0.0047918650159078568 0.021201058758701773 0.026565968069378738 0.015210442248708817 0.011304742893656699 0.034841446240559897 0.032215655629148486 0.021976361951524775 0.0047264439523749951 0.0063348485546863139 0.02461897083078262 -0.02498657939666277 0.025923219979607476 0.024546992414145707 0.020179086451695145 -0.017784330949304268 -0.021711734611396888 0.016552195245641461 -0.016903235953044857 -0.025674529290683912 0.016416518490134771 0.0017132940470931766 0.010215003190536117 -0.019655393903388087 0.011703105905661553 0.012082308352785988 -0.025031993041559227 -0.022234409000820493 0.0035783875385489369 0.015710852045337852 0.0055616124047085744 0.0040854477228950015 0.004873248458376017 0.0023220526679802339 0.0074074960850444493 0.0057286864275155561 0.0079372231506129251 0.0079644588617648979 0.011604446643329635 -0.016893905935188497 -0.0015686627882670813 0.017021451415660006 0.0027120113035970532 0.0015239351391667039 -0.00028593245426225902 -0.015999744977883697 -0.015272080805725251 0.015881603993707857 0.017434936799799915 0.017948286309514276 0.0037723387362518981 -0.01424222576195262 0.0026061636846553163 -0.0064684281996622364 -0.0045107555309188696 0.0038076791944500203 -0.010183286550541307 0.0019541414650612386 -0.0089964212093145771 0.0048925499155976857 -0.0097454098316653495 -0.0082822892122281812 0.0037259423776965801
leaf_count=29130 1067 496 1306 2076 174 191 276 1992 1830 152 228 133 140 175 406 240 206 364 131 180 2904 344 210 241 223 111 141 1042 127 500 676 500 1312 306 513 203 199 118 186 940 166 537 888 1266 163 181 403 137 109 272 145 257 104 349 560 288 314 230 105 407 115 135
internal_value=0 -0.0345235 -0.0503265 -0.0754316 -0.112573 -0.120671 -0.129008 -0.137491 -0.162205 -0.184591 -0.190417 -0.183338 -0.188732 -0.194154 -0.199903 -0.191322 -0.184826 -0.190591 -0.183167 -0.178796 -0.183855 -0.209651 -0.217146 -0.211509 -0.21743 -0.223108 -0.219126 -0.21468 -0.226814 -0.230988 -0.238849 -0.248042 -0.25576 -0.270514 -0.277174 -0.286517 -0.291346 -0.296148 -0.299861 0.0670075 0.169442 0.599707 -0.295321 -0.305162 -0.316642 -0.312752 1.2502 0.409906 0.360825 0.695478 -0.308665 -0.305682 0.244911 0.0591498 -0.309681 -0.0627059 -0.316666 -0.201913 0.90742 -0.321398 0.0266225 -0.316836
internal_count=58820 57245 56749 55443 52558 52384 52193 51917 49679 47849 47697 47469 47336 47196 47021 46615 46375 46169 45805 45674 45494 41254 40910 40700 40459 40236 40125 39984 38942 38815 38315 37639 37139 35478 35172 34555 34352 34153 34035 4240 3070 2885 33849 32846 31580 31417 1575 2238 2101 2348 31236 31091 617 1661 30834 848 29986 1170 508 29672 1003 29265
shrinkage=0.015


Tree=3
num_leaves=63
num_cat=0
split_feature=394 340 538 81 818 877 808 91 188 131 227 368 816 953 487 39 749 690 82 548 159 178 776 328 152 339 706 454 49 567 711 296 664 104 373 431 333 7 92 854 588 290 369 245 146 149 719 588 6 711 832 109 358 245 901 901 901 901 399 567 901 170
split_gain=780.657 401.269 404.316 307.624 251.7 220.992 219.548 176.448 149.386 146.807 133.424 126.302 126.8 107.663 98.5032 99.2594 94.8911 95.0371 81.6179 71.877 70.7861 63.2538 62.2732 60.9932 63.1743 50.5379 48.2197 47.1834 43.6086 45.7573 38.1801 37.3274 34.7203 34.1537 32.3974 31.2138 33.3068 29.3648 28.3682 24.893 24.3178 21.5608 21.5367 28.2764 20.6444 20.812 20.242 20.427 20.3362 19.0231 17.4631 16.7366 16.5804 15.9467 14.2396 14.1573 13.9152 12.4903 12.1014 11.6956 11.0138 10.9672
threshold=1.0000000180025095e-35 1.0000000180025095e-35 1.0000000180025095e-35 1.0000000180025095e-35 1.0000000180025095e-35 1.0000000180025095e-35 1.0000000180025095e-35 1.0000000180025095e-35 1.0000000180025095e-35 1.0000000180025095e-35 1.0000000180025095e-35 1.0000000180025095e-35 1.0000000180025095e-35 1.0000000180025095e-35 1.0000000180025095e-35 1.0000000180025095e-35 1.0000000180025095e-35 1.0000000180025095e-35 1.0000000180025095e-35 1.0000000180025095e-35 1.0000000180025095e-35 1.0000000180025095e-35 1.0000000180025095e-35 1.0000000180025095e-35 1.0000000180025095e-35 1.0000000180025095e-35 1.0000000180025095e-35 1.0000000180025095e-35 1.0000000180025095e-35 1.0000000180025095e-35 1.0000000180025095e-35 1.0000000180025095e-35 1.0000000180025095e-35 1.0000000180025095e-35 1.0000000180025095e-35 1.0000000180025095e-35 1.0000000180025095e-35 1.0000000180025095e-35 1.0000000180025095e-35 1.0000000180025095e-35 1.0000000180025095e-35 1.0000000180025095e-35 1.0000000180025095e-35 1.0000000180025095e-35 1.0000000180025095e-35 1.0000000180025095e-35 1.0000000180025095e-35 1.0000000180025095e-35 1.0000000180025095e-35 1.0000000180025095e-35 1.0000000180025095e-35 1.0000000180025095e-35 1.0000000180025095e-35 1.0000000180025095e-35 1.0000000180025095e-35 1.0000000180025095e-35 1.0000000180025095e-35 1.0000000180025095e-35 1.0000000180025095e-35 1.0000000180025095e-35 1.0000000180025095e-35 1.0000000180025095e-35
decision_type=2 2 2 2 2 2 2 2 2 2 2 2 2 2 2 2 2 2 2 2 2 2 2 2 2 2 2 2 2 2 2 2 2 2 2 2 2 2 2 2 2 2 2 2 2 2 2 2 2 2 2 2 2 2 2 2 2 2 2 2 2 2
left_child=1 2 3 4 5 6 7 8 9 10 11 12 13 14 15 16 17 18 19 20 21 22 23 24 25 26 27 28 29 31 -23 32 33 34 35 36 37 38 39 41 -36 42 43 44 45 46 47 48 50 -31 52 -11 58 59 -49 -45 -9 -30 61 -13 -44 -1
right_child=-2 -3 -4 -5 -6 -7 -8 56 -10 51 -12 53 -14 -15 -16 -17 -18 -19 -20 -21 -22 30 -24 -25 -26 -27 -28 -29 57 49 -32 -33 -34 -35 40 -37 -38 -39 -40 -41 -42 -43 60 55 -46 -47 -48 54 -50 -51 -52 -53 -54 -55 -56 -57 -58 -59 -60 -61 -62 -63
leaf_value=-0.0029848115233080518 -0.018972167488516805 0.01714303968874736 0.020109458495619705 0.01486610964903577 0.028168674470170317 0.020310186050482813 0.019190811546334705 0.013250118639569229 0.026413199111481465 0.0076253201337935965 -0.016271449074361274 0.0038565072349037027 0.023770060345642066 -0.018242690680542864 0.0071911794770134988 0.024346329570492504 -0.017089979356796594 0.017870909998390611 -0.020064544409518072 0.010968774467540986 0.014199480614447679 -0.0077649474733989402 0.022077476957507572 -0.0094593056294890645 -0.018349489200906899 -0.014709285640879234 0.013263020291850697 0.015033250253375312 0.0036579571767090167 0.0015450262482220216 0.0047589222972978691 0.0065304727551014231 0.010647626880847723 0.0070110103869985901 0.0089691584088044223 -0.018020183618472692 0.0069281016707690192 -0.01502230448965838 0.0074443388169464376 -0.016009205791916004 -0.005963682385793226 0.0077851300067192514 -0.00031844944971250839 0.0022191809900504776 0.0076811415307482022 -0.011427107311316369 -0.0082876320244143313 0.0010170669868210674 0.0092555091389964293 0.0099184006268547807 -0.015162450966139296 -0.0051341506654907099 0.0081998756215029417 0.013203852994589977 -0.0035108133633395175 -0.0037694971259645631 0.0058813810186872728 0.013445537466406325 -0.013421936467984017 0.011226721278504938 0.005968697953023328 -0.011199087050603657
leaf_count=25497 1951 1324 927 1237 281 462 503 771 179 1800 572 1854 177 371 1099 131 387 222 232 393 245 2498 100 969 211 272 201 156 388 872 247 464 195 367 394 118 352 171 268 125 135 190 1045 1564 170 264 621 2088 124 351 110 100 121 222 925 475 340 174 104 222 341 151
internal_value=0 0.0430422 0.0167219 -0.00583675 -0.0290188 -0.0391654 -0.0514242 -0.0642858 -0.0817044 -0.0882256 -0.1097 -0.0982249 -0.121365 -0.127986 -0.119138 -0.133976 -0.139195 -0.130403 -0.137124 -0.130737 -0.138613 -0.144831 -0.124456 -0.128452 -0.11598 -0.109976 -0.103834 -0.109034 -0.113582 -0.121963 -0.442464 -0.134927 -0.142313 -0.14697 -0.153359 -0.160925 -0.157388 -0.16375 -0.159561 -0.164756 0.343855 -0.161417 -0.165267 -0.175911 -0.191522 -0.195514 -0.190485 -0.182766 -0.201007 0.263339 -0.204917 0.4636 -0.201493 0.364885 -0.0248737 0.05493 0.733085 0.446079 -0.20501 0.309717 0.0819691 -0.202213
internal_count=58820 56869 55545 54618 53381 53100 52638 52135 51024 50845 48945 48373 46075 45898 45527 44428 44297 43910 43688 43456 43063 42818 40073 39973 39004 38793 38521 38320 38164 37602 2745 36379 35915 35720 35353 34824 34706 34354 34183 33915 529 33790 33600 32214 30175 30005 29741 29120 26107 1223 25983 1900 25873 2298 3013 2039 1111 562 25752 2076 1386 25648
shrinkage=0.015


Tree=4
num_leaves=63
num_cat=0
split_feature=177 550 528 283 877 188 316 846 770 645 39 48 439 368 131 947 634 450 218 884 264 104 280 852 49 309 396 405 712 373 616 166 903 105 289 658 249 28 566 381 369 971 273 697 770 838 886 277 873 131 787 185 651 426 595 548 100 981 651 120 358 135
split_gain=547.358 408.555 316.717 287.852 232.198 192.153 178.75 176.965 151.073 132.326 108.738 105.498 104.442 103.668 95.7867 83.1291 80.5716 77.6438 76.0992 76.0066 71.446 64.9694 60.3312 59.1027 54.0867 55.7472 53.4582 46.3962 45.3795 44.4252 41.6407 39.9804 39.9938 39.9766 34.9054 33.6772 31.9686 29.8583 27.8724 26.2467 25.5824 24.6507 24.1255 22.4194 21.9753 21.8823 21.7326 21.9256 16.066 15.9816 15.8598 15.8707 14.9681 13.4826 12.1303 11.9252 11.7301 11.6596 10.7504 10.5142 11.1883 9.16633
threshold=1.0000000180025095e-35 1.0000000180025095e-35 1.0000000180025095e-35 1.0000000180025095e-35 1.0000000180025095e-35 1.0000000180025095e-35 1.0000000180025095e-35 1.0000000180025095e-35 1.0000000180025095e-35 1.0000000180025095e-35 1.0000000180025095e-35 1.0000000180025095e-35 1.0000000180025095e-35 1.0000000180025095e-35 1.0000000180025095e-35 1.0000000180025095e-35 1.0000000180025095e-35 1.0000000180025095e-35 1.0000000180025095e-35 1.0000000180025095e-35 1.0000000180025095e-35 1.0000000180025095e-35 1.0000000180025095e-35 1.0000000180025095e-35 1.0000000180025095e-35 1.0000000180025095e-35 1.0000000180025095e-35 1.0000000180025095e-35 1.0000000180025095e-35 1.0000000180025095e-35 1.0000000180025095e-35 1.0000000180025095e-35 1.0000000180025095e-35 1.0000000180025095e-35 1.0000000180025095e-35 1.0000000180025095e-35 1.0000000180025095e-35 1.0000000180025095e-35 1.0000000180025095e-35 1.0000000180025095e-35 1.0000000180025095e-35 1.0000000180025095e-35 1.0000000180025095e-35 1.0000000180025095e-35 1.0000000180025095e-35 1.0000000180025095e-35 1.0000000180025095e-35 1.0000000180025095e-35 1.0000000180025095e-35 1.0000000180025095e-35 1.0000000180025095e-35 1.0000000180025095e-35 1.0000000180025095e-35 1.0000000180025095e-35 1.0000000180025095e-35 1.0000000180025095e-35 1.0000000180025095e-35 1.0000000180025095e-35 1.0000000180025095e-35 1.0000000180025095e-35 1.0000000180025095e-35 1.0000000180025095e-35
decision_type=2 2 2 2 2 2 2 2 2 2 2 2 2 2 2 2 2 2 2 2 2 2 2 2 2 2 2 2 2 2 2 2 2 2 2 2 2 2 2 2 2 2 2 2 2 2 2 2 2 2 2 2 2 2 2 2 2 2 2 2 2 2
left_child=1 2 3 4 5 6 7 8 9 10 11 12 13 14 15 16 17 18 19 20 21 22 23 24 25 27 -10 28 29 30 31 32 33 34 35 36 37 38 41 53 -27 42 43 45 49 46 47 48 50 -9 51 54 -18 61 55 56 57 58 59 60 -1 -4
right_child=-2 -3 39 -5 -6 -7 -8 44 26 -11 -12 -13 -14 -15 -16 -17 52 -19 -20 -21 -22 -23 -24 -25 -26 40 -28 -29 -30 -31 -32 -33 -34 -35 -36 -37 -38 -39 -40 -41 -42 -43 -44 -45 -46 -47 -48 -49 -50 -51 -52 -53 -54 -55 -56 -57 -58 -59 -60 -61 -62 -63
leaf_value=-0.0044255506916162342 0.032121057899253971 0.02621164564925816 0.010071765088243922 0.020134548284788827 0.020006315685459412 0.028522237596461372 0.028486147874783232 0.0042149408454840061 0.0045837922252427027 -0.015716002742514921 0.023197302111699038 0.026359360443921138 0.024098813890406294 0.0039689548628976199 0.0049447820331761996 0.012196965270588637 -0.0089590153073303355 -0.025547721721366268 0.018691314612576313 0.016122864716431106 -0.017371357372162267 0.0085956711410514874 0.0094624905819157227 -0.02425167531188524 0.0061811720390278577 0.0012517292227598356 0.019016484679525759 0.0039616241207288769 0.0084523011441010321 0.0051662313752020945 0.0036931857089828827 -0.01808412032715799 0.0007231065414753453 0.015140562816556421 -0.014821313018540836 -0.014082207208358634 -0.018744802622460689 0.0067200041375743147 0.0068749707442739127 -0.0039966583136102438 0.012871564758415307 0.00092987416704927005 0.0085240101314717192 -0.011767015373814449 0.01797935858138636 0.005888978218040717 0.0049209606520915859 0.0016498884823718254 -0.013231933590773714 0.01263726377156647 -0.011209370539301246 0.0074606514090407644 -0.016993684048188032 0.0043789724932836484 -0.013499060497788025 0.0028693221790145355 0.0060097050080685473 0.0029508464719703621 -0.00029071670645211892 -0.010019705672251368 0.0034572067422608465 0.019220654656213684
leaf_count=28831 484 530 2402 585 467 195 182 2753 1161 681 154 118 137 2220 1442 329 975 140 151 193 317 450 355 123 577 910 297 779 290 524 683 183 1717 100 278 304 134 245 219 136 216 912 138 357 122 201 241 574 187 224 304 107 275 388 131 217 102 203 589 309 167 105
internal_value=0 -0.0178584 -0.0341403 -0.0694895 -0.0847702 -0.0971708 -0.104518 -0.111361 -0.140386 -0.159609 -0.147069 -0.152549 -0.15728 -0.162363 -0.183266 -0.200131 -0.207784 -0.192855 -0.187881 -0.193032 -0.198872 -0.191583 -0.199961 -0.2072 -0.202984 -0.211853 0.501862 -0.224698 -0.23469 -0.240797 -0.249014 -0.258244 -0.253525 -0.268419 -0.272108 -0.266343 -0.260373 -0.256487 -0.261604 0.602 0.232208 -0.266313 -0.275504 -0.279102 0.357868 -0.273495 -0.277693 -0.282306 -0.289547 0.323337 -0.28597 -0.281406 -0.714988 0.642762 -0.284138 -0.281488 -0.284896 -0.287225 -0.290514 -0.295965 -0.292002 0.697026
internal_count=58820 58336 57806 54775 54190 53723 53528 53346 50247 48789 48108 47954 47836 47699 45479 44037 43708 42458 42318 42167 41974 41657 41207 40852 40729 40152 1458 39026 38247 37957 37433 36750 36567 34850 34750 34472 34168 34034 33789 3031 1126 33570 32658 32520 3099 32163 31962 31721 31147 2977 30960 30656 1250 2895 30549 30418 30201 30099 29896 29307 28998 2507
shrinkage=0.015


Tree=5
num_leaves=63
num_cat=0
split_feature=177 81 576 818 621 131 571 212 816 245 417 859 178 698 371 487 947 713 790 248 610 610 328 94 621 796 860 903 185 493 859 616 249 665 328 212 277 427 712 859 738 328 884 744 859 713 859 15 309 713 309 378 328 859 601 859 277 859 744 859 21 245
split_gain=528.686 350.953 281.226 236.762 180.913 175.249 154.514 138.971 112.659 111.366 104.198 96.1965 90.5016 89.051 84.1909 82.4908 60.2132 57.2396 57.3554 54.8278 52.0259 46.8251 45.1796 44.8891 42.4893 40.0727 39.3507 43.2369 31.7898 31.6028 30.8122 29.7426 33.7024 27.6078 28.2586 26.0683 24.9112 24.2736 23.4381 22.5272 21.297 20.9237 17.8477 17.8365 18.2516 17.4909 17.292 16.8865 17.1925 16.1564 16.0836 13.5967 13.1985 12.331 12.9864 12.0019 10.9968 10.2099 10.0087 9.60547 9.43142 8.82392
threshold=1.0000000180025095e-35 1.0000000180025095e-35 1.0000000180025095e-35 1.0000000180025095e-35 1.0000000180025095e-35 1.0000000180025095e-35 1.0000000180025095e-35 1.0000000180025095e-35 1.0000000180025095e-35 1.0000000180025095e-35 1.0000000180025095e-35 1.0000000180025095e-35 1.0000000180025095e-35 1.0000000180025095e-35 1.0000000180025095e-35 1.0000000180025095e-35 1.0000000180025095e-35 1.0000000180025095e-35 1.0000000180025095e-35 1.0000000180025095e-35 1.0000000180025095e-35 1.0000000180025095e-35 1.0000000180025095e-35 1.0000000180025095e-35 1.0000000180025095e-35 1.0000000180025095e-35 1.0000000180025095e-35 1.0000000180025095e-35 1.0000000180025095e-35 1.0000000180025095e-35 1.0000000180025095e-35 1.0000000180025095e-35 1.0000000180025095e-35 1.0000000180025095e-35 1.0000000180025095e-35 1.0000000180025095e-35 1.0000000180025095e-35 1.0000000180025095e-35 1.0000000180025095e-35 1.0000000180025095e-35 1.0000000180025095e-35 1.0000000180025095e-35 1.0000000180025095e-35 1.0000000180025095e-35 1.0000000180025095e-35 1.0000000180025095e-35 1.0000000180025095e-35 1.0000000180025095e-35 1.0000000180025095e-35 1.0000000180025095e-35 1.0000000180025095e-35 1.0000000180025095e-35 1.0000000180025095e-35 1.0000000180025095e-35 1.0000000180025095e-35 1.0000000180025095e-35 1.0000000180025095e-35 1.0000000180025095e-35 1.0000000180025095e-35 1.0000000180025095e-35 1.0000000180025095e-35 1.0000000180025095e-35
decision_type=2 2 2 2 2 2 2 2 2 2 2 2 2 2 2 2 2 2 2 2 2 2 2 2 2 2 2 2 2 2 2 2 2 2 2 2 2 2 2 2 2 2 2 2 2 2 2 2 2 2 2 2 2 2 2 2 2 2 2 2 2 2
left_child=1 2 3 4 5 6 7 8 9 10 12 -11 13 14 15 16 17 18 19 21 22 23 24 25 35 26 27 28 29 31 -25 32 33 34 37 39 -3 38 40 58 42 49 43 44 47 52 -8 48 56 50 55 53 59 54 -20 -9 60 -19 -4 -6 -1 -7
right_child=-2 36 20 -5 45 61 46 41 -10 11 -12 -13 -14 -15 -16 -17 -18 57 51 -21 -22 -23 -24 30 -26 -27 -28 -29 -30 -31 -32 -33 -34 -35 -36 -37 -38 -39 -40 -41 -42 -43 -44 -45 -46 -47 -48 -49 -50 -51 -52 -53 -54 -55 -56 -57 -58 -59 -60 -61 -62 -63
leaf_value=-0.0039508948253445331 0.031497471303318182 0.016376549462079268 0.0068192858196984268 0.027841871712875083 -0.0056638734229478953 0.0077278142736627066 0.014319536434868331 0.005018167925533965 0.02390910412472029 0.0068411715305131621 0.022819316483076824 -0.0077338561971945236 -0.0082619127664375954 0.026155104542206539 -0.023354877478974804 0.0077990786658652701 0.013113298465981246 -0.0058585359268046831 0.0057182640404793645 0.013674587548664355 0.02626274654062349 0.011811345842839351 -0.013245761297111476 0.0051746946235410483 -0.0027738435069204082 -0.016060919699450178 -0.0092516589111080669 0.0030363099257452964 0.012992583128884483 0.011084291588163165 -0.011572801378788545 0.0051801138533608066 -0.019965872212444228 0.012685373492504733 -0.010268985619440575 0.012198048936438246 0.0027455580681313586 0.01124198888678065 0.0090133868664364035 0.0005327659291545281 -0.014903292075474982 -0.0089864165772152102 0.0093039775155125785 0.0028635786984833145 -0.00097968024207133685 -0.013676296752466 0.0020455338623305355 0.0054692818792655314 0.0023399671141432822 -0.00056804648072869026 0.01331157360687563 -0.0078641568763539102 -0.017431601767209627 -0.0026140973712776528 -0.0037241096758352365 0.00066049476548998474 0.0026497870040731977 -0.010342091654432933 0.016578838513697309 -0.009325618615465308 0.001965006967604978 0.014452036002264466
leaf_count=20116 484 1214 2791 254 2069 1535 633 2897 152 2074 148 524 2520 101 177 733 226 2014 1300 191 117 205 112 950 433 216 870 1168 115 146 114 395 111 101 514 785 137 109 146 566 143 121 106 443 2794 441 127 188 429 658 185 100 113 246 150 730 241 613 100 974 252 203
internal_value=0 -0.0175977 -0.0418711 -0.0856146 -0.095228 -0.0625317 -0.0862115 -0.101305 -0.138663 -0.145156 -0.172673 0.260501 -0.179257 -0.153084 -0.158484 -0.15154 -0.165781 -0.172634 -0.14892 -0.169971 0.421261 -0.176901 0.388598 -0.183582 0.418983 -0.198784 -0.19218 -0.178763 -0.195703 -0.200373 0.22549 -0.205644 -0.214149 -0.209321 -0.213526 0.480594 0.999676 -0.203849 -0.208041 0.404961 -0.212832 0.232805 -0.208294 -0.211898 -0.219338 -0.53363 0.818144 -0.239616 -0.245028 0.255268 0.305819 0.202497 -0.480823 0.245191 0.31622 0.276082 -0.253405 -0.460241 0.477184 -0.455618 -0.258506 0.567584
internal_count=58820 58336 56985 52081 51827 48230 46492 45732 41141 40989 38391 2598 38243 35723 35622 35445 34712 34486 31859 30063 4904 29872 4787 29667 4675 28603 28387 27517 26349 26234 1064 26088 25693 25582 25481 4242 1351 24967 24858 3457 24712 4591 24569 24463 24020 3597 760 21226 21038 4470 3812 1796 3156 1696 1450 3627 20609 2627 2891 3043 20368 1738
shrinkage=0.015


Tree=6
num_leaves=63
num_cat=0
split_feature=340 81 283 882 338 818 733 410 621 212 316 571 343 141 131 652 327 664 688 273 860 152 591 166 352 203 593 522 886 566 15 685 963 851 18 756 212 405 405 78 652 652 860 908 73 131 354 16 73 73 452 256 825 851 697 405 832 327 837 665 174 362
split_gain=407.831 315.104 283.195 284.68 276.846 248.755 235.032 207.086 200.817 190.349 180.229 131.228 121.108 111.241 99.8177 85.9985 65.2736 67.4364 57.1022 53.3245 53.1465 50.0802 46.8913 46.4756 44.9616 39.8214 33.0938 32.9005 28.292 26.4016 26.75 24.5069 23.2377 17.7568 17.6723 17.9183 17.172 16.6409 15.5346 15.4487 15.174 14.7935 14.4142 12.7965 11.7756 11.8287 11.3134 10.9413 9.64392 8.8896 8.94641 7.54973 8.1661 7.26332 7.19222 7.07542 7.02395 6.61228 6.45265 6.39811 5.94881 5.75748
threshold=1.0000000180025095e-35 1.0000000180025095e-35 1.0000000180025095e-35 1.0000000180025095e-35 1.0000000180025095e-35 1.0000000180025095e-35 1.0000000180025095e-35 1.0000000180025095e-35 1.0000000180025095e-35 1.0000000180025095e-35 1.0000000180025095e-35 1.0000000180025095e-35 1.0000000180025095e-35 1.0000000180025095e-35 1.0000000180025095e-35 1.0000000180025095e-35 1.0000000180025095e-35 1.0000000180025095e-35 1.0000000180025095e-35 1.0000000180025095e-35 1.0000000180025095e-35 1.0000000180025095e-35 1.0000000180025095e-35 1.0000000180025095e-35 1.0000000180025095e-35 1.0000000180025095e-35 1.0000000180025095e-35 1.0000000180025095e-35 1.0000000180025095e-35 1.0000000180025095e-35 1.0000000180025095e-35 1.0000000180025095e-35 1.0000000180025095e-35 1.0000000180025095e-35 1.0000000180025095e-35 1.0000000180025095e-35 1.0000000180025095e-35 1.0000000180025095e-35 1.0000000180025095e-35 1.0000000180025095e-35 1.0000000180025095e-35 1.0000000180025095e-35 1.0000000180025095e-35 1.0000000180025095e-35 1.0000000180025095e-35 1.0000000180025095e-35 1.0000000180025095e-35 1.0000000180025095e-35 1.0000000180025095e-35 1.0000000180025095e-35 1.0000000180025095e-35 1.0000000180025095e-35 1.0000000180025095e-35 1.0000000180025095e-35 1.0000000180025095e-35 1.0000000180025095e-35 1.0000000180025095e-35 1.0000000180025095e-35 1.0000000180025095e-35 1.0000000180025095e-35 1.0000000180025095e-35 1.0000000180025095e-35
decision_type=2 2 2 2 2 2 2 2 2 2 2 2 2 2 2 2 2 2 2 2 2 2 2 2 2 2 2 2 2 2 2 2 2 2 2 2 2 2 2 2 2 2 2 2 2 2 2 2 2 2 2 2 2 2 2 2 2 2 2 2 2 2
left_child=1 2 3 4 5 6 7 8 9 10 11 12 13 14 15 16 17 18 19 20 21 22 23 24 25 26 27 28 29 30 31 32 34 37 35 38 -2 40 39 43 42 53 44 47 45 59 -18 49 -17 50 51 52 54 57 56 -3 58 -10 60 -11 61 -1
right_child=36 55 -4 -5 -6 -7 -8 -9 41 33 -12 -13 -14 -15 -16 48 46 -19 -20 -21 -22 -23 -24 -25 -26 -27 -28 -29 -30 -31 -32 -33 -34 -35 -36 -37 -38 -39 -40 -41 -42 -43 -44 -45 -46 -47 -48 -49 -50 -51 -52 -53 -54 -55 -56 -57 -58 -59 -60 -61 -62 -63
leaf_value=-0.0035771939980052138 0.018592134518136658 0.01351991835476697 0.019855282343105511 0.02317834840844496 0.032263355105537218 0.026945174811721102 0.027885668540694169 0.028863440413814757 -0.0088940980382287201 0.0038986531340902452 0.030697067040050652 0.011340747589648769 0.010821747294401964 0.014532704541895265 0.005785327732651605 0.0049759453302893964 0.0033796200912542059 0.014079779574779726 0.013415370615820781 0.011319265147361637 -0.0097038400403196296 -0.018086987527858058 0.014803736368818281 -0.020100045189885514 0.015396721148954018 -0.016679393549547342 0.0099021107701278768 -0.013966965098176175 0.0061765368460308953 0.006516909626289041 0.0042253217369012655 0.01155640453479184 -0.014706064676378909 -0.0030927992499257054 0.0024335112919591328 -0.01113946846405593 0.01079739892378795 0.014615963101189747 0.001552480373431406 -0.01394393171882667 0.011228174687265776 -0.0013608078917548517 -0.0058052942544523601 -0.013553794386044002 -0.001773049934236453 0.010089750813588254 -0.004156762361263569 0.0029905126537765072 -0.0046397802685761193 -0.0064154674559885752 9.6005334582249425e-05 0.0026462109899431561 0.00010791849591693205 -0.014422519959927084 -0.0085276796336916979 0.019899898570510523 -0.011316930514970746 -0.0029044561199534379 -0.010957020163617376 0.010664395077899421 0.0011298288098683421 0.0032654318823589061
leaf_count=29045 983 1096 607 446 226 283 250 204 3181 3825 156 673 653 356 1300 1422 1656 205 186 223 1255 213 132 153 119 205 176 265 293 251 423 100 171 292 465 284 352 148 559 132 275 256 137 117 286 331 207 240 103 951 650 183 556 209 273 186 108 180 108 133 253 114
internal_value=0 -0.025844 -0.0485976 -0.0636742 -0.076743 -0.0859967 -0.0958776 -0.104914 -0.11262 -0.0786338 -0.121998 -0.129597 -0.143191 -0.156239 -0.165589 -0.182853 -0.200795 -0.218788 -0.225024 -0.230514 -0.236367 -0.222285 -0.216556 -0.220966 -0.216248 -0.220375 -0.215264 -0.219615 -0.214266 -0.219533 -0.224277 -0.230536 -0.23347 0.279317 -0.22973 -0.235176 1.10261 0.306919 -0.230852 -0.236591 0.287035 -0.560479 0.26003 -0.23379 0.279397 0.305917 0.169508 -0.23138 0.288471 -0.234596 -0.228724 -0.233725 -0.236195 -0.59432 -0.240725 0.963131 -0.237708 -0.571532 -0.235821 0.275109 -0.234004 -0.236693
internal_count=58820 57485 56203 55596 55150 54924 54641 54391 54187 50361 44934 44778 44105 43452 43096 41796 40271 38408 38203 38017 37794 36539 36326 36194 36041 35922 35717 35541 35276 34983 34732 34309 34209 5427 34038 33573 1335 5135 33289 32730 4987 3826 4712 32598 4575 4289 1863 32481 1525 32241 31290 30640 30457 3570 29901 1282 29628 3361 29520 3958 29412 29159
shrinkage=0.015


Tree=7
num_leaves=63
num_cat=0
split_feature=538 81 882 283 576 338 451 877 818 569 770 316 417 34 621 969 698 227 141 786 690 953 371 634 652 740 920 181 52 665 92 339 493 567 105 396 621 738 327 706 713 596 455 901 652 903 405 566 154 244 594 141 651 713 66 380 15 23 901 921 13 713
split_gain=399.908 327.18 308.273 276.67 259.258 234.506 217.644 219.846 198.671 183.38 157.522 156.492 143.268 133.259 126.82 123.781 108.384 104.043 102.628 101.496 98.1202 95.9059 94.2706 89.686 79.795 61.7212 57.1228 57.1577 54.8438 52.7137 49.834 46.0714 44.4243 44.5087 45.4819 44.304 37.8724 37.5265 36.1362 31.1209 30.6296 30.799 30.6408 23.5779 23.5759 23.1936 20.1324 18.5296 17.3342 16.838 16.4982 16.3643 16.3176 14.383 14.3473 15.2562 12.5747 12.809 10.8928 20.483 16.6178 10.6437
threshold=1.0000000180025095e-35 1.0000000180025095e-35 1.0000000180025095e-35 1.0000000180025095e-35 1.0000000180025095e-35 1.0000000180025095e-35 1.0000000180025095e-35 1.0000000180025095e-35 1.0000000180025095e-35 1.0000000180025095e-35 1.0000000180025095e-35 1.0000000180025095e-35 1.0000000180025095e-35 1.0000000180025095e-35 1.0000000180025095e-35 1.0000000180025095e-35 1.0000000180025095e-35 1.0000000180025095e-35 1.0000000180025095e-35 1.0000000180025095e-35 1.0000000180025095e-35 1.0000000180025095e-35 1.0000000180025095e-35 1.0000000180025095e-35 1.0000000180025095e-35 1.0000000180025095e-35 1.0000000180025095e-35 1.0000000180025095e-35 1.0000000180025095e-35 1.0000000180025095e-35 1.0000000180025095e-35 1.0000000180025095e-35 1.0000000180025095e-35 1.0000000180025095e-35 1.0000000180025095e-35 1.0000000180025095e-35 1.0000000180025095e-35 1.0000000180025095e-35 1.0000000180025095e-35 1.0000000180025095e-35 1.0000000180025095e-35 1.0000000180025095e-35 1.0000000180025095e-35 1.0000000180025095e-35 1.0000000180025095e-35 1.0000000180025095e-35 1.0000000180025095e-35 1.0000000180025095e-35 1.0000000180025095e-35 1.0000000180025095e-35 1.0000000180025095e-35 1.0000000180025095e-35 1.0000000180025095e-35 1.0000000180025095e-35 1.0000000180025095e-35 1.0000000180025095e-35 1.0000000180025095e-35 1.0000000180025095e-35 1.0000000180025095e-35 1.0000000180025095e-35 1.0000000180025095e-35 1.0000000180025095e-35
decision_type=2 2 2 2 2 2 2 2 2 2 2 2 2 2 2 2 2 2 2 2 2 2 2 2 2 2 2 2 2 2 2 2 2 2 2 2 2 2 2 2 2 2 2 2 2 2 2 2 2 2 2 2 2 2 2 2 2 2 2 2 2 2
left_child=1 2 3 4 5 6 7 8 9 10 11 12 13 14 15 16 17 18 19 20 21 22 23 24 25 26 27 28 29 30 31 32 33 34 37 43 44 38 39 40 41 42 45 -12 51 46 47 48 49 50 54 -6 -25 -16 55 56 57 58 59 -1 -60 -26
right_child=-2 -3 -4 -5 36 -7 -8 -9 -10 -11 35 -13 -14 -15 53 -17 -18 -19 -20 -21 -22 -23 -24 52 61 -27 -28 -29 -30 -31 -32 -33 -34 -35 -36 -37 -38 -39 -40 -41 -42 -43 -44 -45 -46 -47 -48 -49 -50 -51 -52 -53 -54 -55 -56 -57 -58 -59 60 -61 -62 -63
leaf_value=-0.0038223216006064917 0.019375094034531637 0.014484836637282018 0.0234560781394729 0.019214186931179131 0.0055642117671005388 0.031140775673854027 0.01555114781463973 0.020429951897864961 0.02636299916922754 -0.017526440384965453 0.0073374399275111177 0.027121894471516549 0.024393755249357704 0.020125468261812388 -0.0079027204751658826 0.019529198289835119 0.021173273978559431 -0.016242492179703142 0.014682621938477684 0.024376095516093321 0.019106208945347581 -0.0186706408906969 -0.023175246043433406 -0.0087757907476365363 0.005411740789422987 0.020159957950571739 0.018083360017442509 0.020137250393024799 0.011496090517178894 0.010025752261363858 0.0090046552120541506 -0.015184560364743784 0.0098767611657135015 0.0027845763019389009 0.014772802621753036 0.018617521035741564 -0.002805391133582991 -0.015611316694451198 0.0012855656967862472 0.010060489114675946 -0.0066691154919547024 0.0070591494916430143 0.011901601620448806 -0.003696260970523084 0.014147020762771339 0.00068375937445283542 0.0025782818117591247 0.0057379038331652763 -0.016303679810035259 -0.011156765883920464 -0.015404660864094489 0.017508959300134269 -0.017312806901504354 -0.01417910788437448 -0.0083481599631792264 -0.012551788698625803 0.0027204605391979875 0.0061313577216443897 -0.0023485643186050048 0.0062524513966323841 0.008915479053400694 -0.0033714584660603634
leaf_count=23031 960 1332 481 620 3818 197 652 393 219 732 896 163 180 234 2820 235 177 515 319 128 190 349 207 965 1361 110 122 101 248 291 320 287 248 1182 129 280 439 227 1587 157 2557 267 122 223 345 1257 488 193 101 275 109 108 265 385 561 169 308 128 3604 188 125 140
internal_value=0 -0.0216447 -0.0451582 -0.0590772 -0.0742055 -0.116541 -0.125206 -0.140441 -0.152498 -0.161137 -0.145947 -0.165888 -0.172802 -0.179772 -0.187468 -0.15872 -0.166756 -0.173304 -0.162351 -0.171065 -0.176582 -0.183208 -0.174319 -0.167496 -0.150935 -0.16887 -0.173227 -0.177664 -0.181704 -0.187936 -0.194611 -0.201461 -0.195199 -0.200979 -0.213853 0.523112 0.379569 -0.218237 -0.212946 -0.227069 -0.231306 -0.21367 -0.219655 0.342549 0.43761 -0.223712 -0.23531 -0.242255 -0.246492 -0.243526 -0.238667 0.392966 -0.707392 -0.57704 -0.235617 -0.229076 -0.225329 -0.229973 -0.23302 -0.249373 -0.131343 0.306222
internal_count=58820 57860 56528 56047 55427 50717 50520 49868 49475 49256 48524 47125 46962 46782 46548 43343 43108 42931 42416 42097 41969 41779 41430 41223 39993 38492 38382 38260 38159 37911 37620 37300 37013 36765 35583 1399 4710 35454 35227 33640 33483 30926 30659 1119 4271 30537 29280 28792 28599 28498 28223 3926 1230 3205 28114 27553 27384 27076 26948 23219 3729 1501
shrinkage=0.015


Tree=8
num_leaves=63
num_cat=0
split_feature=177 81 730 283 754 316 343 212 227 953 828 630 796 816 455 264 245 859 786 53 920 487 201 887 181 949 335 206 92 327 688 249 185 594 838 568 851 373 203 567 859 568 981 120 452 386 851 859 396 327 379 593 396 711 503 503 109 859 665 658 859 452
split_gain=503.556 319.069 298.675 258.037 190.926 174.445 176.091 156.565 121.315 116.613 108.613 96.1764 102.555 94.3691 92.6766 93.3429 91.248 162.172 85.0316 79.5376 73.3898 69.9742 67.6104 65.4921 57.7568 54.7546 53.2237 49.8454 47.4353 48.7459 49.7928 48.2887 42.5168 38.5324 37.3733 35.95 32.7743 30.8434 28.51 24.202 35.0717 23.9553 22.5839 21.9466 22.5342 20.3133 20.1741 18.9173 16.9427 15.0747 14.8809 13.7608 13.5447 11.6732 11.0628 10.8881 10.669 10.281 10.1422 9.56915 9.5553 8.61513
threshold=1.0000000180025095e-35 1.0000000180025095e-35 1.0000000180025095e-35 1.0000000180025095e-35 1.0000000180025095e-35 1.0000000180025095e-35 1.0000000180025095e-35 1.0000000180025095e-35 1.0000000180025095e-35 1.0000000180025095e-35 1.0000000180025095e-35 1.0000000180025095e-35 1.0000000180025095e-35 1.0000000180025095e-35 1.0000000180025095e-35 1.0000000180025095e-35 1.0000000180025095e-35 1.0000000180025095e-35 1.0000000180025095e-35 1.0000000180025095e-35 1.0000000180025095e-35 1.0000000180025095e-35 1.0000000180025095e-35 1.0000000180025095e-35 1.0000000180025095e-35 1.0000000180025095e-35 1.0000000180025095e-35 1.0000000180025095e-35 1.0000000180025095e-35 1.0000000180025095e-35 1.0000000180025095e-35 1.0000000180025095e-35 1.0000000180025095e-35 1.0000000180025095e-35 1.0000000180025095e-35 1.0000000180025095e-35 1.0000000180025095e-35 1.0000000180025095e-35 1.0000000180025095e-35 1.0000000180025095e-35 1.0000000180025095e-35 1.0000000180025095e-35 1.0000000180025095e-35 1.0000000180025095e-35 1.0000000180025095e-35 1.0000000180025095e-35 1.0000000180025095e-35 1.0000000180025095e-35 1.0000000180025095e-35 1.0000000180025095e-35 1.0000000180025095e-35 1.0000000180025095e-35 1.0000000180025095e-35 1.0000000180025095e-35 1.0000000180025095e-35 1.0000000180025095e-35 1.0000000180025095e-35 1.0000000180025095e-35 1.0000000180025095e-35 1.0000000180025095e-35 1.0000000180025095e-35 1.0000000180025095e-35
decision_type=2 2 2 2 2 2 2 2 2 2 2 2 2 2 2 2 2 2 2 2 2 2 2 2 2 2 2 2 2 2 2 2 2 2 2 2 2 2 2 2 2 2 2 2 2 2 2 2 2 2 2 2 2 2 2 2 2 2 2 2 2 2
left_child=1 2 3 4 5 6 7 8 9 10 11 12 13 14 15 16 18 49 19 20 21 22 23 24 25 26 28 41 29 30 31 32 33 34 35 36 37 38 39 42 -41 46 43 44 45 50 47 48 53 54 51 52 55 58 -18 56 59 -3 61 -1 -8 -9
right_child=-2 57 -4 -5 -6 -7 60 27 -10 -11 -12 -13 -14 -15 -16 -17 17 -19 -20 -21 -22 -23 -24 -25 -26 -27 -28 -29 -30 -31 -32 -33 -34 -35 -36 -37 -38 -39 -40 40 -42 -43 -44 -45 -46 -47 -48 -49 -50 -51 -52 -53 -54 -55 -56 -57 -58 -59 -60 -61 -62 -63
leaf_value=-0.0030696056422147761 0.030659421578562239 0.01538212915708626 0.024649345063161091 0.018701821462942459 -0.016989944891233111 0.027350861968280866 0.01329583718133823 0.0043388698826602803 -0.016577864026868207 -0.018595646023786092 0.020090645124033728 0.027697174829947133 -0.017303176541749773 0.021311680736708173 0.016886186225171053 -0.018103336470322504 0.0056142595285453992 -0.0090956635615626613 0.023389141851135897 -0.016758048388184534 0.019299305663272179 0.0063552399967762973 -0.013261863434514562 0.011317172477893352 0.018946241296149632 -0.015549238377924728 0.0071326505108018721 -0.017889074159291456 0.009423788466077155 0.0026204123501240399 0.012601984458902043 -0.020751834789595441 0.011609603945807605 -0.018984094263903548 0.0082256640692252303 0.0049758264091893057 -0.0082022950700165118 0.004946110984402609 -0.014755441327234291 0.0061221816638464335 -0.0044992756035055785 0.016615443188204081 0.0055835212346777791 -0.010656796708835688 0.0024832023774343571 0.0047469225235219131 -0.0041604768315578423 0.00061341611531961972 0.013795074020038893 0.01457111578547172 -0.010287461270831064 0.0071025588523484584 0.00082752742848032348 -0.00018108321934059125 0.01507754198477214 0.0025443819575788331 -0.0076193115201623213 0.0081208672228002838 0.012941944261724726 -0.0092830341151155151 0.0056705634679300549 0.011451169953325194
leaf_count=28511 484 1140 427 613 685 200 789 3428 510 373 215 103 385 165 249 319 2338 771 121 336 149 907 502 336 119 283 566 100 318 1747 198 137 193 134 291 555 1014 485 183 671 502 130 290 337 715 312 304 1273 185 208 261 124 818 453 119 308 496 211 141 232 187 164
internal_value=0 -0.0172394 -0.0404589 -0.0532437 -0.0676577 -0.0544945 -0.0613996 -0.0768452 -0.116089 -0.105565 -0.0966498 -0.10326 -0.10759 -0.0989631 -0.104472 -0.111179 -0.103553 0.213521 -0.129495 -0.134405 -0.12649 -0.13161 -0.144079 -0.134836 -0.14238 -0.146625 -0.14025 0.226208 -0.149271 -0.155731 -0.171481 -0.176987 -0.172485 -0.177556 -0.173537 -0.179434 -0.187511 -0.17687 -0.184183 -0.179838 0.105959 0.249485 -0.190212 -0.195309 -0.189852 -0.19806 0.230688 0.258014 0.3212 0.44928 -0.203289 -0.199163 -0.201924 0.294695 0.404971 -0.209062 -0.213066 0.949926 0.331899 -0.207974 0.789168 0.310956
internal_count=58820 58336 56985 56558 55945 55260 55060 54084 47906 47396 47023 46808 46705 46320 46155 45906 45587 3436 42151 42030 41694 41545 40638 40136 39800 39681 39398 6178 38832 38514 36767 36569 36432 36239 36105 35814 35259 34245 33760 33577 1173 6078 32404 32114 31777 31062 5948 5644 4371 2665 30750 30489 30365 4186 2457 29547 29239 1351 3733 28743 976 3592
shrinkage=0.015


Tree=9
num_leaves=63
num_cat=0
split_feature=177 40 81 730 338 58 158 621 401 141 846 496 34 417 343 698 371 770 690 571 227 953 634 433 9 887 688 264 610 354 828 368 296 796 373 261 166 152 596 333 94 859 218 568 234 580 339 396 859 846 493 203 664 616 861 327 1 914 567 667 567 7
split_gain=487.044 430.565 325.857 283.008 257.536 247.565 248.075 179.08 164.033 145.49 138.149 215.914 129.408 122.163 106.058 104.972 100.487 98.1542 95.6329 92.6614 89.6842 90.3722 89.4208 86.9398 79.6824 76.9277 70.0072 67.839 68.5442 65.9032 64.6401 65.2398 63.0012 53.7022 49.7187 45.6545 43.9773 44.0004 43.8028 43.8525 44.8506 42.3992 40.7111 40.0814 39.7226 42.5495 37.9936 37.0109 36.0684 34.8876 32.3349 31.6959 29.3144 27.5903 30.126 28.0094 26.8512 26.945 25.4853 24.221 20.2052 19.3497
threshold=1.0000000180025095e-35 1.0000000180025095e-35 1.0000000180025095e-35 1.0000000180025095e-35 1.0000000180025095e-35 1.0000000180025095e-35 1.0000000180025095e-35 1.0000000180025095e-35 1.0000000180025095e-35 1.0000000180025095e-35 1.0000000180025095e-35 1.0000000180025095e-35 1.0000000180025095e-35 1.0000000180025095e-35 1.0000000180025095e-35 1.0000000180025095e-35 1.0000000180025095e-35 1.0000000180025095e-35 1.0000000180025095e-35 1.0000000180025095e-35 1.0000000180025095e-35 1.0000000180025095e-35 1.0000000180025095e-35 1.0000000180025095e-35 1.0000000180025095e-35 1.0000000180025095e-35 1.0000000180025095e-35 1.0000000180025095e-35 1.0000000180025095e-35 1.0000000180025095e-35 1.0000000180025095e-35 1.0000000180025095e-35 1.0000000180025095e-35 1.0000000180025095e-35 1.0000000180025095e-35 1.0000000180025095e-35 1.0000000180025095e-35 1.0000000180025095e-35 1.0000000180025095e-35 1.0000000180025095e-35 1.0000000180025095e-35 1.0000000180025095e-35 1.0000000180025095e-35 1.0000000180025095e-35 1.0000000180025095e-35 1.0000000180025095e-35 1.0000000180025095e-35 1.0000000180025095e-35 1.0000000180025095e-35 1.0000000180025095e-35 1.0000000180025095e-35 1.0000000180025095e-35 1.0000000180025095e-35 1.0000000180025095e-35 1.0000000180025095e-35 1.0000000180025095e-35 1.0000000180025095e-35 1.0000000180025095e-35 1.0000000180025095e-35 1.0000000180025095e-35 1.0000000180025095e-35 1.0000000180025095e-35
decision_type=2 2 2 2 2 2 2 2 2 2 2 2 2 2 2 2 2 2 2 2 2 2 2 2 2 2 2 2 2 2 2 2 2 2 2 2 2 2 2 2 2 2 2 2 2 2 2 2 2 2 2 2 2 2 2 2 2 2 2 2 2 2
left_child=1 2 3 4 5 6 7 8 9 10 12 29 13 14 15 16 17 18 19 20 21 22 23 24 25 26 27 28 30 -12 31 32 33 34 35 36 37 38 39 40 42 -3 43 44 45 46 50 -19 -42 -9 51 52 53 54 55 56 57 58 59 61 -33 -1
right_child=-2 41 -4 -5 -6 -7 -8 49 -10 -11 11 -13 -14 -15 -16 -17 -18 47 -20 -21 -22 -23 -24 -25 -26 -27 -28 -29 -30 -31 -32 60 -34 -35 -36 -37 -38 -39 -40 -41 48 -43 -44 -45 -46 -47 -48 -49 -50 -51 -52 -53 -54 -55 -56 -57 -58 -59 -60 -61 -62 -63
leaf_value=-0.0042751725576856839 0.030105427672667062 0.014454415199270883 0.014272678844014437 0.024166693023669372 0.031084823781217661 0.023557500801639715 0.033559609563447897 -0.0089726590075308223 0.027986053259967683 0.015381048486729196 0.0095574179315651535 -0.019205192803220236 0.020880271635425076 0.024439374632986913 0.0094332588144232354 0.021022254731918093 -0.023283372930633723 0.0035069770844054628 0.019143065146940617 0.0090665590177500567 -0.015559409942232854 -0.018414553195051711 -0.010555429466915537 -0.025392427565411973 0.02486478938784226 0.011885742168230842 0.014665719114073043 -0.016803669687431397 0.011984008039341841 -0.0083350442547574736 0.017199788762440351 0.0021191671640623131 0.007989012304192529 -0.015884982210229447 0.0062709093981430106 -0.0163603838423843 -0.019164525561360578 -0.017720012489071305 0.0076430939572825485 0.0080335071037690043 0.0046649200178726195 0.0016985747570972588 0.015653397824029951 0.0056435940163896831 0.0042637570897045623 0.012891065955217157 -0.015839338571823351 0.01665845941247952 -0.012109355026414449 0.0022286376244335412 0.0081421997751425362 -0.01629762610451611 0.0086609023708739512 0.0031657496844960326 0.0091292852477104208 0.00062336374314359727 0.0090729223680570334 0.0070414754591230366 0.0010805805135527225 0.0063340604180501118 0.012709276930071857 -0.01643484366308972
leaf_count=28154 484 1931 1281 402 222 362 183 3492 176 470 2242 302 227 159 717 176 215 999 186 612 511 338 1251 151 100 350 220 306 303 207 153 1487 489 298 540 236 155 185 368 336 1067 274 105 461 617 145 234 244 134 277 218 181 181 549 168 1285 145 202 851 198 186 122
internal_value=0 -0.0169883 -0.0516134 -0.0753848 -0.0879557 -0.0969529 -0.108205 -0.116274 -0.0841467 -0.0910721 -0.101838 0.338329 -0.128017 -0.135541 -0.141688 -0.153954 -0.160064 -0.153504 -0.1695 -0.175714 -0.186918 -0.176826 -0.168499 -0.152194 -0.146519 -0.150977 -0.159228 -0.165513 -0.15822 0.536526 -0.165626 -0.170759 -0.188224 -0.197777 -0.190871 -0.199986 -0.194178 -0.189549 -0.184468 -0.191734 -0.198748 0.858358 -0.212418 -0.21636 -0.224611 -0.234267 -0.23917 0.406844 0.186588 -0.543017 -0.233281 -0.238594 -0.233795 -0.238461 -0.246431 -0.251088 -0.263806 -0.268092 -0.273183 -0.283541 0.220074 -0.2885
internal_count=58820 58336 56131 54850 54448 54226 53864 53681 49912 49736 49266 2751 46515 46288 46129 45412 45236 45021 43778 43592 42980 42469 42131 40880 40729 40629 40279 40059 39753 2449 39450 39297 37624 37135 36837 36297 36061 35906 35721 35353 35017 2205 33816 33711 33250 32633 32488 1243 1201 3769 32254 32036 31855 31674 31125 30957 29672 29527 29325 28474 1673 28276
shrinkage=0.015


Tree=10
num_leaves=63
num_cat=0
split_feature=394 68 177 757 582 582 316 283 808 661 795 177 690 371 797 352 682 212 417 283 661 749 884 637 887 212 456 548 12 495 738 848 455 694 327 712 405 12 825 452 861 456 493 339 664 73 624 15 273 595 212 376 522 657 33 327 376 277 73 405 719 851
split_gain=736.488 666.74 340.027 238.459 198.145 140.014 134.028 134.444 112.597 106.87 88.9118 86.131 79.6952 75.5375 73.2418 73.0096 72.5535 68.3985 68.3322 66.464 63.0664 57.3318 47.9718 44.671 40.9535 39.92 39.4374 38.097 33.8416 35.6646 33.7839 31.3208 30.4648 29.6837 31.3604 31.2129 26.883 31.0066 26.7984 26.5436 25.2893 21.8331 21.2388 20.4454 20.0291 20.3553 18.7777 18.5586 16.9153 16.3987 16.325 15.1852 14.6975 14.6047 14.5961 14.4748 13.6086 12.7496 11.5111 11.1179 10.6108 9.97112
threshold=1.0000000180025095e-35 1.0000000180025095e-35 1.0000000180025095e-35 1.0000000180025095e-35 1.0000000180025095e-35 1.0000000180025095e-35 1.0000000180025095e-35 1.0000000180025095e-35 1.0000000180025095e-35 1.0000000180025095e-35 1.0000000180025095e-35 1.0000000180025095e-35 1.0000000180025095e-35 1.0000000180025095e-35 1.0000000180025095e-35 1.0000000180025095e-35 1.0000000180025095e-35 1.0000000180025095e-35 1.0000000180025095e-35 1.0000000180025095e-35 1.0000000180025095e-35 1.0000000180025095e-35 1.0000000180025095e-35 1.0000000180025095e-35 1.0000000180025095e-35 1.0000000180025095e-35 1.0000000180025095e-35 1.0000000180025095e-35 1.0000000180025095e-35 1.0000000180025095e-35 1.0000000180025095e-35 1.0000000180025095e-35 1.0000000180025095e-35 1.0000000180025095e-35 1.0000000180025095e-35 1.0000000180025095e-35 1.0000000180025095e-35 1.0000000180025095e-35 1.0000000180025095e-35 1.0000000180025095e-35 1.0000000180025095e-35 1.0000000180025095e-35 1.0000000180025095e-35 1.0000000180025095e-35 1.0000000180025095e-35 1.0000000180025095e-35 1.0000000180025095e-35 1.0000000180025095e-35 1.0000000180025095e-35 1.0000000180025095e-35 1.0000000180025095e-35 1.0000000180025095e-35 1.0000000180025095e-35 1.0000000180025095e-35 1.0000000180025095e-35 1.0000000180025095e-35 1.0000000180025095e-35 1.0000000180025095e-35 1.0000000180025095e-35 1.0000000180025095e-35 1.0000000180025095e-35 1.0000000180025095e-35
decision_type=2 2 2 2 2 2 2 2 2 2 2 2 2 2 2 2 2 2 2 2 2 2 2 2 2 2 2 2 2 2 2 2 2 2 2 2 2 2 2 2 2 2 2 2 2 2 2 2 2 2 2 2 2 2 2 2 2 2 2 2 2 2
left_child=1 2 3 4 6 11 7 8 9 10 12 16 13 14 15 17 18 21 19 20 25 22 23 24 28 26 27 36 29 30 31 32 33 34 35 38 37 39 40 47 41 42 43 44 45 46 48 51 49 52 -6 54 53 56 57 -7 59 -3 -27 61 -19 -1
right_child=-2 5 -4 -5 50 55 -8 -9 -10 -11 -12 -13 -14 -15 -16 -17 -18 60 -20 -21 -22 -23 -24 -25 -26 58 -28 -29 -30 -31 -32 -33 -34 -35 -36 -37 -38 -39 -40 -41 -42 -43 -44 -45 -46 -47 -48 -49 -50 -51 -52 -53 -54 -55 -56 -57 -58 -59 -60 -61 -62 -63
leaf_value=-0.0037368251262121887 -0.018505338197970529 0.0025145366721809528 0.029222539198385297 0.018840063124694439 0.0053711448941582522 0.017181610723726645 0.02687410773239067 0.015925473190833154 0.015280982331725911 0.0073235122466227534 0.012592831253153242 0.030744493127258805 0.017633997690918089 -0.022538365955652586 -0.025019784282932809 0.016673342652733885 0.030117089761212908 0.0011396226951736236 0.025994492582880144 0.024137708814819421 0.016568061209873291 -0.016724485324933973 0.01334129932408276 -0.021128541333832067 0.0096042664633630044 0.0094071958159228919 -0.013319044005816001 0.021920469130019139 0.0063801390032196519 -0.013968080452950933 -0.016712355412901746 -0.019271699075944806 0.011191509233126543 0.0030543606218647354 0.0019605625254396335 0.0086085423245051817 0.011285730582234706 0.016957964416595903 0.0034191459759306004 0.01188720818609139 0.0069868071867774479 -0.012108801278050793 0.0064847439229873648 -0.013424695107575619 0.0091299535223263728 -0.0083097953039615053 0.0041336638569422803 0.014063897418858105 0.0079231537044205328 -0.015727314213988704 0.011889708959099765 -0.00770927450529233 -0.011673098643307674 0.0036564272556001273 -0.0063410544126243249 0.0057804561968033364 -0.0098710200891638702 0.010789361806602105 -0.00094516056725614669 0.00090655618228021814 -0.0084776425099599099 -0.0075724257612435376
leaf_count=25298 1951 7678 331 527 2202 1161 144 366 326 971 340 122 171 187 140 174 107 3666 141 160 387 300 158 132 223 1416 129 103 321 300 177 114 133 652 943 190 381 145 475 287 197 300 182 209 109 933 277 126 112 108 420 137 219 243 169 112 341 175 106 463 109 644
internal_value=0 0.0416256 -0.0782932 -0.0940228 -0.11071 0.442915 -0.145895 -0.152943 -0.164262 -0.174085 -0.190878 0.373824 -0.200085 -0.206322 -0.20002 -0.194598 0.355948 -0.200695 0.340509 0.323099 0.304534 -0.229725 -0.22183 -0.227139 -0.222466 0.275807 0.226116 0.241669 -0.228356 -0.234823 -0.228362 -0.223506 -0.219728 -0.22378 -0.23274 -0.244106 0.227755 0.204667 -0.249289 0.188914 -0.256965 -0.261826 -0.256228 -0.260586 -0.256004 -0.259321 -0.249392 0.167875 -0.254706 -0.257949 0.427873 0.155938 -0.254823 -0.250574 0.167335 1.07863 -0.25508 0.179982 0.579075 -0.249882 0.0574989 -0.255468
internal_count=58820 56869 43827 43496 42969 13042 40347 40203 39837 39511 38540 11769 38200 38029 37842 37702 11647 37528 11540 11399 11239 33753 33453 33295 33163 10852 9330 9201 32940 32619 32319 32142 32028 31895 31243 30300 9098 8717 30110 8572 29635 29438 29138 28956 28747 28638 27705 8285 27428 27316 2622 8159 27208 26989 8022 1273 26746 7853 1522 26405 3775 25942
shrinkage=0.015


Tree=11
num_leaves=63
num_cat=0
split_feature=582 550 730 158 91 576 131 942 316 754 34 141 733 227 343 734 118 776 439 39 433 828 544 796 145 660 4 83 296 790 688 289 712 756 66 827 594 256 567 248 431 848 963 104 141 49 790 664 570 854 290 105 343 92 851 135 748 576 49 901 60 886
split_gain=432.086 351.383 264.865 254.229 225.037 195.669 155.567 150.02 149.865 145.326 140.952 112.007 103.468 98.5279 100.079 94.4011 89.2714 89.0323 82.0839 79.5857 78.9416 77.6173 71.8777 68.9437 66.9749 61.5583 63.8816 53.4457 49.5177 48.4645 47.1182 45.5831 43.894 39.6732 41.303 37.6915 33.7939 33.1096 33.6734 32.0642 29.9545 29.7452 26.885 26.9475 24.7888 24.4973 21.7195 21.2783 20.4272 25.318 21.3129 19.0949 18.1357 16.4833 14.6695 14.5035 13.9885 13.9681 13.9312 13.5772 13.419 12.6953
threshold=1.0000000180025095e-35 1.0000000180025095e-35 1.0000000180025095e-35 1.0000000180025095e-35 1.0000000180025095e-35 1.0000000180025095e-35 1.0000000180025095e-35 1.0000000180025095e-35 1.0000000180025095e-35 1.0000000180025095e-35 1.0000000180025095e-35 1.0000000180025095e-35 1.0000000180025095e-35 1.0000000180025095e-35 1.0000000180025095e-35 1.0000000180025095e-35 1.0000000180025095e-35 1.0000000180025095e-35 1.0000000180025095e-35 1.0000000180025095e-35 1.0000000180025095e-35 1.0000000180025095e-35 1.0000000180025095e-35 1.0000000180025095e-35 1.0000000180025095e-35 1.0000000180025095e-35 1.0000000180025095e-35 1.0000000180025095e-35 1.0000000180025095e-35 1.0000000180025095e-35 1.0000000180025095e-35 1.0000000180025095e-35 1.0000000180025095e-35 1.0000000180025095e-35 1.0000000180025095e-35 1.0000000180025095e-35 1.0000000180025095e-35 1.0000000180025095e-35 1.0000000180025095e-35 1.0000000180025095e-35 1.0000000180025095e-35 1.0000000180025095e-35 1.0000000180025095e-35 1.0000000180025095e-35 1.0000000180025095e-35 1.0000000180025095e-35 1.0000000180025095e-35 1.0000000180025095e-35 1.0000000180025095e-35 1.0000000180025095e-35 1.0000000180025095e-35 1.0000000180025095e-35 1.0000000180025095e-35 1.0000000180025095e-35 1.0000000180025095e-35 1.0000000180025095e-35 1.0000000180025095e-35 1.0000000180025095e-35 1.0000000180025095e-35 1.0000000180025095e-35 1.0000000180025095e-35 1.0000000180025095e-35
decision_type=2 2 2 2 2 2 2 2 2 2 2 2 2 2 2 2 2 2 2 2 2 2 2 2 2 2 2 2 2 2 2 2 2 2 2 2 2 2 2 2 2 2 2 2 2 2 2 2 2 2 2 2 2 2 2 2 2 2 2 2 2 2
left_child=1 2 3 4 5 6 7 8 9 10 11 12 13 14 15 16 17 18 19 20 21 22 23 24 25 26 27 28 30 -28 31 32 33 34 35 36 37 38 39 40 41 42 43 45 58 46 47 48 49 50 51 53 55 56 -8 57 60 -2 -7 -6 61 -1
right_child=52 -3 -4 -5 59 44 54 -9 -10 -11 -12 -13 -14 -15 -16 -17 -18 -19 -20 -21 -22 -23 -24 -25 -26 -27 29 -29 -30 -31 -32 -33 -34 -35 -36 -37 -38 -39 -40 -41 -42 -43 -44 -45 -46 -47 -48 -49 -50 -51 -52 -53 -54 -55 -56 -57 -58 -59 -60 -61 -62 -63
leaf_value=-0.0033395111629362737 0.0085155600796059973 0.025210047255867962 0.023861943624422864 0.032943198692751897 0.013980403719974149 0.0040109122730767012 0.0074359537343030944 0.0091476001066329287 0.027177924871865662 -0.017571585708639852 0.022232481248819585 0.014052116388997853 0.024426341761005058 -0.016290539071451515 0.0094960921617800696 -0.025124932240905059 0.024352826903759138 0.02241064159098298 0.022764426087811887 0.022470203228932489 -0.025088467514158396 0.016742553370125108 0.022496432808426756 -0.01696929135318212 -0.020615654918699516 -0.017912924023554926 -0.013118943681649627 -0.024796728705324161 0.0068427144473959577 0.0075632462017490489 0.012799463413011091 -0.01365972744498292 0.0080101788707386788 -0.014006310170416366 -0.0097786917557839449 -0.015400270511792585 -0.017610944166737301 0.0068266765772584236 0.0022645509986810226 0.007711985109343387 -0.017458758677331723 -0.018764125129396552 -0.014535610717299228 0.0061559816948275241 0.01744596015857286 0.0048461557997072705 0.00054596547980276938 0.009249116820376959 0.0049239457934096868 -0.017963708894429477 0.0079580363219192221 0.0094514292893630499 0.018639750908700382 0.0051934913053291029 -0.0038983241437585306 -0.00099542434751579388 -0.012006847028728628 0.013391630769346663 0.015340221869709776 0.0067700804734053578 0.0022064916471078232 0.0043632399387306666
leaf_count=30740 3164 473 390 199 828 3960 1653 1007 152 612 208 361 127 514 600 179 110 127 113 111 153 181 100 339 202 258 867 102 495 119 177 361 344 295 767 214 139 346 1266 267 130 108 180 314 135 384 1642 129 291 107 160 110 187 213 112 129 169 648 102 337 415 198
internal_value=0 -0.0479545 -0.0632276 -0.0753658 -0.0839113 -0.103575 -0.140218 -0.162762 -0.179944 -0.18675 -0.173354 -0.181187 -0.190448 -0.19575 -0.185405 -0.196968 -0.190843 -0.195581 -0.200668 -0.205294 -0.209831 -0.204577 -0.210319 -0.214443 -0.207046 -0.201357 -0.195179 -0.182657 -0.178923 -0.706668 -0.186952 -0.191676 -0.185034 -0.191488 -0.185787 -0.176262 -0.171401 -0.167682 -0.173569 -0.185166 -0.190474 -0.186885 -0.183612 -0.179592 0.314869 -0.184983 -0.190727 -0.202246 -0.205535 -0.210398 -0.207109 -0.210826 0.629891 -0.213762 0.447884 0.600642 -0.217582 0.623157 0.286427 0.793211 -0.214447 -0.219322
internal_count=58820 54692 54219 53829 53630 52465 48268 46503 45496 45344 44732 44524 44163 44036 43522 42922 42743 42633 42506 42393 42282 42129 41948 41848 41509 41307 41049 40063 39961 986 39466 39289 38928 38584 38289 37522 37308 37169 36823 35557 35290 35160 35052 34872 4197 34558 34174 32532 32403 32112 32005 31845 4128 31735 1765 3941 31522 3812 4062 1165 31353 30938
shrinkage=0.015


Tree=12
num_leaves=63
num_cat=0
split_feature=40 757 58 576 969 754 410 621 401 316 698 34 141 797 749 690 343 82 264 373 368 52 828 83 178 218 248 1 658 309 621 245 322 185 568 500 660 141 688 713 854 567 713 621 702 610 832 567 706 256 354 368 178 78 566 287 445 787 18 23 369 901
split_gain=417.658 273.164 244.563 212.062 174.799 165.736 161.49 158.931 153.288 133.021 131.823 124.822 108.337 105.233 99.4366 96.6712 90.9228 88.5396 78.6748 68.8713 63.9758 63.9359 62.8676 57.4799 57.1314 56.6673 52.0159 51.2507 48.6505 46.422 45.8491 39.402 37.8474 36.7211 32.7455 31.8841 28.0276 27.9849 26.9174 24.4663 25.7902 24.8617 22.5214 21.7524 19.6331 19.0148 18.6905 16.6683 16.5974 16.9471 15.0938 14.976 14.9577 13.3702 12.8765 13.4741 15.2624 15.1136 11.8713 11.3779 10.5346 10.3897
threshold=1.0000000180025095e-35 1.0000000180025095e-35 1.0000000180025095e-35 1.0000000180025095e-35 1.0000000180025095e-35 1.0000000180025095e-35 1.0000000180025095e-35 1.0000000180025095e-35 1.0000000180025095e-35 1.0000000180025095e-35 1.0000000180025095e-35 1.0000000180025095e-35 1.0000000180025095e-35 1.0000000180025095e-35 1.0000000180025095e-35 1.0000000180025095e-35 1.0000000180025095e-35 1.0000000180025095e-35 1.0000000180025095e-35 1.0000000180025095e-35 1.0000000180025095e-35 1.0000000180025095e-35 1.0000000180025095e-35 1.0000000180025095e-35 1.0000000180025095e-35 1.0000000180025095e-35 1.0000000180025095e-35 1.0000000180025095e-35 1.0000000180025095e-35 1.0000000180025095e-35 1.0000000180025095e-35 1.0000000180025095e-35 1.0000000180025095e-35 1.0000000180025095e-35 1.0000000180025095e-35 1.0000000180025095e-35 1.0000000180025095e-35 1.0000000180025095e-35 1.0000000180025095e-35 1.0000000180025095e-35 1.0000000180025095e-35 1.0000000180025095e-35 1.0000000180025095e-35 1.0000000180025095e-35 1.0000000180025095e-35 1.0000000180025095e-35 1.0000000180025095e-35 1.0000000180025095e-35 1.0000000180025095e-35 1.0000000180025095e-35 1.0000000180025095e-35 1.0000000180025095e-35 1.0000000180025095e-35 1.0000000180025095e-35 1.0000000180025095e-35 1.0000000180025095e-35 1.0000000180025095e-35 1.0000000180025095e-35 1.0000000180025095e-35 1.0000000180025095e-35 1.0000000180025095e-35 1.0000000180025095e-35
decision_type=2 2 2 2 2 2 2 2 2 2 2 2 2 2 2 2 2 2 2 2 2 2 2 2 2 2 2 2 2 2 2 2 2 2 2 2 2 2 2 2 2 2 2 2 2 2 2 2 2 2 2 2 2 2 2 2 2 2 2 2 2 2
left_child=1 2 3 4 5 6 7 8 9 10 11 12 13 14 15 16 17 18 19 20 21 22 23 24 25 26 27 28 29 31 37 33 -26 34 35 36 38 44 39 40 41 45 58 52 51 46 48 -22 49 50 53 -5 -2 54 55 56 57 59 -9 60 -1 -41
right_child=43 -3 -4 30 -6 -7 -8 42 -10 -11 -12 -13 -14 -15 -16 -17 -18 -19 -20 -21 47 -23 -24 -25 32 -27 -28 -29 -30 -31 -32 -33 -34 -35 -36 -37 -38 -39 -40 61 -42 -43 -44 -45 -46 -47 -48 -49 -50 -51 -52 -53 -54 -55 -56 -57 -58 -59 -60 -61 -62 -63
leaf_value=-0.0027604979007023081 0.01462710560403674 0.018858485574185225 0.023499343428617831 0.0059811208546942472 0.020295702964025601 -0.016978398173112252 0.027415801048427883 -0.0073242445103554078 0.028522735439145169 0.026760734518104838 0.022839170499346164 0.020962692815274814 0.014894699884893309 -0.023924144032321449 -0.016693764262697735 0.019072934098631283 0.0097217104284766029 -0.020578525785955284 -0.017303860489180298 0.0082747621261396662 0.0029096435761339478 0.012492941985112365 0.017412069455600573 -0.02452834288213496 -0.0073944409841039064 0.019711755661873082 0.0097237626814886575 0.013137146076653847 -0.012660045136536516 0.0044970645932477403 -0.0044289536362257971 0.001895176285983278 0.0071520387077124888 0.011775081202806398 0.0058008709803962126 0.014247053045952494 -0.014754099427780418 0.01930920116630019 0.0099797749452589842 -0.0041662644063678823 -0.016557036191120759 0.0028332189822765298 -0.014493253042628964 0.0041491552652647441 -0.00056983733207176268 0.0077708973161838748 -0.014870036498713102 0.012277332252835 0.0092000619646530387 0.0057735101952680707 -0.0067425839357131579 0.013981674346963737 0.0050859353520147218 -0.012996094357046186 0.0064669293953917234 -0.00038234537327881376 0.0058963950627674453 -0.010082926341871024 0.0030297012298115956 0.0075075933427881077 0.00094695156794664731 -0.0085729493412658678
leaf_count=23209 1835 658 379 3424 334 648 176 2881 160 154 206 227 365 197 400 210 652 230 295 658 1671 283 153 106 2379 113 361 208 390 1038 407 2233 178 170 448 105 174 144 159 1645 117 873 421 238 402 169 112 194 113 230 753 228 164 110 152 2785 193 254 106 102 731 710
internal_value=0 -0.0341934 -0.0495556 -0.0606763 -0.0984945 -0.108218 -0.0950578 -0.101972 -0.0709722 -0.0778629 -0.0842199 -0.0915445 -0.0990629 -0.108006 -0.101574 -0.0925996 -0.0991253 -0.110383 -0.103792 -0.0967165 -0.106813 -0.123679 -0.130428 -0.135379 -0.131467 -0.111567 -0.11591 -0.123371 -0.129048 -0.121474 0.354253 -0.133869 -0.425275 -0.151402 -0.156249 -0.163741 -0.167348 0.416786 -0.163009 -0.167137 -0.151458 -0.147729 -0.52556 0.854592 0.385565 -0.15794 -0.161946 0.25931 -0.158717 -0.16181 -0.166286 0.432195 0.92304 -0.158527 -0.155701 -0.158997 -0.17424 -0.178767 -0.463638 -0.173571 -0.176464 -0.366345
internal_count=58820 56583 55925 55546 50941 50607 49959 49783 46375 46215 46061 45855 45628 45263 45066 44666 44456 43804 43574 43279 42621 40756 40473 40320 40214 37657 37544 37183 36975 36585 4605 35547 2557 33314 33144 32696 32591 4198 32417 32258 29903 29786 3408 2237 4054 28913 28744 1865 28632 28519 28289 3652 1999 27536 27426 27274 24489 24296 2987 24042 23940 2355
shrinkage=0.015


Tree=13
num_leaves=63
num_cat=0
split_feature=68 538 634 177 550 730 569 795 178 859 569 571 690 860 754 797 343 828 118 816 145 550 949 159 177 218 296 500 276 261 368 652 287 825 32 178 738 12 487 376 276 481 322 166 503 792 548 105 455 667 859 522 15 322 15 618 634 331 343 781 309 4
split_gain=660.463 378.577 351.85 339.141 237.407 194.601 151.082 115.508 114.578 104.753 96.5413 93.697 95.3098 89.578 86.2552 85.2811 83.528 80.7688 78.6368 72.6756 69.1615 64.8821 61.2521 58.2178 53.0524 52.0875 51.023 47.9325 46.3376 43.2282 42.6257 45.9793 41.3726 38.0744 36.648 36.6823 35.6575 32.2469 31.8398 30.737 29.9997 29.3798 26.7928 26.289 24.4227 26.229 23.3215 22.4537 21.923 21.2048 21.1139 20.5108 18.9595 18.6684 18.5014 18.2109 17.7563 16.3197 15.3703 14.9965 15.2232 17.3534
threshold=1.0000000180025095e-35 1.0000000180025095e-35 1.0000000180025095e-35 1.0000000180025095e-35 1.0000000180025095e-35 1.0000000180025095e-35 1.0000000180025095e-35 1.0000000180025095e-35 1.0000000180025095e-35 1.0000000180025095e-35 1.0000000180025095e-35 1.0000000180025095e-35 1.0000000180025095e-35 1.0000000180025095e-35 1.0000000180025095e-35 1.0000000180025095e-35 1.0000000180025095e-35 1.0000000180025095e-35 1.0000000180025095e-35 1.0000000180025095e-35 1.0000000180025095e-35 1.0000000180025095e-35 1.0000000180025095e-35 1.0000000180025095e-35 1.0000000180025095e-35 1.0000000180025095e-35 1.0000000180025095e-35 1.0000000180025095e-35 1.0000000180025095e-35 1.0000000180025095e-35 1.0000000180025095e-35 1.0000000180025095e-35 1.0000000180025095e-35 1.0000000180025095e-35 1.0000000180025095e-35 1.0000000180025095e-35 1.0000000180025095e-35 1.0000000180025095e-35 1.0000000180025095e-35 1.0000000180025095e-35 1.0000000180025095e-35 1.0000000180025095e-35 1.0000000180025095e-35 1.0000000180025095e-35 1.0000000180025095e-35 1.0000000180025095e-35 1.0000000180025095e-35 1.0000000180025095e-35 1.0000000180025095e-35 1.0000000180025095e-35 1.0000000180025095e-35 1.0000000180025095e-35 1.0000000180025095e-35 1.0000000180025095e-35 1.0000000180025095e-35 1.0000000180025095e-35 1.0000000180025095e-35 1.0000000180025095e-35 1.0000000180025095e-35 1.0000000180025095e-35 1.0000000180025095e-35 1.0000000180025095e-35
decision_type=2 2 2 2 2 2 2 2 2 2 2 2 2 2 2 2 2 2 2 2 2 2 2 2 2 2 2 2 2 2 2 2 2 2 2 2 2 2 2 2 2 2 2 2 2 2 2 2 2 2 2 2 2 2 2 2 2 2 2 2 2 2
left_child=1 3 8 4 5 6 7 11 9 10 21 12 13 14 15 16 17 18 19 20 22 24 23 25 28 26 27 29 32 30 31 33 39 34 35 36 37 38 40 44 41 43 -37 46 45 52 47 48 49 51 -13 54 58 -10 55 56 57 59 -2 60 61 -1
right_child=2 -3 -4 -5 -6 -7 -8 -9 53 -11 -12 50 -14 -15 -16 -17 -18 -19 -20 -21 -22 -23 -24 -25 -26 -27 -28 -29 -30 -31 -32 -33 -34 -35 -36 42 -38 -39 -40 -41 -42 -43 -44 -45 -46 -47 -48 -49 -50 -51 -52 -53 -54 -55 -56 -57 -58 -59 -60 -61 -62 -63
leaf_value=-0.0036606467791464445 0.0082186980068636988 0.018045398097482554 -0.0092661540627245031 0.028510425778818391 0.023673960409820696 0.021710182431571644 -0.016720191351855963 0.013243821973073007 -0.00090327789569464396 0.00043232743680558393 -0.019875346514430407 0.011124111777315308 0.018142397409233155 -0.010534101765189293 -0.015532654708366674 -0.024196456589025316 0.0087037439855186631 0.017447744764973312 0.02378907847983219 0.020361073455819698 -0.020677006669063372 0.028136367677699493 -0.01693798576956361 0.013920999170158262 0.029519539387478963 0.017500088994913728 0.0067628108923125435 0.014135440828234605 0.028500140268749904 -0.016431265282848412 0.0029047141178151054 0.0032911326813361 0.013376381086178635 0.0039691798252251735 -0.02080895500125679 -0.0095519153114451121 -0.016022818702911334 0.0060808209268963546 0.0032008907589699529 -0.0071540362972876128 0.012601838427488025 0.0088268270093110595 0.005613797931801924 -0.016365543699925319 0.017060590985707114 0.0021707873919261356 0.0056710096179873751 0.01038796127299536 0.010378648317209213 0.0049125222641158203 -0.0023431195128915472 -0.012266685487441356 0.021682576740078459 0.012329981421633773 0.0031914060459714553 0.0067574404951501604 -0.016565041358217722 0.0053586030071279926 0.018558993525674822 -0.012260487230318442 0.0014373873433956581 -0.0090310683850538098
leaf_count=27902 5647 865 1282 324 317 299 705 424 1501 1249 100 546 197 1396 483 170 606 183 102 123 202 178 282 194 121 116 505 151 115 222 1122 1004 1758 654 113 1259 200 349 701 119 108 180 118 148 288 630 259 107 104 269 133 254 101 105 368 154 100 184 134 190 527 573
internal_value=0 -0.116677 0.395554 -0.14262 -0.157926 -0.17063 -0.181886 -0.166622 0.502096 0.57913 0.653536 -0.177163 -0.189354 -0.196054 -0.178571 -0.168283 -0.162178 -0.173864 -0.180238 -0.184958 -0.189966 0.675188 -0.183761 -0.176816 0.650945 -0.182506 -0.186696 -0.19541 0.63251 -0.200059 -0.194709 -0.206945 0.615545 -0.219346 -0.228656 -0.22484 -0.211181 -0.205935 -0.212627 0.545106 -0.222212 -0.225916 -0.549812 -0.230664 0.562855 0.537331 -0.226619 -0.231748 -0.235006 -0.23819 0.566372 -0.243252 0.579226 -0.00225656 -0.238387 -0.244023 -0.247671 -0.244772 0.564036 -0.248576 -0.244853 -0.251205
internal_count=58820 45492 13328 44627 44303 43986 43687 42982 12046 10440 9191 42558 41879 41682 40286 39803 39633 39027 38844 38742 38619 9091 38417 38135 8913 37941 37825 37320 8792 37169 36947 35825 8677 34821 34167 34054 32677 32477 32128 6919 31427 31319 1377 31139 6800 6512 30991 30732 30625 30521 679 30252 5882 1606 29998 29630 29476 29376 5781 29192 29002 28475
shrinkage=0.015


Tree=14
num_leaves=63
num_cat=0
split_feature=394 177 538 882 81 338 576 942 401 770 645 969 227 188 953 584 749 212 690 828 795 1 343 548 373 178 567 949 848 104 296 493 92 660 249 588 568 212 358 804 665 354 66 971 280 657 330 942 664 971 66 901 900 794 339 588 588 792 241 570 343 570
split_gain=706.207 413.48 344.823 275.472 261.403 228.111 197.815 173.344 149.301 139.652 113.662 112.854 107.807 106.21 102.794 95.341 91.3386 87.5832 99.2375 75.3024 74.1867 69.7756 67.2364 49.5732 44.1168 47.5176 42.4302 37.1596 33.4748 31.6143 30.558 29.7727 27.6042 30.0854 25.8775 22.5594 22.2647 21.3945 19.3335 18.4138 19.445 19.7626 16.338 16.1617 20.3841 15.384 16.2023 13.2112 12.6333 12.4582 12.362 12.0542 11.9547 11.9254 11.7448 11.6403 10.4534 13.5523 11.6722 10.032 9.5872 9.35613
threshold=1.0000000180025095e-35 1.0000000180025095e-35 1.0000000180025095e-35 1.0000000180025095e-35 1.0000000180025095e-35 1.0000000180025095e-35 1.0000000180025095e-35 1.0000000180025095e-35 1.0000000180025095e-35 1.0000000180025095e-35 1.0000000180025095e-35 1.0000000180025095e-35 1.0000000180025095e-35 1.0000000180025095e-35 1.0000000180025095e-35 1.0000000180025095e-35 1.0000000180025095e-35 1.0000000180025095e-35 1.0000000180025095e-35 1.0000000180025095e-35 1.0000000180025095e-35 1.0000000180025095e-35 1.0000000180025095e-35 1.0000000180025095e-35 1.0000000180025095e-35 1.0000000180025095e-35 1.0000000180025095e-35 1.0000000180025095e-35 1.0000000180025095e-35 1.0000000180025095e-35 1.0000000180025095e-35 1.0000000180025095e-35 1.0000000180025095e-35 1.0000000180025095e-35 1.0000000180025095e-35 1.0000000180025095e-35 1.0000000180025095e-35 1.0000000180025095e-35 1.0000000180025095e-35 1.0000000180025095e-35 1.0000000180025095e-35 1.0000000180025095e-35 1.0000000180025095e-35 1.0000000180025095e-35 1.0000000180025095e-35 1.0000000180025095e-35 1.0000000180025095e-35 1.0000000180025095e-35 1.0000000180025095e-35 1.0000000180025095e-35 1.0000000180025095e-35 1.0000000180025095e-35 1.0000000180025095e-35 1.0000000180025095e-35 1.0000000180025095e-35 1.0000000180025095e-35 1.0000000180025095e-35 1.0000000180025095e-35 1.0000000180025095e-35 1.0000000180025095e-35 1.0000000180025095e-35 1.0000000180025095e-35
decision_type=2 2 2 2 2 2 2 2 2 2 2 2 2 2 2 2 2 2 2 2 2 2 2 2 2 2 2 2 2 2 2 2 2 2 2 2 2 2 2 2 2 2 2 2 2 2 2 2 2 2 2 2 2 2 2 2 2 2 2 2 2 2
left_child=1 2 3 4 5 6 7 8 9 10 11 12 13 14 15 16 17 18 19 20 21 22 23 24 25 26 27 28 29 30 31 32 33 34 36 -26 38 47 39 40 41 42 43 44 45 46 48 -8 52 -9 59 -11 53 54 56 -43 58 -58 61 60 -19 -1
right_child=-2 -3 -4 -5 -6 -7 37 49 -10 51 -12 -13 -14 -15 -16 -17 -18 50 -20 -21 -22 -23 -24 -25 35 -27 -28 -29 -30 -31 -32 -33 -34 -35 -36 -37 -38 -39 -40 -41 -42 55 -44 -45 -46 -47 -48 -49 -50 -51 -52 -53 -54 -55 -56 -57 57 -59 -60 -61 -62 -63
leaf_value=-0.0033943704843026066 -0.018180146265082464 0.028397909682588304 0.018561943155692841 0.02256178155836714 0.013270958833075285 0.030035776039568727 0.0040432363835393335 0.01083633783483188 0.027952351734696325 0.009367194937108133 -0.015088998010510937 0.018130993165755574 -0.015713594351420192 0.024219926498487615 -0.017919478277574011 0.023485764978756575 -0.016523617597865449 0.0022583307836008667 0.020234661153186197 0.018824570768143683 0.012583060579459916 0.012450506701607078 0.0082422966999209906 0.0091329955410889441 0.0093697701596553232 -0.0070082515493009511 0.0029908123945957257 -0.015077849963982195 -0.019324987617446523 0.0066146127242134129 0.0054735064774779126 0.008248577783664196 0.0071333469005070487 -0.015419379087316422 -0.016875163833870294 -0.004569366407750978 0.0038267302789938601 0.0098554661725245192 0.0056200780646322081 -0.0090969404420050866 0.0092828543187779208 -0.0055286617138173245 -0.00792588011532918 0.0013702413738286999 0.0080801559414507736 0.0049570623310738844 0.0075523648165184134 0.012621481610996512 0.0062024398702727763 0.002597445046026243 -0.0062051699631762106 0.0023199010506040701 -0.011594748833103382 0.0062866380240685481 -0.011294616291362464 -0.013736585465641079 -0.00038858052718810905 -0.0073242624203264939 0.00069504581428081707 0.011738978453068597 0.011678729060139175 0.0046309285790476712
leaf_count=23070 1951 479 933 491 1288 221 3654 1134 157 1096 597 260 521 144 367 138 385 4200 182 156 309 290 530 328 412 2374 1229 227 112 338 413 222 250 181 124 144 453 805 241 455 119 729 573 859 156 227 134 172 135 198 148 280 152 126 162 205 2263 295 680 110 101 135
internal_value=0 0.0406369 0.0245202 0.00381339 -0.00978871 -0.0316336 -0.0402217 -0.0783851 -0.0986983 -0.105291 -0.124434 -0.112886 -0.120634 -0.110019 -0.115704 -0.10688 -0.112203 -0.103555 -0.134764 -0.141828 -0.147548 -0.155562 -0.163166 -0.173378 -0.180336 -0.18899 -0.169782 -0.1836 -0.177959 -0.174173 -0.180649 -0.187782 -0.192989 -0.198353 -0.193604 0.384357 -0.189944 0.358388 -0.196559 -0.201101 -0.194957 -0.198238 -0.18886 -0.182012 -0.190596 -0.194781 -0.199192 0.295336 -0.202694 0.640692 0.161608 0.528914 -0.205823 -0.202589 -0.205549 -0.488774 -0.202223 -0.0791003 -0.215463 0.180889 0.165428 -0.223164
internal_count=58820 56869 56390 55457 54966 53678 53457 48826 47494 47337 45961 45364 45104 44583 44439 44072 43934 43549 38990 38808 38652 38343 38053 37523 37195 36639 34265 33036 32809 32697 32359 31946 31724 31474 31293 556 31169 4631 30716 30475 30020 29901 28967 28394 27535 27379 27152 3826 27018 1332 4559 1376 26883 26731 26605 934 26443 2558 23885 4411 4301 23205
shrinkage=0.015


Tree=15
num_leaves=63
num_cat=0
split_feature=757 730 158 576 969 652 401 770 621 790 39 405 634 12 343 248 264 373 860 740 828 339 660 185 887 621 166 423 566 333 848 456 92 889 682 495 667 664 859 427 859 7 706 702 851 358 756 859 595 792 405 78 149 369 621 901 652 702 921 901 901 277
split_gain=300.664 262.104 243.55 222.914 165.304 157.538 152.741 150.228 139.272 108.186 100.202 94.8633 87.1255 77.4072 72.6501 72.3077 65.8988 61.7465 55.7443 51.3375 49.7942 51.5296 45.7967 42.6936 40.1273 39.9346 39.6092 38.6379 37.4672 36.1734 34.4584 33.7592 33.9808 29.8081 28.2344 26.9789 24.8679 24.087 24.0263 23.4517 22.7072 21.2531 21.3362 19.9184 16.7847 15.8201 15.5612 15.1954 14.7523 14.2526 13.6689 12.6 12.3822 11.8956 15.2538 11.826 11.5863 11.5726 10.9314 16.6291 10.7495 14.6501
threshold=1.0000000180025095e-35 1.0000000180025095e-35 1.0000000180025095e-35 1.0000000180025095e-35 1.0000000180025095e-35 1.0000000180025095e-35 1.0000000180025095e-35 1.0000000180025095e-35 1.0000000180025095e-35 1.0000000180025095e-35 1.0000000180025095e-35 1.0000000180025095e-35 1.0000000180025095e-35 1.0000000180025095e-35 1.0000000180025095e-35 1.0000000180025095e-35 1.0000000180025095e-35 1.0000000180025095e-35 1.0000000180025095e-35 1.0000000180025095e-35 1.0000000180025095e-35 1.0000000180025095e-35 1.0000000180025095e-35 1.0000000180025095e-35 1.0000000180025095e-35 1.0000000180025095e-35 1.0000000180025095e-35 1.0000000180025095e-35 1.0000000180025095e-35 1.0000000180025095e-35 1.0000000180025095e-35 1.0000000180025095e-35 1.0000000180025095e-35 1.0000000180025095e-35 1.0000000180025095e-35 1.0000000180025095e-35 1.0000000180025095e-35 1.0000000180025095e-35 1.0000000180025095e-35 1.0000000180025095e-35 1.0000000180025095e-35 1.0000000180025095e-35 1.0000000180025095e-35 1.0000000180025095e-35 1.0000000180025095e-35 1.0000000180025095e-35 1.0000000180025095e-35 1.0000000180025095e-35 1.0000000180025095e-35 1.0000000180025095e-35 1.0000000180025095e-35 1.0000000180025095e-35 1.0000000180025095e-35 1.0000000180025095e-35 1.0000000180025095e-35 1.0000000180025095e-35 1.0000000180025095e-35 1.0000000180025095e-35 1.0000000180025095e-35 1.0000000180025095e-35 1.0000000180025095e-35 1.0000000180025095e-35
decision_type=2 2 2 2 2 2 2 2 2 2 2 2 2 2 2 2 2 2 2 2 2 2 2 2 2 2 2 2 2 2 2 2 2 2 2 2 2 2 2 2 2 2 2 2 2 2 2 2 2 2 2 2 2 2 2 2 2 2 2 2 2 2
left_child=1 2 3 4 5 6 7 8 9 10 11 12 13 14 15 16 17 18 19 20 21 22 23 24 26 38 27 28 29 30 31 32 33 35 47 36 37 39 50 41 55 42 43 45 53 46 48 -9 51 -14 56 52 58 54 -7 -11 57 -5 60 -60 61 -1
right_child=-2 -3 -4 25 -6 44 -8 34 -10 40 -12 -13 49 -15 -16 -17 -18 -19 -20 -21 -22 -23 -24 -25 -26 -27 -28 -29 -30 -31 -32 -33 -34 -35 -36 -37 -38 -39 -40 -41 -42 -43 -44 -45 -46 -47 -48 -49 -50 -51 -52 -53 -54 -55 -56 -57 -58 -59 59 -61 -62 -63
leaf_value=-0.0030591540573417192 0.018904299633338447 0.022973182411787182 0.031887945812994395 0.0071580027615738787 0.019446242129632696 0.0074171887924223811 0.027361286277591115 0.0081180347373910541 -0.0081218775238567631 0.0064933380231705466 0.024267790247972952 0.0094804109654368397 -0.0082139926485513444 0.0099762291403189662 0.0092468087611884322 0.012841711233403165 -0.017908607738420783 0.0078399579797986726 -0.008835278661788952 0.019063630029774868 0.016576131492570936 -0.016119007089905369 -0.016552131014895166 0.012009804828402587 0.0092815307220232828 -0.0030479986411427102 -0.018107312636552103 0.014637198110276532 0.008725086915112085 0.0081267410330052303 -0.019608114952574748 -0.011619849729250909 0.0080889395734748213 0.0082772731418919946 0.022367114570740497 -0.011956420349676405 0.0064085060717901125 0.0095567954849263802 0.0017437055484249662 0.0088743960180962689 -0.0019345545470171514 -0.013834528030282789 0.0084940559246491666 0.00079383084856503782 -0.0051015584694727098 0.0055009485961224807 -0.010953004209779701 -0.00044899146613038189 -0.012532352759911597 -0.01558636860333442 0.01518616219316974 -0.012833745436220739 -0.0096607332359812323 0.015155170407266133 -0.001792775645240808 0.0014847069941347174 0.013111967397099234 0.0012321658220754426 0.0078732638648063707 -0.0069872681543779579 -0.0013509012161950153 0.0036430848939503595
leaf_count=25175 757 438 211 2885 352 1766 165 1105 3253 1831 132 642 917 489 504 288 257 542 1234 103 127 254 210 193 274 450 150 124 278 296 110 372 282 236 113 281 288 150 819 163 480 158 158 1475 107 209 221 230 145 335 198 116 237 159 183 568 264 337 210 104 4406 304
